{
  "input_weights": [
    [
      -0.07806773719507473,
      -0.11761316553729409,
      0.04224302594879963,
      -0.029975618587637313,
      -0.003089691225733821,
      0.108014865400167,
      -0.018544615013061143,
      -0.03254919510581575,
      -0.16732320266641335,
      0.166448645212393,
      0.15987689450000317,
      0.15362749021097571,
      -0.10790678393899401,
      -0.0800843229487662,
      -0.03634227244431043,
      0.15573557502738186,
      0.0612160088441458,
      -0.02847123065251116,
      -0.07072953000645155,
      0.13787835235262047,
      -0.10047814985146389,
      -0.1555382685679275,
      0.1276787040160937,
      0.014874590718400311,
      -0.1536929736892039,
      -0.16591930780103842,
      -0.006746829057378262,
      -0.04367791015495518,
      -0.13828247718570844,
      0.01021787422561053,
      -0.13348421773976185,
      -0.031873194665022406,
      0.007749611648476206,
      0.10828098194521583,
      0.045329723585321224,
      0.005557442417501438,
      -0.07944047480523554,
      0.14101637450170665,
      -0.011438198019094944,
      0.005328059018560291,
      0.043615267058528355,
      0.000906036398752301,
      -0.02456192211045849,
      -0.09592584884584135,
      0.09438086524480992,
      -0.11994749241287597,
      -0.11463352667008544,
      -0.04926240114650445,
      -0.12016872657362952,
      0.17063825579477648,
      0.15090475438921072,
      -0.06163171938323453,
      0.07893285823669735,
      -0.0732156336836877,
      -0.01238108622372278,
      0.01305024826341762,
      0.0660436866809752,
      0.07742724838893661,
      0.1451846669394638,
      0.07279594601830573,
      -0.15290993254060342,
      0.16658894946944164,
      -0.14044295706036156,
      0.040789629937207784,
      0.1773839545573794,
      0.06962439408500878,
      0.17432126805784218,
      0.15028713654707554,
      0.17383396218996316,
      0.011735354132307679,
      0.008393294131231504,
      0.0819276633880977,
      -0.12004793364949568,
      0.05007790229281693,
      -0.048043728975695636,
      0.06575003818869721,
      -0.13614057714176186,
      0.12369034062352063,
      -0.0380575514951027,
      0.16893523162010882,
      0.06008339186419529,
      0.05833723850006022,
      0.15602630561938077,
      0.11759417227790359,
      0.07567573597184463,
      -0.1398551780974699,
      0.09333395763283364,
      -0.0026455941653621435,
      0.12303087869070771,
      -0.03208010964800991,
      0.05160394157884618,
      -0.11118081082152229,
      0.1542846697781589,
      0.0935330243564033,
      0.12254937722285644,
      0.0083965238843763,
      0.1624227873428082,
      0.03106104783916038,
      0.02916806855861763,
      -0.07936801178827939,
      -0.03160328953011114,
      0.13684385131673946,
      0.16087025705923594,
      0.1182347298126853,
      -0.15556961914778258,
      -0.04276884139582228,
      -0.09203043104363362,
      -0.07821061706221477,
      0.04767706447892633,
      -0.0735808455664143,
      -0.11210671462269903,
      -0.08270176468341887,
      -0.13958594459587298,
      -0.11402832482063195,
      0.0479563764296388,
      0.18291886000744173,
      0.13499411135664702,
      -0.05645664178105136,
      0.03782708160330726,
      0.020056694899654764,
      -0.15779163119796777,
      0.1385389731878129,
      -0.10624490054651123,
      -0.16909326754163545,
      -0.1761314909488941,
      -0.028868714780133455,
      0.02705075163838598,
      -0.02365940917855406,
      0.04857098495867073,
      -0.16529625141546694,
      -0.08241120969256209,
      0.12747138323977902,
      0.07707435590909154,
      0.07563702225795241,
      0.0058689420132158245,
      -0.04040494849736558,
      0.12864205902400463,
      -0.172140435692795,
      0.1300760101359852,
      -0.13897772541782202,
      -0.12512789948398734,
      0.16047348375573897,
      -0.17885863269138014,
      0.051302524412326606,
      -0.07620153498840454,
      0.07569575351916001,
      0.035183710901994174,
      0.17983703100969148,
      0.13598546477268778,
      0.1155041485159096,
      0.12006909558932022,
      0.1724104061199487,
      0.14228281706552942,
      0.18670167507505223,
      0.09914491590188373,
      0.1449260903143987,
      -0.13633494995195983,
      -0.020637829772274015
    ],
    [
      0.12028330844892027,
      -0.0858048755261871,
      0.053705755679411424,
      -0.13037410144447822,
      0.12185450701930929,
      0.1681266717806346,
      0.059896161092558416,
      0.15987529496973543,
      0.10691112065992477,
      -0.17046100591442329,
      0.050334636928329166,
      -0.06735388698893723,
      -0.04491515550469713,
      -0.008252648079294404,
      -0.0235948644978464,
      0.13124699708858836,
      0.06511328407284382,
      -0.013905450181246087,
      0.17471561197436147,
      0.16164888671627617,
      -0.041873772854265565,
      -0.11389279577720358,
      0.0004575575083970746,
      -0.17688516690409245,
      -0.06250497445221209,
      0.012311413524455243,
      -0.14875097738935092,
      0.09980171184883758,
      0.12512034886653647,
      -0.039421422233027796,
      0.16884273941992217,
      0.15726915625927915,
      0.04574261927042657,
      0.05734223721938986,
      -0.12569836054057237,
      -0.04605746330479375,
      0.11276981401749588,
      0.16304437545792988,
      0.08631289106741137,
      0.05080276110809831,
      -0.16878284421725737,
      -0.17736888416292473,
      -0.09559060800894642,
      0.08074259491364394,
      0.08430121403127905,
      -0.16394439252099272,
      0.07633083482057226,
      0.13743267688818978,
      0.0507397769761723,
      0.11070216584139772,
      -0.05911195307652218,
      -0.133110916516566,
      -0.00916260720542317,
      0.10094259919428647,
      0.1513428811020056,
      -0.07750504134689581,
      0.16563109495151002,
      0.06679155379522786,
      -0.13353592846298537,
      -0.0930834217899106,
      0.12944761067317379,
      0.08665749286956682,
      -0.14662907962101832,
      -0.11033659936359622,
      0.06636629436920403,
      0.06646843062269625,
      0.056510730134585074,
      0.01605529753242033,
      0.15704223552624277,
      -0.07324656620022783,
      -0.1189185581277771,
      -0.1337747145383068,
      -0.14019936988172957,
      0.09401143618908851,
      0.0732861449152871,
      -0.058151793667953006,
      0.021763944974192963,
      0.17695706130362748,
      -0.12117721485264034,
      -0.06948890381056139,
      0.06454853816119954,
      0.15679640180356952,
      -0.0006954263729700805,
      0.07364375553990547,
      -0.059077285052066005,
      -0.10442045081618574,
      -0.13554112608983193,
      0.05534781445647214,
      -0.03188439817455889,
      0.16593659802844837,
      -0.07177813897241726,
      -0.08364218887312914,
      -0.09627103779021468,
      -0.11453646843821151,
      -0.14949331908222485,
      -0.06005438277597176,
      -0.0796128819724277,
      0.13002988002120988,
      -0.07061586536026998,
      0.09102512442327836,
      0.17447704729755106,
      0.14030677573427722,
      -0.13340514438741397,
      -0.012567112419621643,
      0.08528280112553986,
      0.08167103955301132,
      -0.08971391122053228,
      0.15782733273516622,
      -0.060487822178135676,
      0.1742311319104412,
      -0.056603321114444945,
      0.14390444219178453,
      0.17178104436143865,
      0.01528136097381404,
      0.04882047899712461,
      0.18166202000775683,
      0.13610543818817927,
      0.07543639823458696,
      0.07225422031237717,
      -0.004002395426346857,
      -0.11955225187708722,
      0.0934182346816479,
      -0.17191068437384652,
      -0.14843554093601702,
      0.12104678981780373,
      0.009316941169225762,
      0.06887504874195333,
      -0.044342017836713724,
      0.0961883813284238,
      -0.009278109544123909,
      0.1444158760885568,
      0.07341177135708876,
      -0.13932203768695953,
      0.05520966035094035,
      -0.1426476311113539,
      -0.15114473156940145,
      -0.0875825421487761,
      0.00008110896236495743,
      0.12063153169294977,
      -0.09743953474674272,
      -0.11918955331935532,
      0.08758474967090846,
      0.15074015203875168,
      -0.11607957136273772,
      -0.0918409299110317,
      0.028330674710943568,
      -0.09990383554803167,
      -0.17176100798014093,
      0.06926255872089443,
      -0.013968723355369236,
      -0.0998635999647573,
      0.0009690798068476042,
      0.10099616161075296,
      0.15783721190639827,
      -0.0857017261742955,
      0.02568467511268673,
      0.06135603159858119,
      -0.16702141706431295
    ],
    [
      0.09427526684668716,
      -0.02097706177279904,
      0.11405834134521735,
      -0.10807882666839612,
      -0.05471368497106617,
      0.045079897022733205,
      0.02682168194180818,
      0.12637819222162378,
      0.08593708263089739,
      0.153004172066795,
      0.07386153103331988,
      0.06261151225440922,
      -0.15442062081601632,
      0.13766272923771142,
      -0.0673413109782509,
      -0.03591465662238692,
      -0.15242526868854717,
      -0.1060429974623679,
      0.051184326250260606,
      0.06787316732905382,
      0.16110923202913505,
      -0.057477042890749314,
      0.13581724330015282,
      -0.017482148612974667,
      0.04602759357235316,
      -0.1263085430039984,
      0.13893153189219723,
      0.166672328515725,
      0.057926531718854084,
      -0.10768671343407125,
      0.009281554965641854,
      0.05730044592489772,
      0.0421219198148165,
      0.0673835272648571,
      0.11133883417609755,
      0.04188052582756443,
      -0.06031808398029193,
      0.16472866025364566,
      -0.1505272697272548,
      0.0822112418411463,
      0.15761216749767779,
      -0.12260589541358285,
      0.13886798763724276,
      -0.007492372232133691,
      0.11626995949470431,
      -0.005935726243411053,
      0.16473341240810238,
      0.16222547197422402,
      -0.0043001217109698165,
      0.12136032878447488,
      0.12212221956723483,
      -0.0027509350089513526,
      -0.049000687935130835,
      -0.02077276602336539,
      0.14505760699895712,
      0.10911100301194303,
      -0.06293678453964116,
      -0.05695401891641869,
      0.06382535727259511,
      0.0038472682480032534,
      0.040775756535499134,
      0.018027165268780836,
      0.14887018260691928,
      -0.055919684388461594,
      0.027603107708529914,
      0.04024221683562736,
      -0.04835258606841389,
      0.061371928272619385,
      0.09454785875452269,
      0.06676832974793413,
      0.15575531190496686,
      -0.12362813231866075,
      -0.14645250633375992,
      0.08791314772704444,
      -0.04239134861129556,
      -0.07335852304111179,
      -0.1057939119979463,
      0.0036537927168565822,
      -0.00855983232123774,
      -0.0978118304235905,
      -0.10957189242022856,
      0.02454863082741113,
      -0.12158559331456441,
      0.05514748793483487,
      0.022438080665575073,
      0.0561994862846995,
      0.1113197276404895,
      0.1617455693642921,
      -0.14622944630288517,
      -0.13481967552143986,
      -0.1015393904208891,
      0.05287991041766643,
      -0.026310548523834444,
      0.02626322479147793,
      0.1355899004359901,
      -0.114701163653971,
      0.09436006362271096,
      0.08688639760815543,
      -0.08950902256131915,
      0.13157493972496354,
      -0.17890951477989805,
      0.14978021602411845,
      -0.024289804807129577,
      -0.005117511125122696,
      0.011755017350746313,
      -0.04131500344070544,
      -0.0925761101009258,
      0.059780474150187925,
      -0.0704612654765458,
      -0.15580768444122645,
      -0.16712053872412905,
      -0.16309331830181065,
      -0.15919767037785754,
      0.03960384859948705,
      -0.1699440959118561,
      0.0941946223772195,
      -0.10743968841237375,
      0.008893241164671793,
      -0.16248439641569476,
      0.04899381479297602,
      -0.022004642498904197,
      0.05312389074477305,
      0.17599758649116837,
      -0.09803806977510177,
      0.03526120453315568,
      -0.030759247726245675,
      -0.14043606199189176,
      -0.005918584341684442,
      0.04084991236397752,
      0.07928211412922417,
      -0.006626404652637542,
      0.08521619583595944,
      0.002300789390382539,
      -0.10531181469970329,
      -0.07758770145334262,
      -0.1426116465776747,
      0.008308001540193271,
      0.1688548808171897,
      0.1292415338584639,
      -0.17372565017200736,
      0.16920445708694054,
      0.08533299289524318,
      0.05940885597720125,
      -0.12426406705545005,
      -0.1152461901996959,
      -0.15404025098604582,
      -0.14304075932022106,
      -0.1163983863378228,
      0.10095059338736509,
      0.1732383853279697,
      -0.145900598088947,
      -0.1385369402512547,
      0.15342637969678669,
      0.10657766741659763,
      -0.07538055009564316,
      0.16735064291154195,
      0.07570428653954793,
      -0.1285149003557003
    ],
    [
      0.9353395942310709,
      0.18773369971344386,
      -0.42236628498201456,
      -0.5443922535902659,
      0.3329756908198546,
      0.1256102311588569,
      -0.028532165351173575,
      0.014043583116837842,
      -0.1714509910406106,
      0.06459656039495486,
      -0.2975016833997313,
      -0.3090228176017071,
      -0.03266854724247548,
      0.06939808268645409,
      0.25522610967967446,
      0.17259851865492046,
      0.3254702735731011,
      -0.267125221131105,
      0.15989994584720793,
      0.33326248472860853,
      -0.11668387424286467,
      0.07276644516187464,
      -0.026420989137855077,
      0.9228734363914847,
      -0.5279830728160204,
      -0.027416862151309646,
      0.43928326978451604,
      0.6880871532193342,
      0.032376065861183294,
      -0.03869325978683571,
      0.10083109608170346,
      -0.2715086333699459,
      0.36702933645186475,
      -0.5663516985064444,
      0.27757569889431083,
      0.12103287028652912,
      -0.5602078658843302,
      -0.28897547159540365,
      -0.16021303821637906,
      -0.16438161196587098,
      -0.27332217427141425,
      0.3846165337024097,
      0.05296418362959168,
      -0.5074901798981561,
      -0.3060776487698911,
      -0.41618246922183927,
      -0.1524110383912906,
      0.3450230719041627,
      0.47101267858752704,
      -0.15900791849253196,
      0.6792972748019949,
      -0.06625924851683015,
      0.3424638271053471,
      0.5547253839505744,
      0.3454692831492603,
      0.3822596797617738,
      -0.3010732299836655,
      0.3657631821610642,
      -0.40421707746734425,
      -0.04147448501398122,
      -0.139915983921941,
      -0.05925824402905619,
      -0.20706473315641258,
      -0.5998460860234383,
      -0.5284761127922382,
      -0.05853752208482684,
      0.04406879953975602,
      -0.43336797468067345,
      -0.1746959399430354,
      0.3771831446353596,
      0.22969152745652155,
      0.18993184490008003,
      -0.03706317499255862,
      -0.22019810620077596,
      -0.004991658750749455,
      0.2764859968194689,
      -0.1967504783731986,
      0.2388711960694019,
      -0.7695931058356552,
      0.18228275733114838,
      -0.3665839229864145,
      -0.20013412926323226,
      0.14441188149533699,
      1.0869108262994907,
      -0.5170564038150184,
      -0.3262642956799549,
      0.02884748547919693,
      0.3241189110671601,
      -0.5504974057249867,
      -0.02861501905739389,
      0.014102098867212143,
      0.27786875221395985,
      -0.5111275541399344,
      0.11542642897708207,
      -0.01692419277214659,
      -0.05626017423523162,
      -0.36808474019379084,
      -0.2500512478377214,
      0.2877037332059684,
      -0.6397839238183101,
      -0.4068405710084899,
      -0.21270683226377615,
      0.45565092336573143,
      0.40249796010644256,
      -0.0013313526094929865,
      -0.11378572921780458,
      -0.551912858915806,
      0.0826049888617034,
      -0.3651470923986195,
      -0.09778384900684087,
      -0.14482376174565562,
      0.28407861597596396,
      -0.5378616074831485,
      0.17776208707154176,
      0.39817961199767243,
      -0.1607604018479307,
      -0.11854520441408307,
      -0.7731724437143418,
      1.0199238596885154,
      -0.36940159809642104,
      0.4988023334310939,
      -0.10513721675645057,
      0.35261993157473825,
      -0.09096491405686395,
      0.2062012590305771,
      -0.2711355373920612,
      -0.18370280535739758,
      0.5451041471974277,
      -0.21024172129327115,
      -0.11756025289533735,
      0.7245215239037431,
      -0.051385355483109296,
      -0.15154641348483108,
      -0.00014575670350462124,
      -0.408600737163814,
      -0.6343896455250552,
      0.2464963188208687,
      -0.5401748856723217,
      -0.19377905161081288,
      -0.07446971122576672,
      0.0994834067640589,
      0.38344646874711696,
      0.12378025844320667,
      -0.736065261861601,
      0.34130805048490287,
      0.24643583386558957,
      0.34180296522238707,
      -0.027822720257012556,
      0.12208658434748908,
      0.09792375393966123,
      0.6606805600239994,
      0.5896333654306494,
      0.24109694677030513,
      -0.052318428681069465,
      0.35171513720503994,
      0.5816580564595856,
      -0.6369145732151846,
      -0.7195457797371909
    ],
    [
      0.8705286303450092,
      0.0873276273255294,
      -0.37311052470920425,
      -0.46019401564577034,
      0.5234948058044251,
      0.41514525218608045,
      -0.1070358481357503,
      0.1811807630473398,
      -0.42418529621331763,
      0.2898361567575313,
      -0.2532873323925695,
      -0.3246408064614581,
      -0.04346039735016819,
      -0.03421711636806995,
      0.31584905578873756,
      0.39904434576672404,
      0.060938643770244494,
      -0.4181881576198557,
      0.0767205174903528,
      0.5274212649118111,
      -0.2746136012263655,
      0.2159553316604864,
      0.07515954237109777,
      0.9158142158891588,
      -0.5037190967885005,
      -0.14476242422118749,
      0.3083367695264526,
      0.7925839499709912,
      0.17159514720045005,
      -0.048659845732288876,
      0.10661903933478917,
      -0.34366941280851515,
      0.3556431440379201,
      -0.5003043500939441,
      0.28544084526618185,
      0.1447801149867234,
      -0.43742642719339714,
      -0.021404881977715857,
      0.03635586479492655,
      -0.0020386121778917573,
      -0.3239684634992951,
      0.36578505428398966,
      -0.11371179396952272,
      -0.3269733009484357,
      -0.167080708851289,
      -0.32521617598561386,
      0.07251831105186067,
      0.4344627650412171,
      0.6864472028386203,
      -0.0934244516821175,
      0.5348130616772815,
      -0.15580822884975493,
      0.2459171762036376,
      0.3941216218628413,
      0.09446057382539781,
      0.2990429617433203,
      -0.3128840969699652,
      0.3976980326786412,
      -0.3901743631341057,
      -0.140531098891352,
      -0.013145302430447677,
      -0.22607568643733766,
      0.05151438281091071,
      -0.5316732314111701,
      -0.27661575656538706,
      -0.06088294937299967,
      -0.11860317975482218,
      -0.339259530355924,
      -0.3266442320914966,
      0.5791602426398866,
      0.14585865308594465,
      0.25134252167954,
      0.06611999737705673,
      -0.2405453216967931,
      0.07963141593369344,
      0.0654011316990013,
      -0.23559775830229956,
      0.021623277968404124,
      -0.7619369889892209,
      0.1454834680646492,
      -0.40499533273618554,
      -0.12923105133012117,
      0.1672484823412126,
      1.1046720577366558,
      -0.31136806006601003,
      -0.12798479662914788,
      0.1731189429377674,
      0.35489366246835374,
      -0.3065502336643032,
      0.013750257278486784,
      -0.01657507532312405,
      0.4140875956742797,
      -0.5020418594082218,
      -0.03317225121828021,
      0.10837048544077472,
      -0.2309378446611715,
      -0.1528041198202578,
      -0.33221447022491546,
      0.35951848342592724,
      -0.7544126803746156,
      -0.4689218917958171,
      -0.13841486078685453,
      0.2064788511742913,
      0.3351779693145669,
      -0.03088503819415804,
      -0.07343216016705978,
      -0.41677244797010954,
      -0.03294252544376424,
      -0.3763545685699511,
      -0.009212662454956722,
      -0.4065538122631056,
      0.22316531713517437,
      -0.6525899549151638,
      0.2733333176913,
      0.5570385310413926,
      -0.15782024779534068,
      -0.055305664977746,
      -0.7279161827696038,
      1.2003997302612026,
      -0.6008601638166776,
      0.49519320588565163,
      -0.23099751377168326,
      0.43380262415519805,
      -0.395342424848376,
      0.15559898495419733,
      -0.12111893371356006,
      -0.20114996040500574,
      0.3487323947895334,
      -0.3087059189976268,
      0.16563191091600507,
      0.43379601733086004,
      -0.07269637187182316,
      -0.3139537298048061,
      0.18144633628866433,
      -0.3289911522022907,
      -0.6051830674085223,
      0.14400707328608664,
      -0.31591142545465845,
      -0.19010958450838084,
      -0.19235681044719008,
      -0.2082462897620786,
      0.36484337910340725,
      0.3114522350675234,
      -0.7667250824445853,
      0.22601779220102108,
      0.31163169902789584,
      0.15783098442322585,
      0.16654671868333448,
      0.15774068729008647,
      0.3193777943595373,
      0.6717815260645061,
      0.5346662116001449,
      0.3114677566336808,
      -0.04407735052155798,
      0.3067239027458324,
      0.4778874185353048,
      -0.6840747404687311,
      -0.5357260871292329
    ],
    [
      1.0198901331205315,
      0.027637341250218883,
      -0.412325611839099,
      -0.46026490179151747,
      0.3933119902631914,
      0.26242650377506027,
      0.05841148750525572,
      -0.009249461780921835,
      -0.3255363378922432,
      0.3185636638132145,
      -0.3344382578678714,
      -0.4621933257076623,
      -0.17802529184119759,
      -0.2211826352344103,
      0.49004244659566737,
      0.4988210305790562,
      0.08479746982553975,
      -0.3020789245327553,
      0.12294544695143698,
      0.6070923750705841,
      -0.2988752194462364,
      0.013586132313938876,
      -0.015036592300220789,
      0.9153945878905085,
      -0.36589934583392086,
      -0.06040761369415669,
      0.33578002758410885,
      0.817319065930302,
      0.20321387048709982,
      0.03662654614030815,
      -0.03658530110286787,
      -0.49527542200235886,
      0.16258951632598942,
      -0.5709168567851735,
      0.4149832311568067,
      -0.19047531659242475,
      -0.5973380781202681,
      -0.2549581004959051,
      -0.03574061061319923,
      -0.044389536835508836,
      -0.20863231011636413,
      0.33176703605314906,
      0.12481351188806712,
      -0.2504694717432747,
      -0.04966180401523881,
      -0.28904210376225736,
      0.044147075859322434,
      0.5300217398401414,
      0.4168955392112349,
      0.09419092266301547,
      0.564934724723918,
      -0.08576521562557163,
      0.36674870038684027,
      0.5673402384300836,
      0.08773324510297201,
      0.2844844863397834,
      -0.0490541099811051,
      0.45106007047619034,
      -0.5181282656736872,
      -0.1622169949118388,
      -0.15334640557494186,
      0.02107589111545039,
      -0.09758058891996783,
      -0.3603816989458171,
      -0.49741871593477316,
      0.03638275944953112,
      0.02877057663011661,
      -0.6159687794721217,
      -0.2680914881244066,
      0.6264839083516683,
      0.22764477808686992,
      0.4518715158877162,
      -0.020761932833104846,
      -0.0016701093288015618,
      0.02638882455855087,
      0.26728965871895105,
      -0.20412825729613193,
      0.12074517116109008,
      -0.743862304211689,
      0.11088685200915506,
      -0.3451993004935523,
      -0.16349827150209506,
      0.34703337693012204,
      0.9027924052832643,
      -0.6270033262789709,
      -0.21100357570231235,
      0.23327594810073388,
      0.20103733550780217,
      -0.4893192664100886,
      0.11242478986773992,
      -0.05099875296277877,
      0.4918055801454382,
      -0.36315980614065474,
      -0.0421395466665261,
      -0.01441069862450628,
      -0.27811011232685773,
      -0.23383215389299555,
      -0.1370158350678239,
      0.11579293433695353,
      -0.6036022248354479,
      -0.5884225235026238,
      -0.16622013696689386,
      0.48956845524551723,
      0.5592581465983845,
      -0.207744601991164,
      -0.12019676399192114,
      -0.5683671928248083,
      -0.08438826266182174,
      -0.5240096415376746,
      0.06542188920309605,
      -0.4758008746244387,
      0.43665697846271045,
      -0.7946754596894965,
      0.25617913995944713,
      0.6016327909477874,
      0.07317254681373904,
      -0.07657797994319035,
      -0.8161675541702377,
      1.1365008425061771,
      -0.3952771895413513,
      0.29448805818581625,
      -0.27872624297525206,
      0.3825888522614414,
      -0.11427571427105655,
      -0.07153024918265721,
      -0.2571986323407249,
      -0.10310126046763342,
      0.5411409769424707,
      -0.3552916736443693,
      0.18620983453957987,
      0.5939958228060023,
      -0.24419149101352966,
      -0.3526680016153294,
      -0.08675736495494975,
      -0.38086645612969733,
      -0.3187814349123784,
      0.05202554809450394,
      -0.24846585179593744,
      0.073816299490145,
      -0.19926384941677122,
      -0.1140598861004345,
      0.2570660054127689,
      0.34309769198807427,
      -0.6343404204382835,
      0.3995975647792768,
      0.2722206898898165,
      0.16273925835444575,
      0.223790709485835,
      0.10590495013453144,
      0.07371795179190208,
      0.6843597615022644,
      0.37538895384909365,
      0.33837681350115323,
      -0.1520387427793943,
      0.3994029874384294,
      0.6468223826610677,
      -0.6472083799852775,
      -0.8431008538124193
    ],
    [
      0.8932021732997547,
      0.13810853758776176,
      -0.2982257310030029,
      -0.33295480130086547,
      0.4758695333917007,
      0.15736017836620256,
      -0.20156515682030895,
      0.10638346790085308,
      -0.4586762693473763,
      0.1388544497066031,
      -0.2104539048470192,
      -0.25365237713209265,
      -0.2121674809578931,
      -0.014446908547766868,
      0.46893166151569193,
      0.26403942042999934,
      0.23634874499409736,
      -0.45377947501401694,
      0.07775987235030145,
      0.4239526205026982,
      -0.37257822967406545,
      0.20459392659805098,
      -0.11987590377541885,
      0.7568817551560475,
      -0.5881905895425815,
      -0.18297141256742835,
      0.40490194398472884,
      0.747908306564203,
      -0.011255821290313143,
      0.14656361936918189,
      0.18507235747399456,
      -0.3863456363197303,
      0.12066388919773567,
      -0.6009954370941557,
      0.45581380010380734,
      -0.007196699715793137,
      -0.33596241189909093,
      -0.2757062970693148,
      -0.23042228085388078,
      -0.14811702466619747,
      -0.14180611696217704,
      0.34074011933502146,
      0.01248638223689703,
      -0.2529485360171511,
      -0.24758341145192322,
      -0.45303318016558713,
      -0.036274439412578206,
      0.41046678262658853,
      0.5391882910245527,
      -0.15027790863968568,
      0.7733793621758628,
      -0.15591594252278201,
      0.3515710691241339,
      0.5892590582272458,
      0.21306433925205234,
      0.2751225566673826,
      -0.2528835893961286,
      0.3363408948214809,
      -0.2653406857601423,
      -0.003021687780172151,
      -0.05984045719315609,
      -0.2514679364788791,
      -0.058200686374140026,
      -0.4719422871899716,
      -0.4254964686950873,
      0.03276631402438397,
      -0.010780915871365818,
      -0.6408134899753549,
      -0.3780963619708543,
      0.39951888576506833,
      0.3426864803603453,
      0.24894628327665957,
      0.026999698632694226,
      -0.03859014891831218,
      0.1888740011284246,
      0.20750956842265705,
      -0.21749313035133522,
      0.17953438642962766,
      -0.898806815804924,
      0.00012836408178606463,
      -0.21414922882322074,
      -0.16014608719932155,
      0.14592582682910665,
      0.8586336262960547,
      -0.47872751010477155,
      -0.1489007709795248,
      0.032955778757112635,
      0.3936690669919357,
      -0.4187173497773977,
      0.26747397660301053,
      0.10641334867895084,
      0.1964261611652432,
      -0.45856280034595587,
      -0.22622894102613036,
      0.23444373468063057,
      -0.22400654067102402,
      -0.32382797037655686,
      -0.37950649765530997,
      0.3126250591068429,
      -0.544900871123342,
      -0.5411034604010341,
      -0.08703404168431027,
      0.3178824334079213,
      0.4867610053143675,
      0.012694321239877935,
      0.1366052156669456,
      -0.504150718387164,
      0.11876526701628373,
      -0.5614582465547491,
      0.0037174711086494765,
      -0.3842992151291628,
      0.38076517323365916,
      -0.6131742838884152,
      0.055773018113001144,
      0.47564867330202915,
      0.12689717059170857,
      -0.3352887683718492,
      -0.8233775916286108,
      1.1505659368155614,
      -0.4157882570593394,
      0.3212495374211047,
      -0.18272814144756622,
      0.4067355936298343,
      -0.2756132276234941,
      0.041073213006620264,
      -0.12488491158100365,
      -0.20160650682898998,
      0.42509126163038996,
      -0.2909771578242904,
      -0.10102995276674562,
      0.41799163457543353,
      -0.0760328675480264,
      -0.2165211590226473,
      0.06646240001222799,
      -0.2693908021527288,
      -0.6250150560260737,
      0.23247849211963403,
      -0.40599639968508006,
      0.10198105884857529,
      -0.2430896664627855,
      -0.020586092334957947,
      0.46983627117231086,
      0.2159871961948453,
      -0.6957519842467077,
      0.31198059917894566,
      0.1637366155448199,
      0.04331423229717907,
      0.2632857614343767,
      0.05583401421257839,
      0.06858103169634105,
      0.41639010759041756,
      0.5744466317348045,
      0.16662572847014276,
      0.03458984122255307,
      0.38440278998266836,
      0.6312203873425647,
      -0.8461640758170507,
      -0.6225688618358611
    ],
    [
      1.0321016412510478,
      0.2007336147953221,
      -0.38169596459450267,
      -0.4533747701480888,
      0.5924288839917362,
      0.33717736686231337,
      -0.015034978407230459,
      -0.09324885925680314,
      -0.25242084824420663,
      -0.00036563033030215936,
      -0.11964960694878442,
      -0.4624045743782558,
      -0.069106806342182,
      0.03572315036873598,
      0.27655185802074406,
      0.3495191492451069,
      0.3020130301525563,
      -0.42576900632243586,
      0.36999424168940315,
      0.6145635241325839,
      -0.32025051810408833,
      0.16040485400913895,
      -0.05820388415171326,
      1.028937914210574,
      -0.6930581136021661,
      -0.2477443478074698,
      0.5427763321708592,
      0.7813055142706447,
      0.1404908734514764,
      -0.14263398512561637,
      0.0022824918533911314,
      -0.43793859695447496,
      0.16558919573912953,
      -0.6801328433720066,
      0.35895147873591465,
      0.05375801486784209,
      -0.4046999809525679,
      -0.23508121101610802,
      -0.1360151192231077,
      -0.07345832741968257,
      -0.21536857573376073,
      0.19530100263199543,
      -0.12535470484093444,
      -0.31793863835262,
      -0.08501044153605793,
      -0.3012266605206055,
      0.04129096748312912,
      0.6162839623873811,
      0.5641017452890525,
      0.04918894265637003,
      0.665720697560214,
      0.026562745855085983,
      0.2596004740804784,
      0.5402195585233889,
      0.1745688003154089,
      0.10084536243123196,
      -0.02184699316621127,
      0.26977493211815595,
      -0.6244637755151202,
      -0.21783139338189436,
      -0.11814104396160086,
      -0.14377889333013108,
      -0.21361926955317956,
      -0.3973025923140037,
      -0.4674967874473195,
      0.23723798520942602,
      -0.1421189321361576,
      -0.6002447251813852,
      -0.4314788612415123,
      0.689820698544004,
      0.3524910716782613,
      0.5105304969769809,
      -0.016411196390039823,
      -0.10208428457307048,
      0.1505057802707234,
      0.2745760304607115,
      -0.43480737422277516,
      0.1122265397615014,
      -0.8331303106040437,
      -0.03801505090661102,
      -0.40219396472887675,
      -0.024645954120681563,
      0.37021660572508963,
      1.1170225467925008,
      -0.5045473331638011,
      -0.22599844506860772,
      -0.07252764545345265,
      0.44178675025809094,
      -0.516611517668809,
      0.20931349961034051,
      0.0352033774351981,
      0.4703090005141599,
      -0.5761448336189591,
      -0.2190846811610751,
      0.14664681254166745,
      -0.07255851050905011,
      -0.29271173790969574,
      -0.38953226402855323,
      0.15007319913702005,
      -0.7728993936945358,
      -0.5439623749459352,
      -0.06414905521236919,
      0.4800748576246264,
      0.39398391626286,
      -0.0813234283295658,
      -0.09944313292381057,
      -0.2892882136102952,
      0.07558875618782071,
      -0.5939107231079022,
      0.1598825551528212,
      -0.2094795354877652,
      0.37120088953057184,
      -0.8555008192379809,
      0.20519803684918647,
      0.5510384192895988,
      0.11922436569231874,
      -0.26202630147408235,
      -0.8315540344164964,
      1.0427381582492055,
      -0.6424456422273483,
      0.2974511288574532,
      -0.410848941443751,
      0.5592593052894292,
      -0.33045578387812324,
      0.054641549640445645,
      -0.3643511304514224,
      -0.29797651965812055,
      0.3656745098670853,
      -0.45582137759963914,
      -0.07386744547183206,
      0.44035345354164235,
      -0.06861268018309426,
      -0.14352062467146892,
      0.07442395467313331,
      -0.2125716745190468,
      -0.5899477229565105,
      0.2962283480100329,
      -0.5748750483220206,
      -0.09258375333418307,
      -0.19995294022533172,
      0.08939055953449267,
      0.5364999293908655,
      0.2764671255259475,
      -0.9005531315230779,
      0.330808709927146,
      0.2913993013125018,
      0.20347167041801237,
      0.08237330722208748,
      0.10192183249658301,
      0.2624718697255961,
      0.6868582092595046,
      0.5166653474290628,
      0.37003431212631227,
      0.029515219662676548,
      0.3804592255691195,
      0.6645999126256036,
      -0.6461103557166172,
      -0.8640938317990235
    ],
    [
      0.9574273012684256,
      0.026601667922870307,
      -0.27912005049379063,
      -0.3930281669464606,
      0.3297576275937154,
      0.1890629680280992,
      0.11411450537696899,
      0.023215993029169883,
      -0.4742086255121464,
      0.18737439577572584,
      -0.45712996158058067,
      -0.1893153709796524,
      -0.1107735987360316,
      0.07955323436983999,
      0.29580278255952136,
      0.36417718781451747,
      0.03575079406762598,
      -0.27627511235954477,
      0.3518873087526921,
      0.47688768125040726,
      -0.3503500566971386,
      -0.01209857458428273,
      -0.034389359924489896,
      1.019999586287017,
      -0.5119824847544829,
      -0.029735344814822588,
      0.3869091573793641,
      0.6604153136027751,
      0.1940998975676147,
      -0.0165501520890079,
      0.12126270856694223,
      -0.32777979317478484,
      0.19243680557583545,
      -0.6891627963190393,
      0.18792226502563023,
      -0.10479804976676088,
      -0.5216181805096165,
      -0.04859953228005556,
      -0.1301116797506394,
      -0.21430482474921497,
      -0.17913808168415585,
      0.3681294786104473,
      -0.04387020105812074,
      -0.39591341228742216,
      -0.14362674523798055,
      -0.4357918356591172,
      0.008603826204885048,
      0.45083867656791804,
      0.6290600287136792,
      -0.12877211848752942,
      0.6238457085568198,
      0.0013658114580612987,
      0.09987908910699592,
      0.3028676513488238,
      0.17386716056801724,
      0.07550516079220126,
      -0.18003462769956732,
      0.39991778819271323,
      -0.5432093209306691,
      -0.039819116510237146,
      0.1264012328116996,
      -0.13100083485926128,
      -0.030084457123075253,
      -0.3927325041845081,
      -0.584586893713859,
      0.0585701640584973,
      -0.11723627631593289,
      -0.5103071751184334,
      -0.478806478041653,
      0.6339019140728461,
      0.27969411638766833,
      0.39211473669375496,
      0.12379699000241015,
      -0.046297834028875995,
      0.19660738931717922,
      0.29960728501727235,
      -0.3437154245785761,
      -0.04641257864226346,
      -0.8819316556112593,
      0.13568998351732098,
      -0.2549586108516209,
      -0.0647623710263831,
      0.25746489332521966,
      1.1882236742675505,
      -0.5913763840177932,
      -0.08450460505451408,
      0.22068116196395454,
      0.30209306721327667,
      -0.41272920022089316,
      0.1740027784724955,
      0.10948034847243122,
      0.3382773867528076,
      -0.4257135644677694,
      -0.1534911503144051,
      0.2226823871228365,
      0.025411165501414194,
      -0.31356101532865577,
      -0.2148781612229602,
      0.33647333078034847,
      -0.8013641164225342,
      -0.3460387269509131,
      -0.12622261095196527,
      0.23906690070146203,
      0.5242407543091923,
      -0.10997358908359595,
      -0.012293911646366854,
      -0.5495190841014099,
      0.008116551556821817,
      -0.31374824381086774,
      0.13036749267502293,
      -0.44165006808025664,
      0.35319840953114806,
      -0.6861251982067585,
      0.35762806277883985,
      0.5047039698518679,
      -0.08151013890589988,
      -0.16695936570727157,
      -0.6917753793908159,
      0.988824310856073,
      -0.4610293654379631,
      0.33755652382483436,
      -0.34944448995757016,
      0.5117239749325908,
      -0.28987253994284456,
      0.017082863027535172,
      -0.3571276347636078,
      -0.3616295202671573,
      0.33545908018818166,
      -0.29837035806568163,
      -0.12056380926414159,
      0.5860883290706925,
      -0.1694341707480519,
      -0.12920623534905057,
      0.13365870570438337,
      -0.328318779807448,
      -0.6591356762173957,
      0.19429423278507096,
      -0.41985076083722755,
      -0.04916401433213151,
      -0.15013295219908954,
      -0.030042572623588663,
      0.45785189374179397,
      0.23420345807419418,
      -0.9189979772970002,
      0.40254095059191247,
      0.44794794061853976,
      0.06743225688694807,
      0.008148342568273532,
      0.2549253954149639,
      0.3408011694369759,
      0.7462628767434435,
      0.3288823828488403,
      0.16432071363418768,
      0.15564804094647555,
      0.4884375709929025,
      0.6955726708064878,
      -0.7090201381636069,
      -0.7935226150360335
    ],
    [
      0.7859434583802657,
      0.2599606105679623,
      -0.35191714463301565,
      -0.36069656530938654,
      0.44154193438249323,
      0.3347667890351627,
      -0.14653702706147603,
      0.0014358854609677573,
      -0.47116661308007546,
      0.13279415779601683,
      -0.32294983147437595,
      -0.16327628581072018,
      0.004346063374986643,
      -0.11329859679971394,
      0.37378943970079886,
      0.41556530673683223,
      0.3421463650090093,
      -0.4255571634699573,
      0.2908611012117708,
      0.6519203559906565,
      -0.38103441885202316,
      0.08427432517843125,
      0.030970333960903908,
      1.0518324320807513,
      -0.39705085629650805,
      -0.23817794925779778,
      0.6007294690834625,
      0.775856082389548,
      -0.0729927965184007,
      -0.13823271703601947,
      0.13167008766702387,
      -0.4432308555144116,
      0.1307846278184877,
      -0.6347459693469575,
      0.2245349153929213,
      0.07560533324154002,
      -0.3256668548409963,
      -0.12820701644526789,
      -0.04053764163173262,
      -0.06886324462409608,
      -0.27460006296955713,
      0.17802127503265472,
      0.014781543221993487,
      -0.35755292497747804,
      -0.02600633143353289,
      -0.5180488133699994,
      -0.16596185792978957,
      0.6223736754285851,
      0.4448518766129187,
      -0.027649559698642676,
      0.7470830817165662,
      -0.14512771748441944,
      0.3345901009296578,
      0.4991487841861597,
      0.14785767318099166,
      0.252641044545173,
      -0.12086996869120244,
      0.3543873350163712,
      -0.642624373996592,
      -0.037119258287904494,
      -0.10213090121966933,
      -0.09011682704173017,
      0.016581717600645196,
      -0.5972235796918104,
      -0.44880342216754193,
      0.0910341546661468,
      -0.1939262433914156,
      -0.49511915248873756,
      -0.2024231943257393,
      0.5265169608234477,
      0.23724890926043823,
      0.4943666299774039,
      -0.17402459084358857,
      -0.19708566304747033,
      0.14644903705145487,
      0.23034159850245475,
      -0.2276243217209315,
      0.11592718156016062,
      -0.9311991747993126,
      -0.08052890739619055,
      -0.23080261984907546,
      -0.046147763155909474,
      0.08648749482816923,
      1.2021250174067342,
      -0.54676976207899,
      -0.3440762330045478,
      0.25016317476054284,
      0.15524142008415928,
      -0.5304568920389306,
      0.24574467482693796,
      0.016197404460515225,
      0.5112740270617918,
      -0.46267059923917075,
      -0.1636864023954473,
      -0.005996905613507884,
      0.012384901596638378,
      -0.35419944362243205,
      -0.43776974180167094,
      0.25899264089175494,
      -0.8263848194505201,
      -0.6062884252770965,
      -0.3337257235966506,
      0.30134368029588543,
      0.3010696151778228,
      -0.1777379230314471,
      -0.14377381742959125,
      -0.37302448542182476,
      0.09836639404675454,
      -0.6031065157564065,
      0.06478471758468253,
      -0.3434899606474479,
      0.22526626208907788,
      -0.7706983110725264,
      0.23573117913010969,
      0.6143438100912927,
      0.06042600136272983,
      -0.2783406711616553,
      -0.6845898838403772,
      1.1032511037690236,
      -0.671747114034816,
      0.3576135592969765,
      -0.1680146984175892,
      0.3605671413694791,
      -0.1648475055170055,
      0.08102533026864399,
      -0.17641055390566318,
      -0.19221602747114924,
      0.5175243903571557,
      -0.3704500746137588,
      0.05138646378686637,
      0.6021159540170473,
      -0.326112416871562,
      -0.18724520320609592,
      -0.059721484044368105,
      -0.2809536180272297,
      -0.49265352283789116,
      0.1740890169205968,
      -0.3702455528640024,
      -0.16025474238488818,
      -0.07154097916770188,
      -0.04347215395531613,
      0.5893833021830854,
      0.2343588806899674,
      -0.752417069580837,
      0.2957681159827675,
      0.24983672367586957,
      0.1937152092911114,
      0.08858335715494275,
      0.04400834586480042,
      0.31086946570877944,
      0.6771866757837082,
      0.5095865706577892,
      0.3264470480841304,
      0.0871701876503203,
      0.48361946049273263,
      0.5135589271139047,
      -0.8490886598300298,
      -0.7286195592502804
    ],
    [
      0.8436222462815572,
      0.20796645489170718,
      -0.22976885546432557,
      -0.3690820850899669,
      0.377041062995278,
      0.18003567438001003,
      0.01832049777945103,
      0.06311430843081618,
      -0.30740494335405355,
      0.01863996644716151,
      -0.43179142516336644,
      -0.14479971354645094,
      -0.20968147444593244,
      -0.09656298123402972,
      0.2617587909720553,
      0.22665970057853924,
      0.15168370052939512,
      -0.6087420271036244,
      0.0690883634199505,
      0.4645791880000621,
      -0.20966955969666518,
      0.23158053245844512,
      -0.11721239817875975,
      0.9930268211853338,
      -0.6726397801507185,
      -0.010346974101681023,
      0.610558271097706,
      0.6384062609043029,
      0.24706270860005441,
      0.13456607159851947,
      0.17198435838439294,
      -0.4225205923544064,
      0.06834577252983547,
      -0.4394301474991106,
      0.32224567917462743,
      -0.09909187986171944,
      -0.5786076112006483,
      -0.16715896392948354,
      0.0546497668353956,
      -0.19059775765314785,
      -0.10844862472343378,
      0.14569511632262813,
      -0.10108036572520243,
      -0.33110286361886276,
      -0.13994014077403474,
      -0.46489168899581623,
      -0.0925931308635376,
      0.5701689519359419,
      0.6292118997237873,
      0.09866527893251063,
      0.6353838327392944,
      -0.11174156999497037,
      0.25062848557395256,
      0.40533449474110245,
      0.3666210033563628,
      0.33806882800307514,
      -0.2903588365308499,
      0.45664084555598516,
      -0.41943171138338986,
      -0.11092910959290228,
      -0.03352849434120509,
      -0.22514055131669003,
      -0.10571546315664702,
      -0.45430922491489123,
      -0.4336226446875835,
      0.10367186372319016,
      -0.14827432636195242,
      -0.622957219653228,
      -0.4586171130060742,
      0.6079287611019993,
      0.4011939934829641,
      0.3790403892973676,
      0.009364986525606108,
      -0.11038867747108477,
      0.18807882552469385,
      0.16360930396241022,
      -0.29969986061938,
      0.19335637134393374,
      -0.9197146519801935,
      -0.07251697526748528,
      -0.39373212758087284,
      0.027181530412235477,
      0.3186233289422051,
      0.9101351990980803,
      -0.3868977241597329,
      -0.37338665025385814,
      0.19107283604515915,
      0.30450574130624775,
      -0.3305320733628445,
      0.05576792906550321,
      0.021193341168305842,
      0.4573912001831058,
      -0.3218670327758286,
      0.022354768821250738,
      0.13883333637731876,
      -0.26279681530636234,
      -0.1639061015358993,
      -0.40441350169390017,
      0.1127652471140414,
      -0.7921697579362514,
      -0.4764410098670947,
      -0.27010921602164023,
      0.4787055201932554,
      0.3381160357001944,
      -0.24580850050743183,
      -0.0857842955539491,
      -0.5139178543352217,
      -0.04696221053036884,
      -0.5305789581034577,
      0.14838196563776684,
      -0.3248168145579612,
      0.45620739759992796,
      -0.7378593137907112,
      0.15647535464382978,
      0.6067788569077178,
      -0.09798039302665207,
      -0.22255699458752684,
      -0.6625906165091864,
      1.2251207035357032,
      -0.4277448431613057,
      0.45670108844014795,
      -0.3213162809643949,
      0.37931928339082,
      -0.38331928001082105,
      -0.05166250481092036,
      -0.2704346155201579,
      -0.18852152991789645,
      0.40282527158859827,
      -0.4411435878898753,
      0.11512197366331972,
      0.50076862098124,
      -0.18406373676290433,
      -0.18591111782239955,
      -0.030358734025694948,
      -0.11667532760923294,
      -0.3761056991200799,
      0.24069375434961943,
      -0.32470765648341504,
      -0.09956512951698254,
      -0.11032851939454193,
      0.016587851366606534,
      0.27064189809889516,
      0.3974404829248538,
      -0.9188368798670701,
      0.4146683411635702,
      0.14394120877192199,
      0.36059758871568504,
      0.1710504991634155,
      0.2181787054274579,
      0.2896545224537484,
      0.5194281790366964,
      0.44782961697425633,
      0.3801000294620822,
      0.04030461544198035,
      0.4142758986613474,
      0.5911078052510736,
      -0.5877941526633185,
      -0.8561199722350018
    ],
    [
      0.7550508952722097,
      0.06227257210176969,
      -0.1919164007136888,
      -0.4881873889893611,
      0.45113129399396124,
      0.3797692032061414,
      -0.08534917410825092,
      -0.09429229390747386,
      -0.41357450424116865,
      0.2617031152218987,
      -0.1969923920523336,
      -0.2292205377771694,
      -0.11944217193720191,
      0.10882894637515231,
      0.542964546154146,
      0.1898106952963264,
      0.35394839077187773,
      -0.34055389729473556,
      0.37769202065996355,
      0.7125970792000326,
      -0.15404495505482013,
      0.104450466622918,
      -0.06359816222593359,
      0.9205348665230786,
      -0.7409557443476463,
      -0.05953049688874572,
      0.5747438770868601,
      0.7357892963298546,
      -0.011802812296184356,
      0.2122149836643613,
      0.17419093370436495,
      -0.5792462978962105,
      0.29156252519486736,
      -0.6221805137450839,
      0.1950340137400664,
      0.13037342312705896,
      -0.3944940767294865,
      -0.11059454039226865,
      -0.053655189583463145,
      -0.06361881565212629,
      -0.20344476036357775,
      0.3649064610304333,
      -0.05593952835842461,
      -0.4904714867147415,
      -0.08312614155066175,
      -0.2696721473460932,
      0.03496370813102964,
      0.37710882899913334,
      0.6259131194122804,
      -0.03838099926934047,
      0.781588097666265,
      -0.25664644681196364,
      0.19986467444571346,
      0.5932578412844643,
      0.33580642487513046,
      0.1593342688708158,
      -0.14320353613018166,
      0.4884084479980217,
      -0.5890610802143461,
      -0.33159375974345184,
      -0.1020813109453324,
      -0.1067822951891276,
      -0.014676076559477124,
      -0.4965790637759655,
      -0.5703747205554021,
      0.15701898109016615,
      0.06256778654287545,
      -0.3793092891050471,
      -0.311706940459027,
      0.6361986720739298,
      0.4079145822248066,
      0.48902387672566616,
      -0.12618538198592597,
      -0.20411525552640977,
      0.25689789495740484,
      0.20073731490813929,
      -0.24296434712903855,
      0.2797015677682575,
      -0.7689410442216291,
      0.18000419914552726,
      -0.30385086431186853,
      0.0031184682419912423,
      0.09865462574760228,
      1.1719181078308538,
      -0.4986551143943254,
      -0.09829103449700458,
      0.08619579207893263,
      0.23050202805490344,
      -0.3753834395547867,
      0.16500063916316476,
      -0.16977680914678395,
      0.4665704929120183,
      -0.32195848903421875,
      -0.15605086701005894,
      -0.0066668594048969465,
      -0.19363394423488403,
      -0.09946660724609702,
      -0.22980977978138567,
      0.41572519586462797,
      -0.7539144669034378,
      -0.4621147896954026,
      -0.1449612739687388,
      0.5481602608328907,
      0.6690847935250511,
      -0.0977741100242434,
      -0.14340816130179743,
      -0.5537215221861789,
      0.02781002832221736,
      -0.5822084157113541,
      0.13732578424930875,
      -0.2966735063778233,
      0.36227943004365076,
      -0.8888356136112154,
      0.34790539663911924,
      0.6385904434000063,
      0.08152835666820728,
      -0.2778020561322041,
      -0.9039472161616587,
      1.2433334999899306,
      -0.6040271690182125,
      0.6221952281115414,
      -0.35553784272381617,
      0.47337757256973756,
      -0.131964984147165,
      0.10155150262046801,
      -0.3473717161351188,
      -0.15009734572032912,
      0.46278194453498667,
      -0.41480955085323895,
      0.13308810302875185,
      0.5440901898870847,
      -0.2683025853207118,
      -0.36440124092378223,
      0.10738323673545973,
      -0.13502625002944754,
      -0.3744336844309577,
      -0.0028004236246865245,
      -0.6207855380214073,
      -0.036787799094005945,
      -0.010158759317985,
      0.004455017607714842,
      0.5812654418647756,
      0.30457225805374705,
      -0.8074843137288131,
      0.20340495595830077,
      0.3557096302636681,
      0.15170768818863398,
      0.02415821497571298,
      0.3290886226711213,
      0.28490151574194905,
      0.7465606482773366,
      0.5978363112515176,
      0.3776795139620907,
      0.14790754302486023,
      0.4096123180516916,
      0.738766323399221,
      -0.7812422065967686,
      -0.759833227710027
    ],
    [
      0.9893247397563656,
      0.18148098989678937,
      -0.28410415380247306,
      -0.6097961359514239,
      0.46924720839377543,
      0.32168922362914637,
      0.0789426416957845,
      -0.1547507793505638,
      -0.37786671858343135,
      0.02440934962768305,
      -0.1526612204421745,
      -0.26745577001013066,
      -0.031623271590161,
      0.10560708397256084,
      0.5255966469745341,
      0.48049690708876125,
      0.30953230587736635,
      -0.6066113265719062,
      0.30228210367495745,
      0.41632804772426585,
      -0.2759552227889237,
      0.2894586683954731,
      0.01175072590715024,
      0.979329565123119,
      -0.6178600500229027,
      -0.08395609423422958,
      0.6790103359862851,
      0.8976960121824008,
      -0.01901971563246759,
      -0.12205831868736287,
      -0.0876123850663903,
      -0.3645730041263627,
      0.2975412118948309,
      -0.6479876735492528,
      0.3272663831746449,
      -0.2076953375016771,
      -0.5670823154611832,
      -0.12815788058750255,
      0.07414155976584873,
      -0.04627628570299508,
      -0.17192798447683705,
      0.47166850199498,
      0.11421448473135397,
      -0.4066879870582214,
      -0.19864513201849812,
      -0.34061929112578293,
      -0.10706313547205866,
      0.41070728976540055,
      0.7661179128933162,
      0.12240431692293424,
      0.7166724903134186,
      -0.26813852648199576,
      0.32803298233681694,
      0.3484811814781721,
      0.1038534808679551,
      0.17229785312896823,
      -0.08392346916752219,
      0.5778711593361238,
      -0.5645294304091253,
      -0.18454089685087213,
      -0.05736338607897219,
      -0.2864795717773689,
      -0.12338339243006669,
      -0.6408716720252854,
      -0.4482705906126958,
      0.21933142667397917,
      -0.11466168676706784,
      -0.47149415415324336,
      -0.5254465242031819,
      0.6955490270969408,
      0.24263354205875298,
      0.4882239235595641,
      -0.185335702508634,
      -0.2953980723569136,
      0.26706887888433267,
      0.35084052164295404,
      -0.22735355187632886,
      0.2830761277912576,
      -0.7467908625553735,
      -0.08324305052770478,
      -0.3318274574557697,
      -0.1664209120658721,
      0.12854135052588775,
      1.228180080936604,
      -0.5034100537661806,
      -0.349906653575638,
      0.1494884539707679,
      0.3685940981798897,
      -0.2809327281321391,
      0.08886315344590348,
      -0.15834422682276614,
      0.4888875016897496,
      -0.577547353446687,
      0.019989557339394358,
      0.22021435646246124,
      -0.3082825898345689,
      -0.4152378819284316,
      -0.3222717218108907,
      0.3651264714193052,
      -0.7448754950900522,
      -0.681587854777165,
      -0.13077655184262835,
      0.4716231506745058,
      0.5904418174766836,
      -0.1919475879178205,
      0.1072931375307776,
      -0.3230233777069116,
      0.09039666698593828,
      -0.5825583421086858,
      0.08453151906642256,
      -0.2859158421183174,
      0.49050103008163765,
      -0.6948706893244467,
      0.16456170454251098,
      0.5587889458268095,
      -0.11639743427778941,
      -0.13467880369347407,
      -0.8219819662373835,
      0.9774653113096604,
      -0.5455854698869342,
      0.6545216235460753,
      -0.19116672922476818,
      0.3993307994433787,
      -0.3565624356962718,
      -0.04122240682151589,
      -0.2164132766928174,
      -0.34700112314345205,
      0.5955027060236291,
      -0.413319200376596,
      -0.09619174162595792,
      0.644743678437815,
      -0.31245731495963336,
      -0.37376311400110546,
      -0.001547814838473346,
      -0.3885211714314958,
      -0.4931174044938316,
      0.059204309052079254,
      -0.46178933021484797,
      -0.14693337964702752,
      0.04698173088104164,
      -0.10746806529869986,
      0.5759285448481545,
      0.1808860780638513,
      -0.7919833622375121,
      0.1537012699844057,
      0.3019415312248779,
      0.317784214377176,
      0.2789383063795758,
      0.1871542978453961,
      0.1275674199352571,
      0.5080729002624615,
      0.586064287666302,
      0.15827851979824678,
      0.057181126358126964,
      0.2518039860169907,
      0.7101013011807341,
      -0.7347486621824506,
      -0.7519805608805403
    ],
    [
      1.0628524779418531,
      0.2194711119690152,
      -0.411606209487931,
      -0.4121523421543063,
      0.37693397873681467,
      0.19792415770555288,
      0.11306267016148648,
      0.022687789689864124,
      -0.2654288788280577,
      0.2417834482133917,
      -0.3917705097169162,
      -0.17692270038229915,
      -0.17999956782184123,
      -0.05655272133284059,
      0.574735576179203,
      0.258145763543602,
      0.2630472936211449,
      -0.4502701617464789,
      0.1592282286937226,
      0.6551883688860931,
      -0.18683438191954357,
      0.24441624468617587,
      0.009248845099304109,
      0.8392056750072812,
      -0.5783885260194049,
      -0.15329015099460766,
      0.6390976781266853,
      0.7484139183722976,
      0.002715186234162269,
      0.019694505885327746,
      0.1285468846963175,
      -0.4596932468337134,
      0.2090054102251269,
      -0.6380130649007046,
      0.4563251339808642,
      0.10093695025546007,
      -0.3757642622842039,
      -0.023351964874778183,
      0.07348548518576221,
      -0.08049816368531071,
      -0.4061177891475904,
      0.4141985630820386,
      0.13219782461036764,
      -0.4190113565019338,
      -0.32583719876499956,
      -0.26868208642794367,
      -0.0633858382721643,
      0.5531398129214313,
      0.5830357750959965,
      0.1581948255114217,
      0.7439532698004021,
      -0.11543021893436552,
      0.35008636270864857,
      0.34834708520165525,
      0.08198899119277478,
      0.15827884324848748,
      -0.33814213404889903,
      0.2691590060765179,
      -0.6158234627867664,
      -0.05856092950544338,
      0.07600348988995101,
      -0.21366306158459697,
      -0.14585473428099321,
      -0.48574720965666757,
      -0.32083205689651184,
      0.14755093364479815,
      0.058001087936583734,
      -0.6309398545527803,
      -0.3297395643284541,
      0.5578625676590783,
      0.4504161953628489,
      0.3888980907361689,
      -0.1358268068248422,
      -0.2479257189535219,
      0.2635456669040765,
      0.1886303448704383,
      -0.42441112496231725,
      -0.013310762463166946,
      -0.781802650073316,
      0.1928131585650952,
      -0.2419793229416213,
      -0.2305086381573328,
      0.30176980632770056,
      1.1989535382802923,
      -0.7035792361389801,
      -0.08638351363850168,
      0.10315984135955819,
      0.4241052130877186,
      -0.28521040711196766,
      0.0492626975975889,
      0.10919242738875665,
      0.3344062015992539,
      -0.6043208724400623,
      -0.1340176032077911,
      0.11145814990769037,
      -0.2106704217702443,
      -0.25628478246622316,
      -0.17064466184494878,
      0.44346034592523603,
      -0.8197709498059407,
      -0.6928431123476066,
      -0.23589744373698238,
      0.4903199565861085,
      0.36760512697400627,
      -0.12402300506000494,
      0.13138812299679023,
      -0.4819256555575949,
      0.10281613918933784,
      -0.6516586592987449,
      0.22609436799325341,
      -0.2686455485757938,
      0.2262076004009475,
      -0.7652253794571752,
      0.23145343839481508,
      0.6329368649591349,
      -0.09477028628818426,
      -0.2141576742193039,
      -0.9069836201745896,
      1.0092567438168034,
      -0.6994686801196044,
      0.3229795605526873,
      -0.40161946872417753,
      0.3137020896030446,
      -0.374737959711639,
      0.2022551670739342,
      -0.490096640052894,
      -0.1826568557264619,
      0.6133833734993754,
      -0.36081089473363614,
      0.003540248210102794,
      0.7247086353317531,
      -0.23193281029727109,
      -0.31645398645591166,
      -0.003994268333698451,
      -0.18829224073926085,
      -0.4819691650315144,
      0.19446396799786145,
      -0.37459179521382285,
      -0.2186311125852552,
      0.041017602120206845,
      -0.20892512974251365,
      0.5352066782314131,
      0.3865145593791367,
      -0.964211675055264,
      0.16596324559011968,
      0.19684041469917024,
      0.24743827437649288,
      0.14501447844983467,
      0.3868891510038236,
      0.04513057223705834,
      0.6127269174604535,
      0.4149960018559585,
      0.4049147902350315,
      -0.11434691258063306,
      0.3963708561061343,
      0.6624270002250107,
      -0.6015434466450114,
      -0.84963708631838
    ],
    [
      0.7834481863663348,
      0.015701273324330883,
      -0.3559877447144019,
      -0.4315561393606673,
      0.43501709767877095,
      0.3064834071131975,
      0.08659540207222531,
      0.053478831020795946,
      -0.24527856115565083,
      0.04631713169674484,
      -0.3656979047886948,
      -0.495165346771848,
      -0.00873690871341202,
      -0.06682556014602538,
      0.521674411074119,
      0.2691886623604053,
      0.3081386119593444,
      -0.3451195548294526,
      0.24501114039094946,
      0.45073164286043577,
      -0.4698419540243066,
      0.16697014481085656,
      -0.11359517544575695,
      1.1207674250827147,
      -0.7297307175440229,
      -0.16792069374289942,
      0.6864789128601154,
      0.8726972523692614,
      0.044186688913314925,
      0.0933312182097529,
      -0.08795538917274617,
      -0.403999052896946,
      0.30135763629815765,
      -0.5379971211057014,
      0.38100276137747396,
      -0.030026999509665492,
      -0.4183745985078307,
      -0.2732463340411674,
      -0.21514541180921656,
      -0.11176306229475606,
      -0.21166164407478427,
      0.42075332498954526,
      -0.10219409742585572,
      -0.5133636668963873,
      -0.2630189688040744,
      -0.5527510688315003,
      0.004834224197508485,
      0.4235207489582553,
      0.6209323022832621,
      0.049623898920064066,
      0.641853478440465,
      -0.09250711128407031,
      0.36818118961522683,
      0.5050822833870501,
      0.398095339698871,
      0.0896588460498883,
      -0.18601743038662039,
      0.44655569129581757,
      -0.5359620818823118,
      -0.2133150025534943,
      -0.04527182322039233,
      -0.10237380639285279,
      -0.031417031674095444,
      -0.4265531519217864,
      -0.43261187117427896,
      0.1361668552387119,
      -0.05230758982660398,
      -0.5802163988725845,
      -0.23197778276015762,
      0.6564246634228352,
      0.21205768682229953,
      0.3508133453507106,
      -0.16885787414880454,
      -0.2744676378246455,
      0.2558735271720253,
      0.32409101303984034,
      -0.2510733027207215,
      -0.04145262893358601,
      -0.6543094793996902,
      -0.006223551181111218,
      -0.42734857929745723,
      -0.02968469450381194,
      0.28570350551355816,
      1.287492588657095,
      -0.5760923656142789,
      -0.27353155176490007,
      -0.03341443408581507,
      0.43818628259524106,
      -0.5621887350369901,
      -0.001847639051571804,
      0.08684870016901801,
      0.34111025410386486,
      -0.5604572216952802,
      -0.1016165098433271,
      0.28146569144148476,
      -0.20878693770172624,
      -0.3401514897776859,
      -0.2916583305642922,
      0.2632186121522843,
      -0.7421146184749019,
      -0.7080124117123882,
      -0.04405031764428213,
      0.5279610500126287,
      0.351857404359926,
      -0.049900401726078375,
      0.17578306947964556,
      -0.6201888456950873,
      -0.08577348783670471,
      -0.6756798220128577,
      0.026519204122235133,
      -0.22995953257234225,
      0.40235249705374765,
      -0.6473013889243119,
      0.12270701934019015,
      0.4494731503752465,
      -0.10085645179027534,
      -0.34491973695480443,
      -0.82083008805121,
      1.3046492919068524,
      -0.504305834430806,
      0.5758080893457773,
      -0.32347740864199204,
      0.38380059902100205,
      -0.11571146572731653,
      0.11962195460477994,
      -0.3082274960683289,
      -0.324440474275146,
      0.5941223880712581,
      -0.47917641700893887,
      -0.09243785300164244,
      0.8040308630032125,
      -0.09274026559467963,
      -0.12582601990304051,
      0.044629923262523276,
      -0.34568044872023934,
      -0.6885606974673771,
      0.08873691200835489,
      -0.32892899735155795,
      -0.07689426183324628,
      -0.08074363378844882,
      0.11022691562117387,
      0.4693908051099489,
      0.14847728496858012,
      -0.939433056307993,
      0.45990335319964704,
      0.34730808884181147,
      0.2734091471437997,
      0.24861422120969723,
      0.22154005003935928,
      0.06880532035185416,
      0.5417951499177424,
      0.4756210154725464,
      0.38228454494924324,
      -0.08294055722606943,
      0.46596509143564624,
      0.6055641899023293,
      -0.595738877159053,
      -0.8279631277712955
    ],
    [
      0.8525619368038403,
      -0.012359300678770547,
      -0.4339787831901699,
      -0.43473952617982553,
      0.4411444504222817,
      0.29192824804862777,
      0.1325723740313272,
      -0.13439174390900815,
      -0.24244692378280988,
      0.30593971437193607,
      -0.2410587967767922,
      -0.2926047128371568,
      -0.23228003452079315,
      -0.1441343972053703,
      0.5441751587310231,
      0.43423153607544895,
      0.28112647301802396,
      -0.640177771701798,
      0.27273119726780215,
      0.5704267158245175,
      -0.20965814175535769,
      0.07760693090294105,
      0.08519945485946256,
      0.9520861575830227,
      -0.522021392887369,
      -0.05741534996950844,
      0.4080624280366528,
      0.7745632242999689,
      -0.0545549757994051,
      0.06994371882926592,
      0.22467206245649463,
      -0.5038964249891431,
      0.11734422659837912,
      -0.7797224474578607,
      0.4499216232556784,
      0.053240013999566994,
      -0.6461162463968025,
      -0.3127027449633645,
      -0.01621660560231647,
      0.08920212511151711,
      -0.43781766382003945,
      0.4306107931181582,
      0.17924602867096134,
      -0.26324929809460834,
      -0.07009301938777178,
      -0.49284652934479134,
      0.03812712155053098,
      0.4741281804571655,
      0.5247061672282363,
      0.0209653147731309,
      0.8730260821722253,
      -0.18797675002016573,
      0.1386999964324464,
      0.4446098793642703,
      0.44163829561499784,
      0.3700990426536444,
      -0.32171692539759517,
      0.354661359924477,
      -0.44326746318140514,
      -0.10517839101588675,
      -0.15053130383705007,
      -0.22871763703454548,
      -0.21697828516876885,
      -0.4658159118397086,
      -0.3481348151480074,
      -0.027703909879380886,
      -0.0654142385357242,
      -0.48196044381393066,
      -0.3434554553018606,
      0.8310988690289,
      0.3325706205814733,
      0.25339244108331793,
      -0.24404631875206273,
      -0.10533681540440089,
      0.007099233055204952,
      0.10978145362183489,
      -0.31772641830784837,
      0.13962264453320278,
      -0.822734923368778,
      0.04699144651841129,
      -0.3481178344890785,
      0.030165639439372574,
      0.1965749123634233,
      1.0904468350514511,
      -0.5631325522376849,
      -0.1668963589661842,
      0.18238162304716782,
      0.2250170705852686,
      -0.4100333242576206,
      0.26456088082802076,
      -0.1166150153165154,
      0.504460331430177,
      -0.4631604423621754,
      -0.07316786269330763,
      0.24802029658493754,
      -0.3262826605849788,
      -0.194754047783362,
      -0.3847587792462389,
      0.20571012703926944,
      -0.6560299628974656,
      -0.48949976541261075,
      -0.09954374558752102,
      0.39804635244540754,
      0.49837083516798214,
      -0.10861465380093359,
      -0.13303288064456245,
      -0.5080539494997334,
      0.17292043859698206,
      -0.5692393403388298,
      0.09596772127495665,
      -0.24452807698773038,
      0.2865167694613213,
      -0.9025846319197738,
      0.1292563233160863,
      0.5707108659942508,
      0.13743891897470356,
      -0.3695947040559046,
      -0.9145559379725607,
      1.1588021393199828,
      -0.6881420178302158,
      0.5999740516589389,
      -0.24623730864767315,
      0.31807253211338066,
      -0.4224287617338275,
      0.1216411589302039,
      -0.3025112478809301,
      -0.3945267781624954,
      0.6436498518298762,
      -0.4757674314246382,
      0.06093936278899434,
      0.5619826454277532,
      -0.324152667073445,
      -0.3529600281421821,
      0.14976140127149862,
      -0.3959959891028085,
      -0.5684687106050474,
      0.1762908382475022,
      -0.6380578000793206,
      -0.1681631376676231,
      -0.11737067723874958,
      -0.02685701403687819,
      0.306357655465745,
      0.40509696084463587,
      -0.9618572269238519,
      0.33059075034813956,
      0.5360373347801298,
      0.20116884365234744,
      0.05692155161367373,
      0.37704387540971124,
      0.3404618988869395,
      0.5346504019658155,
      0.6457932383713735,
      0.3595813220323539,
      -0.043077348038366166,
      0.4182962538877072,
      0.7786620799361613,
      -0.9248473209068393,
      -0.7593171026928057
    ],
    [
      1.1072149954162303,
      0.14513931514376643,
      -0.32123020708953326,
      -0.5023044897660167,
      0.6493558847143872,
      0.3710893712274689,
      -0.0941802576843603,
      -0.08219335586659071,
      -0.46218572190782253,
      0.17820600148838822,
      -0.28922163773614,
      -0.33996885943967586,
      -0.18041133340765536,
      -0.11491272034753611,
      0.32305253291665215,
      0.2288906729185125,
      0.08786476127104348,
      -0.6966804137278078,
      0.248361354595298,
      0.7510788119783744,
      -0.4385631909981682,
      0.28761988625014157,
      0.08341462703372982,
      1.0964866587750985,
      -0.7560328385407684,
      -0.2281085657286273,
      0.6389560364500182,
      0.8774764625994775,
      -0.027740764721024977,
      0.01099017299100677,
      0.20109880314777154,
      -0.4837488348474822,
      0.07313284743838186,
      -0.648892605140766,
      0.39925385150483056,
      -0.09971845696974199,
      -0.4147187154771538,
      -0.32871055540225785,
      -0.0852615715651651,
      -0.17137010618673226,
      -0.15665813021180763,
      0.3641920652789339,
      -0.14524658497196527,
      -0.49686016863063004,
      -0.018822443108930675,
      -0.24267577380321548,
      -0.0679270597609036,
      0.5912113817749303,
      0.800710857158448,
      -0.012105539705028158,
      0.6383815163463777,
      -0.08895059865071915,
      0.3738510078011867,
      0.47391070186182316,
      0.17742900691235022,
      0.31471214604949543,
      -0.35584475120146947,
      0.6149223243529123,
      -0.5413341393870322,
      -0.1583225603491206,
      -0.15952595215755924,
      -0.1116511798708979,
      -0.1324647788298596,
      -0.655726258686783,
      -0.6097259458816005,
      -0.05211582650403458,
      -0.15737164124414585,
      -0.6906426270726828,
      -0.3836659835430054,
      0.828717862659204,
      0.3520178767937362,
      0.2982576953040008,
      -0.20097460559250424,
      -0.312445778438761,
      0.20381572537710999,
      0.2797275785766897,
      -0.46702581665222237,
      0.20015787446856553,
      -0.9756084221692837,
      0.21849210414303152,
      -0.22062788913819775,
      -0.20612794856964456,
      0.39334959874558206,
      1.269424808230018,
      -0.6862804806374038,
      -0.19534186684516222,
      0.13140501174058977,
      0.43363090790718695,
      -0.3348747802660052,
      0.004756983490760539,
      -0.01783462317902703,
      0.3143442419267153,
      -0.5215570396316718,
      -0.23848172420733169,
      0.04696547696220692,
      -0.005310148458631429,
      -0.3283486821228046,
      -0.2620304779280546,
      0.1952315683769408,
      -0.9023441401005257,
      -0.48904953670280316,
      -0.023317636575405698,
      0.4079170300330186,
      0.522182424738748,
      -0.06379111672158476,
      0.13940015508928383,
      -0.45948013431681084,
      -0.03120923152810641,
      -0.7206473013933667,
      -0.07747963589216596,
      -0.2240047538628862,
      0.33301802397345337,
      -0.8781602132534224,
      0.18178255612611327,
      0.5006252021438418,
      -0.1936811801179829,
      -0.3504241621582876,
      -0.860056443517701,
      1.4090092308374655,
      -0.7435882347284495,
      0.6817394407100466,
      -0.5171848331068286,
      0.33921404656389154,
      -0.1770569673839894,
      0.015384614230622415,
      -0.4184869867653245,
      -0.06090733078051609,
      0.33195503442305996,
      -0.4135459782046122,
      0.16002487585013267,
      0.7688127357928797,
      -0.34246749795309867,
      -0.10821763471110019,
      0.13318692863235862,
      -0.23215319813750135,
      -0.45629454079919823,
      0.3408653773804768,
      -0.6074905932668667,
      -0.16831765821225123,
      -0.25088917132982835,
      0.12111097452369934,
      0.5608732274238225,
      0.2929791739905048,
      -1.0347264456699972,
      0.4611482563060632,
      0.5004164761235032,
      0.28257724246759114,
      0.26112548438881655,
      0.2106564750333198,
      0.13670244064908932,
      0.6139447081107021,
      0.3910016006437853,
      0.4101586845361341,
      -0.1043279281665937,
      0.30185814409522316,
      0.5754419472702208,
      -0.6207715209064936,
      -0.9307121210099614
    ],
    [
      1.0453502310956848,
      0.2987438531779017,
      -0.23174224659508325,
      -0.4839271287340503,
      0.43830412644627803,
      0.3640816914106158,
      0.14542931593193287,
      -0.12292217301022391,
      -0.27078126042314393,
      0.10730923039164729,
      -0.29748455720165445,
      -0.21972578718195152,
      0.07091679999922518,
      -0.10317334100308603,
      0.6000320452883888,
      0.46090311202802303,
      0.11239219046249142,
      -0.5960296964523009,
      0.187809010314382,
      0.7718367213112435,
      -0.30321723694522845,
      0.14362846768704418,
      0.16991672334804467,
      0.9347215148113666,
      -0.566058701741705,
      -0.23518419405154467,
      0.5430120097116439,
      0.835702144294704,
      0.1566569697230311,
      0.14580667554071294,
      0.14646564462082254,
      -0.6074136119963168,
      0.13365174960300036,
      -0.8072368156243682,
      0.3160041859260438,
      0.041905472000121645,
      -0.6446264635312058,
      -0.1547044199687786,
      0.0839242341875702,
      -0.12080875753625063,
      -0.15133411907471978,
      0.18832716580976264,
      0.07059169868819093,
      -0.4125234266357165,
      -0.15090604994475207,
      -0.5521367135229915,
      -0.12531573281592356,
      0.6456232264128339,
      0.8249059855610152,
      0.11225910599359272,
      0.8522880337345188,
      -0.2943962809370049,
      0.3458446098743764,
      0.3817041310422,
      0.12744729375500638,
      0.3569660279255612,
      -0.2595689382819686,
      0.5943233194391464,
      -0.5259770293001653,
      -0.3533434335628752,
      0.008644382762494499,
      -0.20004779862361247,
      -0.11983332394408697,
      -0.6044472494968072,
      -0.5278012616236042,
      0.11095215340778741,
      -0.12431400803450078,
      -0.5912318833288736,
      -0.49404650970486885,
      0.7361295630138387,
      0.22708453692508135,
      0.31250270641488487,
      -0.0028529813944283,
      -0.02137554511810126,
      0.19686041517419434,
      0.3076002747431537,
      -0.18289836518314234,
      0.218877694320161,
      -0.7530888510703321,
      0.13102248197117544,
      -0.4739823159822325,
      -0.2471564179321931,
      0.38820828616269853,
      1.112984100428466,
      -0.42701334864270724,
      -0.15345264517595786,
      0.057703258469317974,
      0.24923677110976278,
      -0.5742826785008781,
      0.18300287111452437,
      -0.17564372808337142,
      0.3305469660989848,
      -0.4190286185730604,
      -0.1434610278071754,
      0.14851441076205868,
      -0.044054253695385404,
      -0.3516371276811654,
      -0.2073838441082466,
      0.2968788383187025,
      -0.9311052735808694,
      -0.6387794050942275,
      -0.015163680243898494,
      0.55412580885988,
      0.5981629646169899,
      -0.19424215448578674,
      0.16287023087568792,
      -0.38069493886112177,
      0.1361710871021057,
      -0.4135599568764373,
      0.253118591195959,
      -0.39694045113781734,
      0.5139361595430683,
      -0.7534061785455415,
      0.3972265960837,
      0.4094019812988096,
      0.1122763826625986,
      -0.22981885943284663,
      -0.8171495874663476,
      1.2483512061839317,
      -0.4921757329159097,
      0.5875372048302856,
      -0.2576900279565605,
      0.43524869182800857,
      -0.2943432701533565,
      0.04561901578662908,
      -0.2187657097679298,
      -0.1469505475713192,
      0.6366100056152754,
      -0.4679152878040702,
      0.01990467932974449,
      0.8183587415485775,
      -0.33938973428079516,
      -0.27418113890266455,
      0.09774773907094182,
      -0.2569410643813154,
      -0.6528734148484872,
      0.36702611320728823,
      -0.6156089282162829,
      -0.004073834177858679,
      -0.24015961079291467,
      -0.04109384836730267,
      0.5966564911248845,
      0.29645108426651295,
      -0.9390684798357269,
      0.3478819874078681,
      0.4679317333795121,
      0.19477568466390285,
      0.022326990732063456,
      0.3256518113745825,
      0.1553725486800421,
      0.6549998496529081,
      0.6086744591032033,
      0.3900932301581337,
      0.18799619517822366,
      0.6092449045520457,
      0.6078985344569574,
      -0.869130738090213,
      -0.9941482301375989
    ],
    [
      0.8547428009971044,
      0.2825444695976029,
      -0.3704594716474984,
      -0.6827310756046534,
      0.5784270176150013,
      0.21753806390185015,
      -0.11664514526208604,
      0.1541360314872007,
      -0.41585547541064694,
      0.21167308350799682,
      -0.4604860153677818,
      -0.29476928462894947,
      -0.13912692746521607,
      -0.13345801782571248,
      0.552157938868851,
      0.29242685798945445,
      0.17082507894847693,
      -0.4162435918867007,
      0.2021915086970671,
      0.6492780071548442,
      -0.4902396802846523,
      0.25151916048463163,
      0.09184030176445145,
      1.1237000937764556,
      -0.6034652092546422,
      -0.03325841265660841,
      0.6132832094792791,
      0.6932175286887159,
      0.1296660405615197,
      0.15735412425550363,
      0.1845247924602659,
      -0.4513541369141017,
      0.3235270899243532,
      -0.7332019335508458,
      0.23824668595217996,
      0.0180062386256648,
      -0.4359217900140013,
      -0.1965310815700657,
      0.10567768381189385,
      0.07990057541811325,
      -0.3563941958058555,
      0.41420042268902624,
      0.10890498472339788,
      -0.3637676851777887,
      -0.19719043248044119,
      -0.48852220814947195,
      0.00019579124179645814,
      0.6250307397808,
      0.7430905793654282,
      0.1556909440689921,
      0.6811278406911689,
      -0.036780545473004064,
      0.24720876613064596,
      0.4319687127520908,
      0.3402635057791217,
      0.19760834687818934,
      -0.24704554609323442,
      0.2901744781589341,
      -0.5628325299309986,
      -0.19734791132170085,
      0.13798807636006113,
      -0.04481477621994215,
      -0.18832958878511286,
      -0.7548694532885234,
      -0.6005147634835024,
      0.1111929109501587,
      -0.12273778455185642,
      -0.7208956362771097,
      -0.5409518435419832,
      0.5371689093560059,
      0.3511934990683145,
      0.5770996230638534,
      -0.024916948490144218,
      -0.1822514098431839,
      -0.06675798172543297,
      0.17459290038602496,
      -0.32328097781993026,
      0.30030784178410763,
      -0.9817109398202363,
      0.19062207366540349,
      -0.23682033490661403,
      -0.22364224838920993,
      0.18867822486592195,
      1.3643666289525556,
      -0.7171731576535647,
      -0.15144879357257418,
      0.25289990840899446,
      0.14774607190175823,
      -0.37778755443986045,
      0.30467651548414,
      -0.21254961582033577,
      0.29039596545351654,
      -0.44368693200372583,
      -0.17838192670196532,
      0.28285409711675696,
      -0.03508702528914151,
      -0.3044452668813822,
      -0.16467572866256522,
      0.3132670414320258,
      -0.6872577908932922,
      -0.657281188141062,
      -0.28241220037820497,
      0.5921866239544085,
      0.6836299104282644,
      0.08042086576838961,
      0.03678172182430406,
      -0.5741386689859491,
      0.06496452522226097,
      -0.4471263710687436,
      0.24372403970457485,
      -0.48588353615078994,
      0.4534265505079815,
      -0.7915766802956596,
      0.06877643099086819,
      0.4522113117576903,
      0.03816381015529147,
      -0.07817210189402138,
      -0.9129395612147848,
      1.3559948792426024,
      -0.5509855432100603,
      0.5430710402218382,
      -0.5151123788038525,
      0.5993629023227779,
      -0.28853269583703417,
      0.05668316580421589,
      -0.4346449628389106,
      -0.10308722536655242,
      0.3626843198956634,
      -0.5484275922847244,
      0.055656021379857756,
      0.6227506587575893,
      -0.16101256689725446,
      -0.10685658040889268,
      0.10002188865533965,
      -0.1706600496626064,
      -0.5368663935734098,
      0.3121354319611937,
      -0.39110315941236234,
      0.009373533040529264,
      -0.04373335738738546,
      -0.1045021748387471,
      0.31481977935778155,
      0.3618738177474644,
      -0.9544960579635249,
      0.21843176021215524,
      0.40746392029722683,
      0.23452118109248724,
      0.004835003224570828,
      0.1510114465372311,
      0.2360612578250849,
      0.8381012660358076,
      0.6731435094109248,
      0.34842360362757785,
      0.10489733356604501,
      0.37382394119994883,
      0.7256230169470218,
      -0.7243842491987951,
      -1.0127224035530502
    ],
    [
      1.131063213264989,
      0.023470994974680637,
      -0.28044041723999147,
      -0.7222655473687293,
      0.6931425088139195,
      0.16297948848051358,
      -0.1596857201268969,
      0.061493402689276395,
      -0.3090335558678786,
      0.37392119328812523,
      -0.4682232188913409,
      -0.2611926368632069,
      -0.21331671976064556,
      0.11321054506791559,
      0.6620634034398131,
      0.5346737868606767,
      0.20046094380755808,
      -0.6718333087626677,
      0.17100259553158356,
      0.8669178052370448,
      -0.3121868282571447,
      0.04186937664410534,
      0.1875541873550473,
      1.0135372906350946,
      -0.6811700988405243,
      -0.30520630343875293,
      0.7373078068147128,
      1.0228395856814756,
      0.2311997398331204,
      0.20161334124741587,
      -0.02867731871098768,
      -0.46738965788822157,
      0.2990232545340439,
      -0.8335701113041312,
      0.447523817899223,
      0.06793987723506052,
      -0.6012400501659465,
      -0.3065445660231293,
      -0.20187284522653903,
      -0.25442825486458204,
      -0.4035436192279922,
      0.49919868366233683,
      0.16482599638286813,
      -0.3288768705749842,
      -0.04082434988263316,
      -0.5945889889255183,
      0.05612988619437062,
      0.5253637502925107,
      0.8828829756195731,
      -0.1607290229871223,
      0.6488063949463638,
      -0.09549987362569452,
      0.3525296015630592,
      0.5060661889057865,
      0.39517740202485657,
      0.14075427370099258,
      -0.18628997683853263,
      0.5604024804739587,
      -0.6613747204296834,
      -0.17716043782829954,
      0.08524523859368027,
      -0.2314393975719391,
      -0.19792519261543576,
      -0.7759564782800081,
      -0.44254184543393293,
      0.017090113079994362,
      -0.13795157799236488,
      -0.8078140240183688,
      -0.5648343726850217,
      0.8491895647821612,
      0.4040591641905929,
      0.2798248199048665,
      -0.08201550813472303,
      -0.1677687918074444,
      0.07641333906756123,
      0.09348878905403732,
      -0.38634259920167013,
      0.15892432984030333,
      -0.936855835378151,
      -0.10789724652200393,
      -0.5547960469098917,
      -0.308343644174348,
      0.1777302417923821,
      1.3675949632467685,
      -0.6368593641724991,
      -0.4652953099744231,
      0.017456105399096724,
      0.23304902780489514,
      -0.621517561487225,
      0.30839800636759496,
      -0.14764062691296526,
      0.5465035140305806,
      -0.4622313628821953,
      -0.22684905570843206,
      0.28424075988644876,
      -0.11886700632447741,
      -0.11881344741986044,
      -0.45309493321283467,
      0.20153168254442605,
      -0.8179757596513477,
      -0.5049429163420625,
      -0.150806843038015,
      0.6125080866621746,
      0.6667540194830313,
      -0.0022010663384781047,
      -0.11041807426277851,
      -0.4314907921954201,
      -0.11571634577810709,
      -0.5392758901368511,
      0.2510558956793398,
      -0.5729782058016694,
      0.3682682241332416,
      -0.9354232625997262,
      0.1999631091841413,
      0.46457687329729846,
      -0.1786089143010002,
      -0.28441474576845877,
      -0.8126644832901535,
      1.509203970573756,
      -0.5822005927749534,
      0.5747428874175027,
      -0.5074932478645113,
      0.41887874864349683,
      -0.4134641125515426,
      -0.05855876623635602,
      -0.24230444782307003,
      -0.04342918357813087,
      0.4084472528619069,
      -0.4491876605662583,
      0.21668502246578766,
      0.9048750122469714,
      -0.2648016367329967,
      -0.264492243383284,
      0.11788146350970957,
      -0.19195523364009637,
      -0.5572247368527287,
      0.3248825544694406,
      -0.36450573021443344,
      -0.011527236457347474,
      -0.06800958212715923,
      0.1260237651693442,
      0.6575261804109137,
      0.11519938285299836,
      -0.939168497556111,
      0.17345843229770203,
      0.44933433686891283,
      0.2878747911680535,
      0.26579018885124356,
      0.4284648166184796,
      0.03520260484681918,
      0.7498671186071597,
      0.7075520775189851,
      0.5497107347614142,
      0.16814765547378083,
      0.6715398630291004,
      0.7507132551140239,
      -0.9764504224315729,
      -0.7682792026169464
    ],
    [
      1.196279557058408,
      0.3077965147067983,
      -0.25020134895651625,
      -0.5389343346835404,
      0.5549396976015855,
      0.43722539642442454,
      -0.17192480318162034,
      0.052308450661180415,
      -0.3815442494695135,
      0.08732882006405099,
      -0.5184239058334913,
      -0.46945666024041544,
      -0.09053847442059364,
      -0.08033017750111995,
      0.6523386719445566,
      0.2670564285108271,
      0.4304960418511304,
      -0.40383321441672587,
      0.33240687554890724,
      0.8561342062923902,
      -0.4231268327917664,
      0.2517165083496696,
      0.050354532032440516,
      1.1203582929472473,
      -0.5849692286162245,
      -0.13344496922817933,
      0.47034733789630667,
      0.8237541727350766,
      0.1634108892379241,
      0.05561274906475669,
      -0.002885385047094808,
      -0.4841515924863728,
      0.09040731649801328,
      -0.5690003258773622,
      0.2709941198720652,
      -0.11760388830446727,
      -0.44464133693174346,
      -0.1170248785264204,
      -0.17325469946830208,
      -0.15619168649578005,
      -0.4314365911955702,
      0.4302055698103287,
      -0.07698553792951027,
      -0.3673423840706881,
      -0.08073929330782734,
      -0.4764973152470038,
      0.10042270472182564,
      0.4731654739959465,
      0.6397193896358968,
      -0.08913318895026645,
      0.7317855355383251,
      -0.08400008534894088,
      0.37835208093396655,
      0.49796479936970434,
      0.40381634185442367,
      0.3576454623527019,
      -0.21458352074589976,
      0.5673242042870169,
      -0.6942672385082306,
      -0.3967780649246594,
      -0.19051947780282988,
      -0.053461876299798594,
      -0.1873709570661462,
      -0.6290028537280279,
      -0.5429511411622415,
      0.20906467038221221,
      -0.1834760812011363,
      -0.7474470940089497,
      -0.506105844012774,
      0.7408396474994907,
      0.33667707316780365,
      0.6093428147585995,
      -0.19382923535694158,
      -0.17501573652941785,
      0.0195483042468023,
      0.08178868241321907,
      -0.26977093383515044,
      0.21407935266014289,
      -0.9001447182970941,
      -0.00434858516712162,
      -0.32774122198243816,
      -0.14259767612083302,
      0.3695981385563533,
      1.397825050012346,
      -0.7708329222563188,
      -0.3232305455535307,
      0.187929034763101,
      0.5123951075981752,
      -0.3788044222729631,
      0.21645968125270085,
      -0.008475065914943104,
      0.34008614430259926,
      -0.5582459441459076,
      0.0028467474070774865,
      0.04817627686402439,
      -0.15181203684480465,
      -0.38330826535412105,
      -0.2731958231013272,
      0.49235676374118864,
      -0.9762388085382232,
      -0.6909231108823307,
      -0.32133625227630047,
      0.6185407534273037,
      0.7309585219512285,
      0.09181875323831071,
      0.04767044303629851,
      -0.5304190651524037,
      -0.1645632584929784,
      -0.6253861431415482,
      0.011496764255599652,
      -0.39285260295163527,
      0.3097830773271725,
      -0.7888715979682694,
      0.3149161351401857,
      0.6164655831758371,
      -0.20954511495844855,
      -0.39465361664026916,
      -0.7549623106444942,
      1.2861003544215477,
      -0.6144802269480225,
      0.5133369374854386,
      -0.5519898661529116,
      0.5651321721560896,
      -0.4940527798226427,
      -0.11249522219929622,
      -0.37604343035885457,
      -0.1285341827430819,
      0.652806245833332,
      -0.23425524133394252,
      0.08369706883453987,
      0.7862165824359941,
      -0.3688374462400427,
      -0.35939849562340676,
      0.035856598187922896,
      -0.2069570984228136,
      -0.4969492434587071,
      0.14743300655402075,
      -0.5576383900799888,
      0.018251386026294315,
      -0.08282408486378443,
      -0.1727403037437312,
      0.6206651188020499,
      0.3877693557760686,
      -0.7955223228852658,
      0.39250022014080577,
      0.4362962273889046,
      0.4199597540120508,
      0.07876730212493785,
      0.2919338646555321,
      0.26014330839422767,
      0.7092340141417544,
      0.4344951083665177,
      0.4413834529813615,
      -0.05226892010471716,
      0.5270034876228917,
      0.814931918890555,
      -0.7512867565079208,
      -1.0813082154634204
    ],
    [
      0.930905025161034,
      0.1760050461324988,
      -0.3347459214496651,
      -0.6776405029702378,
      0.4461917817260784,
      0.32113332881399786,
      0.04215062684873758,
      -0.006300870020574357,
      -0.5389474152098733,
      0.3289803935974073,
      -0.39015946891333403,
      -0.40621828921443787,
      -0.2401773696489527,
      -0.004430905398552688,
      0.6923004657036009,
      0.43959447020660747,
      0.338843841388215,
      -0.6538673936496159,
      0.32696323724930626,
      0.7536890877276856,
      -0.4734403194568467,
      0.04166316673471817,
      -0.07801389714250628,
      1.0682101945387377,
      -0.5222798109277791,
      -0.19628292270713477,
      0.5222585383652588,
      0.9463359569957404,
      0.07018544459816253,
      0.07018716560828477,
      0.10009596995815849,
      -0.54615446287893,
      0.13237034824319804,
      -0.6636090115056604,
      0.30774163792714515,
      -0.011809168705540671,
      -0.6711490579128847,
      -0.10004385501532057,
      -0.014303272861640988,
      -0.03596480948574013,
      -0.1278012269130756,
      0.4128105688323602,
      0.142766298934987,
      -0.466682294620395,
      -0.0932412459160244,
      -0.29475804065079914,
      0.049428574071219034,
      0.7242759204825115,
      0.6815513440877118,
      0.15772234838912133,
      0.8932273866349832,
      -0.2839531400149352,
      0.39391901543329144,
      0.6676710789874576,
      0.16186843214213237,
      0.47021102609832666,
      -0.06464181801964825,
      0.601170037613226,
      -0.6302391830281416,
      -0.1004629616841696,
      -0.04062047707781124,
      -0.3245877057831075,
      -0.1537123492291621,
      -0.5325684709264041,
      -0.5897151292500487,
      0.05183382072636747,
      -0.04891107720811292,
      -0.6095258431203235,
      -0.5572272019228967,
      0.8776008224615374,
      0.45694985715753456,
      0.5677935300029442,
      0.06752650645721966,
      -0.34524460743697455,
      -0.009483662842987354,
      0.060646876096776006,
      -0.28151017005676593,
      0.2137129201860014,
      -0.9213542074154084,
      0.18781323004167863,
      -0.302377641313903,
      -0.2742445780146258,
      0.30104341533008255,
      1.2801082258509118,
      -0.7670336821936498,
      -0.3262387940989342,
      -0.052184513598670726,
      0.418199852220901,
      -0.4455366587624216,
      0.2155598355509165,
      0.03449135372690407,
      0.41482060074891336,
      -0.568783599289623,
      -0.21885962404482553,
      0.26543994800353204,
      -0.08035381607224003,
      -0.3517562559804079,
      -0.48772744955643577,
      0.3438575022519623,
      -0.926322318849908,
      -0.4735222413471479,
      -0.039432708206657736,
      0.4501339880903238,
      0.709555030491686,
      -0.09969810692105735,
      0.1358530476295978,
      -0.4032144246395762,
      0.07679657779948316,
      -0.6941133152615535,
      -0.048835236003343455,
      -0.26042451498150787,
      0.4270709729726196,
      -0.723305449035739,
      0.23540074337504974,
      0.6103013034507185,
      0.05777037587669943,
      -0.43230999376861706,
      -1.0269107958390276,
      1.3818954092696405,
      -0.481701638656598,
      0.625250057836901,
      -0.2958599222749081,
      0.5417872185506861,
      -0.3776308704644943,
      0.15120612182679294,
      -0.4920598848027835,
      -0.05766420418769323,
      0.57929882135094,
      -0.29873365820369346,
      0.1568651558146385,
      0.9216733620619192,
      -0.12703997299108444,
      -0.3373764779299022,
      0.2377022270359822,
      -0.2324043446611919,
      -0.5623904505542603,
      0.09536906320470845,
      -0.32477920850148,
      0.05070162227565586,
      -0.1272109937936559,
      0.04026448737225304,
      0.588920697792796,
      0.20196402047927337,
      -1.1227796227408695,
      0.17699838281721855,
      0.4633868064061248,
      0.25795777277104354,
      0.1326039627710898,
      0.193412382535411,
      0.24431115752364643,
      0.7305543529080318,
      0.4865734561952332,
      0.25968024105728904,
      -0.09170608655676,
      0.5783683062112791,
      0.6409076517921476,
      -0.923273564140959,
      -1.048334978813695
    ],
    [
      1.0624299218093933,
      0.08934033786024573,
      -0.2831855379707303,
      -0.5088233509062732,
      0.5632371307041306,
      0.3977608032863239,
      0.060772135775126045,
      -0.08586364952230434,
      -0.4253538385143872,
      0.03590800709848577,
      -0.40306178455799824,
      -0.40067319975653715,
      -0.21864115856003974,
      -0.12178170913262207,
      0.3799155253151769,
      0.45498332852406065,
      0.4469347487870347,
      -0.5623371072161879,
      0.3288964904318621,
      0.6778227432914019,
      -0.27606803103477273,
      0.19802996868568118,
      0.11415954777791663,
      1.0668582614901534,
      -0.8351774807025918,
      -0.11953779852974941,
      0.5369545540866958,
      1.0842492376489383,
      -0.00752224401774039,
      -0.07580598527088324,
      0.05987856129316711,
      -0.5484720855549607,
      0.2929710172508867,
      -0.6645058157589733,
      0.5513713991140912,
      0.05883197471935386,
      -0.677274730618378,
      -0.29858978626480365,
      -0.05934332573514392,
      -0.015222770962072057,
      -0.14727470207710508,
      0.24837543225106,
      0.13315777350838165,
      -0.5647750859574265,
      -0.13996866368329225,
      -0.3137026266480246,
      -0.06087386492995062,
      0.47528055234196076,
      0.5756559893092701,
      -0.08849583582528105,
      0.8947962652842613,
      -0.22680351140474986,
      0.21392269963870328,
      0.6383166380543359,
      0.19098337795130255,
      0.3186934330123505,
      -0.19282029149502794,
      0.6562727208552561,
      -0.7413937855846204,
      -0.08753761488486694,
      -0.12308470962976417,
      -0.07434522501569946,
      -0.1338745564063987,
      -0.6143761739545965,
      -0.5904240854233019,
      0.10578875071069851,
      -0.22782308453017827,
      -0.8216187261157757,
      -0.34423524289806373,
      0.6639053420871964,
      0.2691490505170623,
      0.43363489932145693,
      -0.11077622669475196,
      -0.14926069462702476,
      0.2595397205013029,
      0.31646446472692974,
      -0.19733196373586626,
      0.2432623597492671,
      -0.9054609763601006,
      -0.08495654922750528,
      -0.39582754020756017,
      -0.3288030360599694,
      0.21291157333600405,
      1.403500147566908,
      -0.5144428283437118,
      -0.44252893275129435,
      0.054543516336513366,
      0.42178543837798493,
      -0.5539334103055137,
      0.27400573431994946,
      -0.17380006190787706,
      0.269467397831591,
      -0.37118418406261944,
      -0.0885540689250827,
      0.11602293813079889,
      0.0028207957942346235,
      -0.1235651292590772,
      -0.3038675910304195,
      0.3914832448223947,
      -0.67957266270034,
      -0.579569423748042,
      -0.22597340592547552,
      0.4019377571513851,
      0.7520297413718775,
      -0.14595572763918924,
      -0.14008475481367916,
      -0.4891348277068712,
      -0.07054330598704048,
      -0.551531749004025,
      0.09645587127375929,
      -0.5044880901036362,
      0.3405223795229394,
      -0.8304763954707897,
      0.18129933900643116,
      0.6198875681723153,
      -0.19143457226643926,
      -0.28436891619026905,
      -0.8692763029667581,
      1.3225235895048018,
      -0.557678680148005,
      0.618505093125465,
      -0.37156813398833455,
      0.6469142948117916,
      -0.3313764700124381,
      0.0428352454090044,
      -0.38884627431494984,
      -0.24799931049012175,
      0.4028211425772305,
      -0.5033952086486487,
      -0.03408322734796604,
      0.640368704733195,
      -0.38778011870538104,
      -0.47900203867931235,
      0.12825762689456086,
      -0.27359507903239016,
      -0.626618977708004,
      0.15991563921896182,
      -0.585149054045179,
      -0.12580873105707807,
      -0.017382935342086958,
      -0.15892128391341823,
      0.606786833077772,
      0.17237832743401887,
      -1.0118810505484377,
      0.5095723941084337,
      0.5692128296000036,
      0.11438613485843689,
      0.06459850690429017,
      0.19221952760556926,
      0.12818001887284447,
      0.9259625093271056,
      0.6157436317123732,
      0.44200763192794995,
      0.008711999656651866,
      0.4896111727120488,
      0.76642788503839,
      -1.046065028236863,
      -0.9895107724371525
    ],
    [
      1.190486700875241,
      0.30202378511587846,
      -0.31524463730671215,
      -0.6499999931087102,
      0.5224628069851351,
      0.2854976884830113,
      0.10249212874247457,
      -0.17872537090097243,
      -0.4937571121311749,
      0.30728945387613116,
      -0.4460247015313805,
      -0.2745521348432531,
      -0.15473094937090126,
      0.04619248031013689,
      0.39736187106516957,
      0.2686207602592552,
      0.3740298309255785,
      -0.6039906910587344,
      0.3885511188524554,
      0.6396434784648279,
      -0.44413551465788753,
      0.1622668831040157,
      0.1434884809547636,
      1.0111210861835729,
      -0.5738762886501207,
      -0.13563443672414402,
      0.7969800368952963,
      1.0147295546724169,
      0.1441022419091742,
      0.19349083826738245,
      0.19625254140595966,
      -0.4892662908072813,
      0.27631298783763264,
      -0.7392794888600074,
      0.3121082759300642,
      -0.06064056539573829,
      -0.40170008036193455,
      -0.29283659633748577,
      0.06328454887952749,
      -0.14478380232080917,
      -0.38723724842813495,
      0.36640491570278994,
      -0.07336136772078344,
      -0.4667708904635639,
      -0.044779216100401226,
      -0.43183453622944795,
      -0.04734957666836483,
      0.6485703411288348,
      0.6114870949760879,
      -0.04808583377201926,
