{
  "input_weights": [
    [
      0.11735869574363199,
      -0.10270825539924379,
      -0.12173809844701314,
      -0.1593963930703904,
      0.22421714533274395,
      0.782555802249697,
      -0.6137169763911414,
      -0.16604960951710818,
      0.2810811811249186,
      -0.02696933251409317,
      -0.21485041612410194,
      -0.3322280095107762,
      -0.2270196546280984,
      0.5688589683503453,
      0.34710078514477993,
      0.21920480336579018,
      0.4310060806365686,
      0.40905415258192407,
      -0.07953422674461989,
      -0.009346209530660132,
      0.20758601505706134,
      0.5286056845333242,
      0.3775228339555099,
      -0.11513010628666807,
      -0.15362760045330287,
      0.32013015355675184,
      -0.43733228053677714,
      -0.7556638107381619,
      -0.6294839023449296,
      -0.10788158680260339,
      0.27437486675843537,
      0.25624809209270066,
      -0.3084977970964961,
      -0.07501652049248378,
      -0.05439512004346498,
      0.01759095179904291,
      -0.49947679684595786,
      0.25887181075976984,
      0.3485915459344251,
      -0.042033547275302896,
      0.7067244358309028,
      -0.18094990810947278,
      0.515916368215816,
      0.4626701294740063,
      -0.6615447552898822,
      0.20900932151636203,
      -0.49233923476796626,
      0.3528488662738276,
      -0.3053165523940783,
      -0.39347125415863,
      0.33603869702754446,
      0.05516462621987462,
      0.18220524274936029,
      0.7055663778816256,
      0.12786963404431093,
      -0.3833102424255789,
      -0.18043710458600465,
      -0.6451423312425412,
      -0.8868462934451952,
      0.22895861089756045,
      -0.05776603014924343,
      -0.5988378233652695,
      0.0315214843180547,
      -0.30318465826920504,
      1.3502678590025758,
      -0.49550079600188185,
      0.3058821498968948,
      -0.2664136758032195,
      -0.7019194531484638,
      -0.5227482700636249,
      0.5372411821136934,
      -0.8472708809739908,
      0.050294199883791725,
      -0.5247318682815569,
      0.003734100645287378,
      0.13104877594574785,
      -0.05289661640863327,
      0.5650555759516218,
      0.2459419461120532,
      0.9907473359213458,
      0.23103685115863254,
      -0.1355098192216162,
      0.19447267636435264,
      0.22140059976079482,
      -0.3280798756376249,
      0.10698548452948745,
      0.3674260114792718,
      0.2684805537477826,
      -0.44926353751535586,
      0.3634433691195831,
      -0.8496550710025459,
      0.35144653624488525,
      0.050053941887983094,
      -0.1670012797076933,
      -0.5863949313191235,
      0.7122216978129625,
      0.04722147576471134,
      0.5924608606579513,
      -0.21337793258761845,
      0.09159796887481414,
      -0.44481285194972714,
      -0.36023736248361604,
      -0.6895900515447807,
      0.16504581970000862,
      0.7341363559907701,
      -0.469699381880227,
      -0.28191051036630427,
      -0.2902736910097914,
      -0.48870150562427583,
      0.22489535622999215,
      -0.24999569881164888,
      -0.043056372194077,
      0.49785801516890665,
      0.46013894386163096,
      0.4354797501748232,
      0.17674862727201013,
      0.15959662362910657,
      -1.1469169553845469,
      0.30416643413482575,
      -0.6120101436783817,
      0.14156727518809495,
      -0.24046017263486025,
      0.3259514924115588,
      0.5097444717542959,
      -0.3611614121669908,
      -0.42062095930679166,
      -0.46390071931091664,
      0.34614724490119675,
      -0.5371939957536865,
      0.49324940366606207,
      -0.15648814333731748,
      -0.4846699629589324,
      -0.1212036136685505,
      0.03614473781574992,
      -0.39511884574145195,
      0.24793039275738354,
      1.0676955026813064,
      0.22839021135673365,
      0.06689571020234139
    ],
    [
      -0.014256198752224458,
      0.06950128502439588,
      -0.390589073091972,
      -0.06870033648265714,
      0.16875914909504483,
      1.040609824954256,
      -0.5496530141801068,
      -0.23247320214991546,
      0.30944059231783394,
      -0.04824649927530623,
      -0.47638786233477975,
      -0.3819727339874573,
      -0.22472743127116643,
      0.6932324443957172,
      0.4357647115400418,
      0.17042116760485282,
      0.28321169144454206,
      0.32808785821683667,
      -0.2644919279539347,
      0.01780868526624694,
      0.3181048764169571,
      0.4926339254989648,
      0.26916591151758074,
      0.019603389625633818,
      0.05565595119318581,
      0.28364484089204506,
      -0.3974974714809502,
      -0.483225108493356,
      -0.6700408956833418,
      -0.36766719269272935,
      0.41960237893243263,
      0.2016141708890535,
      -0.540727989432704,
      0.08762361428073001,
      -0.10751877964720967,
      -0.1400665390417244,
      -0.483178602569858,
      0.2829101373138327,
      0.4865183538022152,
      -0.1382885511942465,
      0.5557781267000665,
      -0.06443161913315121,
      0.6165071560897553,
      0.45324736266563925,
      -0.39367027283116907,
      0.15796753705982414,
      -0.42030327069208734,
      0.3309049624993252,
      -0.26710616657766695,
      -0.4701900744399182,
      0.19029382510173362,
      0.0888678457007329,
      0.38282588489631286,
      0.43831117482063875,
      0.0460728961403202,
      -0.49343560726832614,
      -0.14481484746577222,
      -0.5401170358720224,
      -0.7760127888922342,
      0.11991218810412643,
      -0.11744510838273502,
      -0.49468070502324285,
      -0.12781309427857587,
      -0.4645615153313557,
      1.2682126403529184,
      -0.42187203766669573,
      0.2783677893408313,
      -0.12470115532911061,
      -0.7988100759159512,
      -0.3015978404120728,
      0.6204274673788177,
      -0.9594689688701561,
      0.19815337884488277,
      -0.5044381430102454,
      0.000440436442631845,
      -0.039506637060348265,
      0.08510555432722643,
      0.528841130386037,
      0.44768417780991704,
      1.029837307809854,
      0.13694378613508157,
      -0.32324070155270224,
      0.10182431050353552,
      0.4644851621895074,
      -0.4073357907215657,
      -0.05686298087604509,
      0.4427292132380096,
      0.2514188883323031,
      -0.2931073750412825,
      0.40045998518795234,
      -0.7451374259480739,
      0.5231560976659888,
      0.14360903234710698,
      -0.2937190194773603,
      -0.5466737207426805,
      0.6020617176445117,
      0.19442942126977866,
      0.724018787671604,
      0.028018363518986317,
      0.14998719401874408,
      -0.25970811503426605,
      -0.35072142833252806,
      -0.6063680893141841,
      0.1694458366672745,
      0.770888546916108,
      -0.4109037528968147,
      -0.2639639473203863,
      -0.2030063417197972,
      -0.4438366793884313,
      0.30491272146795634,
      -0.19575762980623929,
      0.011235005571987648,
      0.5228517253972776,
      0.527559782522182,
      0.39321645061979793,
      0.026100374419057555,
      0.08207165905744815,
      -0.9395400544520499,
      0.053066004745264655,
      -0.6437328797093798,
      -0.18921593602240966,
      -0.47992016800619364,
      0.6620428944113769,
      0.3688610062202777,
      -0.47951102424861036,
      -0.3178120628543901,
      -0.48405386257778465,
      0.33402415755775106,
      -0.7644884922933746,
      0.7600434708005166,
      -0.24626993672888287,
      -0.42038777602702987,
      -0.20878199912737633,
      -0.08197529693124274,
      -0.6005356737126554,
      0.21226062342137364,
      0.8218705500647322,
      0.20896090807350348,
      -0.005933228173735729
    ],
    [
      -0.022823040382118284,
      -0.1395349315263175,
      -0.1687721874957182,
      0.09055235867682342,
      0.11704889299316024,
      0.960879934156192,
      -0.4409405634525957,
      -0.0972811355209223,
      0.2476600049685807,
      0.02909686743117606,
      -0.37532395991278733,
      -0.29959190306715056,
      -0.2103509336339043,
      0.544232321952459,
      0.22850365309038495,
      0.3550806881673369,
      0.5587205695804501,
      0.3744482660002864,
      -0.11999194443593134,
      0.02569568973028697,
      0.2691177497258522,
      0.5328256300444312,
      0.14374337546388133,
      -0.2652302053655123,
      0.02124443451480896,
      0.3362584344162325,
      -0.32029107371648396,
      -0.7265844287069907,
      -0.45437641510201265,
      -0.16176164523487205,
      0.3318842626669759,
      0.1873619091279751,
      -0.4625785001223889,
      -0.24514563073544807,
      0.016003521007790168,
      -0.1738923551964184,
      -0.6764018488097545,
      0.24324803666567235,
      0.39346204250422423,
      -0.08726972351094033,
      0.6307884312643699,
      -0.19031391317293483,
      0.5771962217454714,
      0.4746146146039415,
      -0.6863523842029164,
      -0.039516253963281275,
      -0.31598875118271313,
      0.30472451581868926,
      -0.054627665263734776,
      -0.5164626367027618,
      0.42340623570730473,
      0.04538455915880111,
      0.10820760408979518,
      0.6534077300750298,
      0.049825343449359294,
      -0.20844887610372748,
      -0.05714921944104599,
      -0.5595694784264568,
      -0.7270432375665781,
      0.11607633652059421,
      -0.11585863870803963,
      -0.43648847487625414,
      -0.2210529494693917,
      -0.3678597118294544,
      1.3519916145375297,
      -0.5577594783906422,
      0.2748830233644868,
      -0.1440936594121843,
      -0.8411493504409807,
      -0.23128995136163233,
      0.37527532133981867,
      -0.7710991244021399,
      0.07747645782613374,
      -0.5885299886310977,
      0.07492376572724005,
      0.07188468252158868,
      0.009711415333103235,
      0.34065641236790273,
      0.3524270856192457,
      0.7803959984646391,
      0.20587047206507614,
      -0.26191181463223495,
      0.02255215898299473,
      0.4632263479660057,
      -0.3509749404996653,
      0.0861596202281253,
      0.3039759944134457,
      0.30992653701074735,
      -0.3998690538593524,
      0.4122973529472148,
      -0.9928582201750709,
      0.5130952590125216,
      0.17837172505314136,
      -0.24150024220941116,
      -0.25310758548038353,
      0.5708810257457636,
      -0.08754250310596043,
      0.8215273753859966,
      0.05593850686775353,
      -0.0011951901768892173,
      -0.3939868731610095,
      -0.19702779539128676,
      -0.8600332331004887,
      -0.1786452777733432,
      0.7460132338955334,
      -0.5205218078798526,
      -0.1539885034130677,
      -0.39001934844109293,
      -0.2771659678900198,
      0.2625229790159088,
      0.026063361528025703,
      -0.09242828550055035,
      0.3943617352129678,
      0.35199181147635594,
      0.444002635908882,
      0.2863150110383496,
      0.07879636790588587,
      -1.1022924832855383,
      0.17284698018500794,
      -0.6798346742462523,
      -0.08800741942866623,
      -0.29124257701922984,
      0.35705850240446496,
      0.5086544731910895,
      -0.3262265839681421,
      -0.3755300749127448,
      -0.3187731473596374,
      0.38568386837628543,
      -0.6981857339103372,
      0.6980035151368904,
      0.029566620277669188,
      -0.33363400669718896,
      -0.3373584064767544,
      -0.0705237967536254,
      -0.3013659715366743,
      0.1879825684450359,
      0.9789259786791669,
      0.4721063560465481,
      0.1398686363244978
    ],
    [
      -0.06742205520817478,
      -0.04565597314194139,
      -0.24306311136450762,
      -0.052586562498407645,
      0.07047304220391096,
      1.1134836605495004,
      -0.4339072016612034,
      0.03699367353899799,
      0.4798824064982981,
      0.060573457655593244,
      -0.4973301394641061,
      -0.15033523688966982,
      -0.343113708035829,
      0.6248278618127675,
      0.2132214798676188,
      0.2581407105797434,
      0.41807278536008324,
      0.2958914665214775,
      0.07126029075421489,
      0.195345910051032,
      0.21120788838764795,
      0.3859912176006446,
      0.29577874927139025,
      -0.2136815666819769,
      0.12045451278931965,
      0.22300712166323722,
      -0.09320432269292782,
      -0.48551539333402105,
      -0.6945524187381324,
      -0.3532698555385437,
      0.24957329118080973,
      -0.012230353913477978,
      -0.4374360377307437,
      -0.03293101655007236,
      -0.10418897738520298,
      0.10721446581834783,
      -0.7110517829327887,
      0.29581446376971127,
      0.14881059483614795,
      -0.04329770048832962,
      0.5579656843584182,
      -0.32061851736986124,
      0.2893576298051696,
      0.3905245295702596,
      -0.5513745509265189,
      0.148882376312481,
      -0.5146233049519717,
      0.293791630149732,
      -0.19821054702066992,
      -0.3097635406013398,
      0.30725056553708585,
      0.08119349594960035,
      0.20589900466601657,
      0.41222880673222195,
      0.14066051281116915,
      -0.4005367200038433,
      -0.14601735660315013,
      -0.57230188378513,
      -0.6441623673662074,
      0.2800499956463443,
      0.10072692044225791,
      -0.6070039307782542,
      -0.053843529329321065,
      -0.3360308732413403,
      1.2184317610124953,
      -0.5230836707864777,
      0.4002192612900994,
      0.025340095077748953,
      -0.8766039800069746,
      -0.546398789524523,
      0.5201246756027645,
      -0.8049168886918774,
      0.06623796118167229,
      -0.488104291620481,
      -0.24945011305930928,
      0.1564228669265709,
      -0.06606752556701807,
      0.6213255358200014,
      0.3667261246410676,
      1.0114469479553498,
      0.3300595549307398,
      -0.213019233419928,
      -0.0405664506936719,
      0.36172439749634966,
      -0.4488316080425701,
      0.05933973730171902,
      0.4772535031776714,
      0.29524467453159386,
      -0.29407462685396435,
      0.16884368434715002,
      -0.8853104567888912,
      0.3229248287296269,
      -0.06113009783155537,
      -0.11201942273468027,
      -0.2445987523474124,
      0.5894060263022812,
      0.20243322097469454,
      0.7109042386789801,
      0.08262052080404417,
      0.17342971936454177,
      -0.41086386728920743,
      -0.2660460253806396,
      -0.9026240231137971,
      0.06025596407329903,
      0.5636724691480602,
      -0.4072038369740264,
      -0.08526450976567417,
      -0.19857889332579087,
      -0.5817317292723514,
      0.19404051021839197,
      -0.06639288479689366,
      -0.05761682021261856,
      0.4582262492013915,
      0.24792349490798657,
      0.6378112675293188,
      0.08323081387848864,
      -0.10931974910859753,
      -1.0966727587565535,
      0.21896984532370972,
      -0.8162383068995513,
      -0.15110177309348413,
      -0.23836057712571596,
      0.4807210674707669,
      0.40517149148692305,
      -0.3124638099117699,
      -0.19389441493475085,
      -0.49764175452608,
      0.3275460954272541,
      -0.7720088241314567,
      0.5063431660815799,
      -0.16016037048297435,
      -0.20943964638252774,
      -0.3162121275193753,
      0.25528812164705617,
      -0.6262052442667251,
      0.13855507178777027,
      0.9402917897110666,
      0.4497351458673075,
      0.19752084464405736
    ],
    [
      0.05357487467555894,
      -0.030341042217700665,
      -0.2406071030193373,
      0.0052241948930078965,
      0.014270716639858225,
      0.9468641156064003,
      -0.5583887755051856,
      -0.17619734045030994,
      0.24254137873306558,
      -0.016598176909010914,
      -0.1763683482147716,
      -0.10369516358200652,
      -0.23528417779908703,
      0.8233621233926289,
      0.4949157830354546,
      0.3783385887811031,
      0.25374371130719564,
      0.27691348489315515,
      -0.14227997567363923,
      0.07727594055380166,
      0.23655263969438145,
      0.3355364544461258,
      0.18024683623030063,
      0.057892469492268575,
      0.03448348123456938,
      0.07452498020926554,
      -0.27043815117385944,
      -0.4535119539313188,
      -0.7239270415270321,
      -0.09348405285166297,
      0.3994050653156963,
      0.2698641544928942,
      -0.4080959926471624,
      -0.18814556998502005,
      0.19144584278871776,
      0.14418239892824455,
      -0.48939911827855703,
      0.23834699702437523,
      0.1681010492386664,
      0.1268057070642808,
      0.6645122528361136,
      -0.23633997705550086,
      0.55556105859622,
      0.4898869764389394,
      -0.4766266242112627,
      0.021831592340672855,
      -0.38899205909980067,
      0.34121459758217376,
      -0.35533424038847883,
      -0.5452055989537438,
      0.3096529518028928,
      -0.01595255536783071,
      0.2592025050257565,
      0.6391311631074685,
      0.214518946136712,
      -0.2979616813406024,
      -0.1772836571484098,
      -0.4782152874858714,
      -0.7986416170497053,
      0.2980631807641134,
      -0.022412938269433712,
      -0.27457897960767286,
      -0.06338797370764872,
      -0.32139184636912205,
      1.3796036752438363,
      -0.5589273302909685,
      0.2651971203785949,
      -0.023170582881505357,
      -0.7800873012734223,
      -0.5461561807384121,
      0.5795632311846536,
      -0.7921338653446253,
      0.24309816691345779,
      -0.7250809832387197,
      0.07481871976400103,
      0.006153670312547795,
      0.0645496077899027,
      0.2995837398638777,
      0.4475536012780628,
      0.975615831767784,
      0.12942569224726752,
      -0.0908568992287779,
      0.07425491248797947,
      0.5583885657310937,
      -0.18142038172574862,
      0.1195344534010421,
      0.32715292753600034,
      0.4254793634479281,
      -0.3591578468965727,
      0.37481186830104984,
      -0.9668517084236241,
      0.36696090773717116,
      -0.13808199902477716,
      -0.33458495175990277,
      -0.5264638551645456,
      0.6943965442407629,
      0.14706027658034268,
      0.6297723957118788,
      -0.2603384433874142,
      0.15185107170742448,
      -0.29306491951292596,
      -0.3690484186954087,
      -0.7141493990042753,
      -0.02790178433341889,
      0.6239587362047039,
      -0.6015014145869162,
      -0.20039841216475254,
      -0.42198940098125115,
      -0.5474248726002259,
      0.513467425509247,
      -0.1297366150668016,
      -0.23715839604573585,
      0.24171678379208966,
      0.24484437164296033,
      0.655319002128244,
      -0.017370808373153405,
      -0.15132351764888063,
      -0.9892622310661686,
      0.3639542419758841,
      -0.8489939100110366,
      0.08747883401418856,
      -0.15853553316863295,
      0.48044566327119614,
      0.2199193125904914,
      -0.5683432196999055,
      -0.42324181677146433,
      -0.38483093550511077,
      0.28468988399710293,
      -0.5475869281297775,
      0.7210633491319792,
      0.03375119310241244,
      -0.27239289318794857,
      -0.25420250612265677,
      0.053324179934202826,
      -0.4407454138554855,
      0.08216243904460341,
      0.814658309374496,
      0.20508522292006562,
      0.11098889677553112
    ],
    [
      0.03958258974793543,
      -0.037064481748708744,
      -0.4525647271851566,
      -0.13269161524917358,
      0.2325526304535191,
      1.0939089647148073,
      -0.6339493086207211,
      0.06054189931710388,
      0.2692223661068656,
      -0.05669657036887659,
      -0.3751585537844309,
      -0.31432680614994674,
      -0.4667955577446573,
      0.8687512947123588,
      0.5716383802355134,
      0.1608094093455019,
      0.34152095732391596,
      0.4760008635790059,
      -0.12815956043009785,
      0.11150154264228562,
      0.26432033996547966,
      0.2862100121163697,
      0.10404614642980321,
      0.04421828679748893,
      -0.10021757234881389,
      0.3960881067019538,
      -0.41159292735382574,
      -0.7651223576058622,
      -0.7468658626868684,
      -0.0648901113940922,
      0.2161418449353253,
      -0.040478118645608054,
      -0.5769203187794851,
      -0.04845197563483587,
      0.17473031186862767,
      -0.040460045804050965,
      -0.5037013485073862,
      0.4465443516892947,
      0.4491474241760257,
      -0.14926208967796187,
      0.44587590382816356,
      -0.05636594013215504,
      0.3275573859031809,
      0.40476654990056327,
      -0.4372780554710427,
      0.2475770705712127,
      -0.43312800783775995,
      0.4117380148816327,
      -0.21762018015854173,
      -0.38993407525841045,
      0.36669742914537934,
      0.23931631634730238,
      0.28075027996379853,
      0.4717093692485941,
      -0.03978344389542707,
      -0.49864637188448213,
      -0.027195806793828034,
      -0.6572832089617778,
      -0.8982051162379663,
      0.2316605356209589,
      0.14224676833008415,
      -0.4351582426324464,
      -0.10899916734924052,
      -0.3188291731123137,
      1.30681989834516,
      -0.5938000758111109,
      0.3450775228964333,
      0.019946371321693655,
      -0.6700403452896516,
      -0.2329576133335548,
      0.4591452679126022,
      -0.7464683152716255,
      0.06657620786260464,
      -0.6635290692843478,
      -0.25593538504831703,
      0.0390389617659085,
      0.029525537722180577,
      0.5248885483792387,
      0.4363849435740187,
      0.8385194788533511,
      0.3098570247601171,
      -0.01306452760095108,
      -0.0008654796076005703,
      0.5132888877952256,
      -0.20821998541753625,
      0.12956842442670255,
      0.38258281621980844,
      0.3636674926114587,
      -0.3349140118997489,
      0.34639520352754033,
      -1.0361836728688474,
      0.5704429484258106,
      0.11784517230366942,
      -0.3298821116706876,
      -0.5426622811200377,
      0.6632343728787491,
      -0.07117524461255512,
      0.6285775166844776,
      -0.22722671203180855,
      0.2103973993655705,
      -0.38618858391391686,
      -0.372595231405943,
      -0.8915893404619164,
      -0.13244696418440288,
      0.6533350309334451,
      -0.3255171113852465,
      -0.002169077847375668,
      -0.352282474481648,
      -0.5770623524565476,
      0.5134353403385842,
      -0.13031784496543933,
      -0.25021071609023954,
      0.3825361076969532,
      0.34926207336981746,
      0.7075973705383565,
      0.015395870837092783,
      0.007973597185756407,
      -1.1209411963490026,
      0.14175763282399403,
      -0.7417197087862392,
      -0.04379681457708086,
      -0.3655218458936562,
      0.4692163473120873,
      0.24439433687400763,
      -0.25209551317314716,
      -0.2831639188628028,
      -0.3542883976469119,
      0.43836908758048865,
      -0.5222176978883892,
      0.5799007506546296,
      -0.16630565626210286,
      -0.21811459246509654,
      -0.26222161143505573,
      -0.03567103106365306,
      -0.4695615552275738,
      0.03360959651476794,
      0.9462693781071734,
      0.4470028735217089,
      0.25399771057616927
    ],
    [
      0.156803517894938,
      -0.11294238582921912,
      -0.272099118161221,
      -0.21009917663278657,
      0.07094436157675114,
      0.8745877844227554,
      -0.664490355045754,
      -0.12732096939891444,
      0.35182145140417664,
      0.07201126533576707,
      -0.33395412453658874,
      -0.2382319327667426,
      -0.17986684875771042,
      0.7409178595507622,
      0.498901821808184,
      0.27702006751520475,
      0.3678318875975842,
      0.26517971197054746,
      0.008169465786252746,
      0.2509073558150216,
      0.18070857574027813,
      0.5068809671619269,
      0.1483619703044639,
      0.010376441886131595,
      0.08407322293126698,
      0.113799859430407,
      -0.36493750454168633,
      -0.7647096621201535,
      -0.6506416879534035,
      -0.2288464398135088,
      0.2645659702545654,
      0.1176986585301601,
      -0.36411777470055634,
      -0.19900160988740212,
      0.022109401708520958,
      -0.18654673987382692,
      -0.5893685010803461,
      0.3158357101580947,
      0.43770267969957083,
      0.008097253228724625,
      0.5766588422853591,
      -0.027556890571037565,
      0.5091095894944491,
      0.6027014110838398,
      -0.6345552360631036,
      0.1502485755534444,
      -0.30863883259281777,
      0.1733980369336842,
      -0.10768678019077921,
      -0.31161446677271754,
      0.44873082740399356,
      0.1746017994870309,
      0.13681314704425693,
      0.6817414205009807,
      0.0059652334656490995,
      -0.37461816771816203,
      0.07418066801400305,
      -0.7506805206176848,
      -0.8921742964911018,
      0.22405031090160052,
      -0.06839937243413527,
      -0.6253983616738914,
      -0.08681308802145703,
      -0.5630122063406446,
      1.3806494535237808,
      -0.5331460786364629,
      0.4753922049415185,
      -0.07396411774320448,
      -0.7967161398397817,
      -0.2561241031393477,
      0.6165897291083616,
      -0.8854160871286263,
      0.18844208044266786,
      -0.45083851253708995,
      0.03397258057353125,
      0.020014518228927403,
      -0.2187066790779459,
      0.5812366073464164,
      0.4061452651615944,
      1.115367819763947,
      0.18894176703385068,
      -0.19047835744599867,
      0.1518444939991443,
      0.35519334073598796,
      -0.4178943850392281,
      -0.06961916695886808,
      0.5401162105206647,
      0.15840535127382827,
      -0.27863918971733265,
      0.17997194390456045,
      -0.892915921143973,
      0.5066233486995706,
      0.15208518378047578,
      -0.18491029586567653,
      -0.45611815577450604,
      0.7002646703306373,
      0.12865026266344973,
      0.8091216546742608,
      -0.1805986724383617,
      0.19974347781387436,
      -0.35041572181503433,
      -0.2788387280542435,
      -0.7639995783505898,
      -0.1764116701990003,
      0.508587869369093,
      -0.6122993738469025,
      -0.2830340637101496,
      -0.1469579259896416,
      -0.4936340688797506,
      0.20533785423348386,
      -0.07955633844265335,
      -0.18086552162680694,
      0.37605864843694786,
      0.5847563367552132,
      0.7149573165556506,
      0.1473279916619634,
      -0.11803324836167897,
      -1.023421814888514,
      0.095976735662958,
      -0.7847998726928144,
      -0.04367492789640641,
      -0.16909191831098952,
      0.37675995237395565,
      0.4165871005105533,
      -0.5337458978504671,
      -0.3770138830464087,
      -0.4245531563390716,
      0.3864433949074929,
      -0.6181810271696684,
      0.6406252820879514,
      0.07641815520609846,
      -0.5098328366601457,
      -0.20969152295781496,
      0.12859036838089813,
      -0.4207588678004589,
      0.018925546657367506,
      0.9970986468938813,
      0.4907871467246067,
      0.26470307172856083
    ],
    [
      0.11755487586344719,
      0.02670000839932963,
      -0.15085739068324622,
      0.07933072829762056,
      0.0990917471413562,
      1.0679840928770563,
      -0.610749395352218,
      -0.14986977001958396,
      0.4230584026119902,
      0.1445580573599248,
      -0.3035999007107472,
      -0.3747251726239555,
      -0.18329093896057078,
      0.7603983896934586,
      0.42108912490963,
      0.1658697481186751,
      0.2778878459023451,
      0.5054311912642356,
      -0.10490509712596266,
      -0.048936375388778694,
      0.42530434512164955,
      0.5873992264780721,
      0.22894766337875977,
      0.02173155803669288,
      -0.13072840716730036,
      0.42496309203862126,
      -0.15107440571380748,
      -0.606933440774199,
      -0.5235829078472615,
      -0.13285893056301637,
      0.30831701538913,
      0.2876789649276954,
      -0.3214241907185663,
      -0.15423893707326614,
      0.09213099854524116,
      -0.017704645460161608,
      -0.4904558946730345,
      0.48725289470648936,
      0.3403641327451373,
      -0.028839982560500018,
      0.7457612853248761,
      -0.3411982084700049,
      0.519461696116096,
      0.3945899894724316,
      -0.5471786497667587,
      0.01539440022062942,
      -0.4746428283376214,
      0.07533210560837177,
      -0.0888423418736256,
      -0.5115344010790928,
      0.4579141468397159,
      0.009328827852273059,
      0.24961601910378478,
      0.6582758379231799,
      0.13472219408667047,
      -0.48761626006712155,
      -0.1959189515147727,
      -0.5328824909653204,
      -0.8440595727678323,
      -0.007673632745180403,
      0.17687392965370927,
      -0.5150196586063521,
      0.03902932230855489,
      -0.41610695978771794,
      1.0812281188396768,
      -0.37166735979202276,
      0.4267339536831864,
      -0.21462641765883206,
      -0.8427039248872942,
      -0.2624891411517141,
      0.5816843432714603,
      -0.9834854921045619,
      0.061332120004717,
      -0.6515101402171262,
      0.026380994111565498,
      0.0518590301678966,
      -0.03993637319232635,
      0.5438112422416399,
      0.23462336719720192,
      0.9022006262595593,
      0.2964937598862264,
      -0.05233258051154471,
      0.1849948565433848,
      0.34577789347012783,
      -0.4197950001460761,
      -0.06515200317970168,
      0.44208798641932623,
      0.3427939124107655,
      -0.5825345045287021,
      0.33746592687679616,
      -1.0079773952035236,
      0.5747971261146494,
      0.11767128469471488,
      -0.06386321888192667,
      -0.40491384892581433,
      0.5413417588246376,
      -0.072964245838466,
      0.823525309578937,
      -0.11229454004740669,
      -0.1071800752951672,
      -0.23585624373035413,
      -0.3458520390351121,
      -0.6955502500734283,
      0.10673676668725252,
      0.7110877510883373,
      -0.5640970025216298,
      -0.15562218493313149,
      -0.2435920844348442,
      -0.5196611119485249,
      0.23298953662574975,
      -0.09541930120785895,
      -0.3345351979108298,
      0.5172965320442511,
      0.46785035943022013,
      0.6857957357488584,
      0.08632274653468187,
      -0.009441271825110207,
      -1.1162940411758777,
      0.29421717805020986,
      -0.6141722858658305,
      -0.17289361390105812,
      -0.47583513425190915,
      0.32298031656081233,
      0.2409951008270284,
      -0.39138351141441197,
      -0.11327672237148557,
      -0.4049997526805585,
      0.2827301973816898,
      -0.534723411221194,
      0.5339215433457503,
      -0.03005463059806824,
      -0.529787546275293,
      -0.2186520692793995,
      0.18289180792147025,
      -0.5326909535102483,
      0.04176819702088888,
      0.873441030550868,
      0.3433042604144316,
      0.046929052769475704
    ],
    [
      -0.054097068423697166,
      0.05689359416228757,
      -0.3127982533348488,
      -0.1704644044887439,
      0.026461934259984082,
      0.7943020121027978,
      -0.6781322646431106,
      0.06660837762727762,
      0.25651129994752164,
      0.12128695599758525,
      -0.5086318439940186,
      -0.21454094055764,
      -0.32832219141492996,
      0.7583485445096074,
      0.38934703612364713,
      0.2441581394038413,
      0.542392607473308,
      0.39508426485398856,
      0.005272838903198714,
      0.05324869562166183,
      0.4497479079942085,
      0.5867591514693306,
      0.20744190369719295,
      -0.251346039905267,
      0.1169533932363643,
      0.3355218492399292,
      -0.2519538658016773,
      -0.5350031047845064,
      -0.6949831293313148,
      -0.14603048761826784,
      0.28263077080520244,
      -0.02203000786239457,
      -0.3691310176911905,
      -0.24258002196121023,
      0.04303243651101023,
      -0.1705895602101789,
      -0.4442172255520585,
      0.3560478883621679,
      0.3568388133313208,
      0.17629964279131694,
      0.6460381967695552,
      -0.1099333683412747,
      0.6151317269722406,
      0.6700230463533428,
      -0.6041471166209808,
      0.002523974549956733,
      -0.1686140738670055,
      0.09082163205121958,
      -0.35364570135292644,
      -0.4724854513597378,
      0.28849329480184327,
      0.13269224535288113,
      0.3925848223032676,
      0.5038400786410342,
      -0.00724484274991077,
      -0.3994256806603679,
      0.03700037282612688,
      -0.6107727785365739,
      -0.706559940526554,
      0.1812519740311023,
      -0.12748068654014663,
      -0.5082031070578424,
      -0.003545028766544266,
      -0.5288890615755749,
      1.4235721130850822,
      -0.27909140680580313,
      0.31308912354631613,
      -0.061311453110365996,
      -0.8353895294572087,
      -0.29245979019247864,
      0.44354959281323236,
      -1.004757179742981,
      0.0797080521293659,
      -0.6900511069052595,
      -0.1788210033333373,
      0.019763382170486555,
      -0.19583061456105652,
      0.4785740552589935,
      0.3694674254294193,
      1.0628754947153327,
      0.2312025122594345,
      -0.1435149397483103,
      0.14096356301920634,
      0.3049787944909149,
      -0.18985066113877566,
      -0.07974790464832973,
      0.2789560122737038,
      0.2491293949068561,
      -0.48347566539136644,
      0.3555277600984627,
      -0.9125470349502056,
      0.5442843794747477,
      -0.04856909637030019,
      -0.3728759175187911,
      -0.4386994221398561,
      0.812642571072362,
      -0.03427944584826119,
      0.57393816540113,
      -0.21585758203905472,
      -0.0006483713207853861,
      -0.10344391812389803,
      -0.10146508295807544,
      -0.8537962400533738,
      -0.14138305439022902,
      0.6676179915439513,
      -0.449216302070668,
      -0.1721518651649628,
      -0.1140304181205225,
      -0.590312460167242,
      0.4248943668784728,
      -0.26675908954619165,
      -0.1601083211000656,
      0.3827481449273657,
      0.3683743046787405,
      0.657930543513892,
      0.07238208899051009,
      0.1417279270279598,
      -1.0896843929464892,
      0.14302130068613816,
      -0.7635940802388954,
      0.08587968381152901,
      -0.1541081266540349,
      0.5219983589926476,
      0.3937249217213366,
      -0.2846986395620396,
      -0.2401711122439284,
      -0.3407387049831802,
      0.3714792238146325,
      -0.7059150908835521,
      0.6606504921225355,
      -0.2424733234214036,
      -0.5090738429106706,
      -0.07783349034366568,
      -0.07025442176984574,
      -0.5072203060519352,
      0.009538274671838955,
      0.9342447697541618,
      0.4590334090679798,
      0.17524029368807406
    ],
    [
      0.14442713213707606,
      0.13374619468632798,
      -0.21927627866803248,
      0.0746350202006109,
      0.06681899747756541,
      0.9351405638678258,
      -0.5763733001715984,
      -0.16406807209610613,
      0.4265418250359294,
      -0.14562422108224599,
      -0.4736464726003166,
      -0.3865498896119676,
      -0.4043941592327748,
      0.7403628256701642,
      0.24063737290830234,
      0.15417118536631894,
      0.5706681012389925,
      0.5148589149907842,
      -0.24635506893135573,
      -0.04063017738457783,
      0.4332607921716274,
      0.5318618673408602,
      0.36379016567696365,
      -0.1759771398514581,
      -0.04620023613384945,
      0.21306195498811448,
      -0.24984913724948998,
      -0.6453775227256866,
      -0.6129318588848514,
      -0.12660244650093447,
      0.36024894510528566,
      -0.04151020526946753,
      -0.43566789293282493,
      -0.04822636931939102,
      0.05854904084688119,
      -0.01211740666544485,
      -0.6572496621171967,
      0.291254309229303,
      0.26314766646830356,
      -0.04196049120317549,
      0.45053607064854956,
      -0.23088129037527516,
      0.44001519967570346,
      0.5160695515731313,
      -0.5088371756768957,
      0.18315285823722052,
      -0.3755718775780029,
      0.2376727685979385,
      -0.16813080435693162,
      -0.4141748243906244,
      0.4921138711286634,
      0.025000515631237202,
      0.3416553890162262,
      0.6839625870482777,
      0.1884124521408054,
      -0.5213205106789061,
      -0.21091076760246033,
      -0.5720548652629566,
      -0.7626776657903613,
      0.09998192209093246,
      0.01228375193883071,
      -0.581962696641953,
      0.036419287427144904,
      -0.2542876992078066,
      1.3388207064166728,
      -0.31838457442660034,
      0.2678028891948462,
      -0.10951082541268542,
      -0.8351189111868754,
      -0.5199314678173722,
      0.6537487284513558,
      -0.9476414348729816,
      -0.013589520568668216,
      -0.4414828323146502,
      0.05476727137647641,
      -0.05245010485307974,
      -0.06265971861182766,
      0.3227386956844835,
      0.2363364419269072,
      1.0934600122918987,
      0.3345122284512781,
      -0.3239217093595193,
      -0.009446526709809985,
      0.4552797282695901,
      -0.30392171683241725,
      0.07994762030690168,
      0.28059785952182587,
      0.3827292450754189,
      -0.4953811854899839,
      0.1827851258906253,
      -0.9655480096684583,
      0.5297811091114737,
      0.1568267906743649,
      -0.28785787962120046,
      -0.5166902150047885,
      0.8236363199628721,
      0.1299614224854677,
      0.8001467225136834,
      -0.19105156611980284,
      0.14097983965066993,
      -0.24659722941220788,
      -0.2368399806837507,
      -0.6766097359209101,
      -0.1333129261150164,
      0.6012776192433942,
      -0.4204967783327138,
      -0.27647084916202036,
      -0.3682165196347733,
      -0.29474683558244535,
      0.35553775735768445,
      -0.08347814965310298,
      -0.2736117897518016,
      0.40184160036681016,
      0.40975458341116894,
      0.5314892500575717,
      0.008727513808263622,
      0.09657876490225534,
      -1.0451219290227107,
      0.13761666603212913,
      -0.5757385144597031,
      0.08677267075131885,
      -0.27228572580065846,
      0.5377292558769967,
      0.2623209741645682,
      -0.39615027344097387,
      -0.11612799079797316,
      -0.25796663818820037,
      0.22502901846056972,
      -0.6164593788785423,
      0.4934448183772637,
      -0.10817723907892957,
      -0.39720498992295933,
      -0.09159467309621659,
      0.24362593489725354,
      -0.4911016842013497,
      -0.09078245839573772,
      0.914833742506764,
      0.5365085486015763,
      0.22586367964678197
    ],
    [
      -0.12496960483642854,
      -0.1566892358962028,
      -0.1449392463999889,
      0.08125361279382942,
      0.00736447591696357,
      0.9550188599435222,
      -0.6790977282150127,
      -0.12622660088904988,
      0.2974379875222078,
      -0.09188073004133632,
      -0.41529629958708936,
      -0.2680989387602126,
      -0.19548216213736402,
      0.7228305834801426,
      0.35622779549302447,
      0.30286904979264995,
      0.30314210921519874,
      0.4674956387396601,
      -0.1179379810184839,
      0.015387645835776597,
      0.4494303384842647,
      0.6219136101891212,
      0.18561087943285104,
      -0.06355786150448721,
      0.084948693365377,
      0.2095879571283138,
      -0.3224277616786469,
      -0.7462694458214135,
      -0.5195759487526548,
      -0.3359470421823842,
      0.45163638925831795,
      0.06149790647417184,
      -0.26247324286637086,
      -0.04269433526820336,
      0.10509278960112352,
      -0.06081485741238864,
      -0.4607758151525574,
      0.20911799283915228,
      0.2648914849521953,
      -0.10545780519125143,
      0.5850944506762141,
      -0.0489282700359869,
      0.5044968521746115,
      0.652561818427596,
      -0.5909050120579625,
      0.16160230215923452,
      -0.3261266435574488,
      0.2528443167019856,
      -0.2593243069922231,
      -0.31630484664109965,
      0.4060495253183697,
      0.1382371245043134,
      0.047114990118669854,
      0.4137612588387569,
      0.09321076099514261,
      -0.18085514311054768,
      -0.0525145555502866,
      -0.6916941903300398,
      -0.6268783997072144,
      0.05054338240329824,
      0.14969607417487826,
      -0.5128635633486478,
      -0.1937550556960821,
      -0.2579203030304636,
      1.421318553154779,
      -0.5564675116592611,
      0.5457798657676484,
      -0.2557700687769132,
      -0.5682966703261931,
      -0.5298259885106519,
      0.49628419729741474,
      -0.8973474673274571,
      0.08833945213244225,
      -0.4300528114476385,
      0.020646694262415027,
      -0.11195828965534099,
      -0.11636119390392673,
      0.2796563830466966,
      0.42330637672255494,
      0.7848246919879018,
      0.07777831867774371,
      -0.28358610360318404,
      0.010836877144170892,
      0.5639530743965198,
      -0.4797053659702715,
      -0.08909498676132843,
      0.39435345538119887,
      0.20134736705715212,
      -0.31139855973438463,
      0.3646146666038328,
      -0.9841084692343371,
      0.5090393670615714,
      0.1152533117754248,
      -0.041464301782184174,
      -0.5790876230789517,
      0.8396970192279559,
      -0.11873415268215545,
      0.7936711670367096,
      -0.25938787296323873,
      0.13418246955488863,
      -0.09199376859282016,
      -0.24200904091097866,
      -0.5711222374439224,
      0.15493117335373743,
      0.7164705921104368,
      -0.49178134197501033,
      -0.07201381364450934,
      -0.2495619931094057,
      -0.37711105053833893,
      0.271172379765923,
      -0.1304812563280228,
      -0.24896724435178352,
      0.23389135197650782,
      0.5397048970132104,
      0.5692148069991154,
      0.25995218380406176,
      -0.09393210336569245,
      -1.1496823312912914,
      0.2592614282744436,
      -0.8369642552253609,
      0.08545104026789675,
      -0.1524264066631565,
      0.3936974641455973,
      0.46505077274946277,
      -0.5735137437776815,
      -0.18772510298194522,
      -0.5089673473465027,
      0.45810857417766615,
      -0.5195678453704832,
      0.4508543101745462,
      -0.16331105274580768,
      -0.31540098623822643,
      -0.31465070303566056,
      0.259025978050387,
      -0.44638366499243365,
      0.02729263539952865,
      1.0073910673841557,
      0.2048984199993724,
      0.1659903100583263
    ],
    [
      -0.01787605339183358,
      0.11592286364862889,
      -0.42579610477062924,
      0.10563717504575254,
      0.06685189995799268,
      1.009446662853195,
      -0.5704028350483414,
      -0.047812497549963785,
      0.3845147027233988,
      0.16269617604828354,
      -0.2707254095552852,
      -0.3081531805457907,
      -0.3289333835267518,
      0.7238274279404917,
      0.5190200682244851,
      0.4844529800913035,
      0.5680656133303826,
      0.23856578640427656,
      -0.026678147115610132,
      0.22357459818373884,
      0.26299525203222507,
      0.550213537230644,
      0.19971848893086103,
      -0.18584460434872538,
      0.02445463359976683,
      0.29470914975627643,
      -0.3670717886544886,
      -0.6492557106855595,
      -0.5767828565590468,
      -0.24496988109666118,
      0.4074129521125094,
      0.07624320726077358,
      -0.45061183261374327,
      -0.2508062691586073,
      0.12271440961293086,
      -0.0410935963905297,
      -0.6773297765007996,
      0.26787564702551403,
      0.22877661448902062,
      0.18478263457448268,
      0.7400982536383034,
      -0.05737405578441998,
      0.3584082553635467,
      0.5701379822741846,
      -0.44398180202246695,
      0.02039172497843194,
      -0.46591184065308744,
      0.4044158608714619,
      -0.0626895969990475,
      -0.3683906720504045,
      0.23777171468526295,
      0.0958610098001189,
      0.23462888850127456,
      0.6584331173091423,
      0.22839096331902312,
      -0.4368558840618575,
      0.05391849502952206,
      -0.7731414533210723,
      -0.762584034376019,
      0.15513138835082976,
      0.18141754175524163,
      -0.37421352097782096,
      -0.013561358285956159,
      -0.41966489949044083,
      1.2058230411271045,
      -0.25378611175965027,
      0.5393104603032997,
      -0.2720568855188184,
      -0.7417381160261717,
      -0.3094882959286041,
      0.4457516332429719,
      -0.9776238900832825,
      0.0055797102162170875,
      -0.7164362101198125,
      -0.05283888691172889,
      -0.017595394747116726,
      -0.10557795591075196,
      0.6237142663224704,
      0.3493399008454585,
      0.8392392522427673,
      0.1802192354222148,
      -0.23584137477451267,
      0.04175110479344338,
      0.20747721356708576,
      -0.36432165820572743,
      -0.09776034182938789,
      0.2969321554935371,
      0.16880278026509773,
      -0.5563292107404664,
      0.2671547382829377,
      -1.0063680566308317,
      0.3679130735536081,
      -0.09856072707132783,
      -0.30874301943821,
      -0.2882248731675693,
      0.6980210177791981,
      0.038016815423564256,
      0.8411335987180559,
      -0.08885911098786298,
      0.16494456548621392,
      -0.2702226541622141,
      -0.35551534807785234,
      -0.8750982259908447,
      -0.0035351174761893817,
      0.5530412188648217,
      -0.49853306740680625,
      -0.052044518391755584,
      -0.42915225489635883,
      -0.47943445818305286,
      0.18721738816617595,
      -0.13427659820734944,
      -0.1806078067190651,
      0.5821804463174749,
      0.5029652509800389,
      0.49531356716686537,
      -0.032009572766524545,
      -0.15212578811794278,
      -1.107103602302063,
      0.18078729869627558,
      -0.7445908397238744,
      0.09756249591071271,
      -0.13853600203564476,
      0.46660111665856674,
      0.28600344290487895,
      -0.404446352350159,
      -0.17513875795335426,
      -0.26086567814385125,
      0.4583094967898349,
      -0.7392110039510942,
      0.49639189616464907,
      -0.1558560072550921,
      -0.5200201287886467,
      -0.1903421461535999,
      0.22028564857891414,
      -0.5512132962815998,
      0.0031755787990914736,
      0.7956731740048886,
      0.39263116298302,
      0.036074274008021684
    ],
    [
      -0.07690541741716943,
      -0.007261757390915608,
      -0.09838294115040279,
      -0.15585486385322397,
      0.30927866868616405,
      1.0948339753532896,
      -0.44511565898322814,
      0.10260495382085691,
      0.253256003169755,
      0.07575064063003867,
      -0.3378686318596805,
      -0.17911572928132075,
      -0.2933473281154026,
      0.6910348658006066,
      0.49169418764326983,
      0.41642662501685285,
      0.5384106904368157,
      0.32412534547363875,
      0.06367696595971233,
      -0.07945568477724901,
      0.4824794780589582,
      0.2913165127820906,
      0.3808279781399291,
      -0.03411905214081838,
      0.13453803935937017,
      0.2758753986378016,
      -0.3678111814119741,
      -0.564907846400291,
      -0.6595165559563738,
      -0.09366875712456432,
      0.516299856200971,
      0.10049330735797476,
      -0.310431331960038,
      0.008334409538767008,
      0.11632347498797231,
      0.09182435100770599,
      -0.5651285072491182,
      0.41843423082054393,
      0.14596497825263088,
      -0.027642009040088844,
      0.7592029727073537,
      -0.3650946630288415,
      0.5937925372933602,
      0.44725785885099645,
      -0.4570022981326701,
      0.18310949389202305,
      -0.48733404840427563,
      0.18604608681405277,
      -0.398444608208895,
      -0.4791572392256181,
      0.3714098681704615,
      0.19374164329073376,
      0.1270852015624971,
      0.4737262475328955,
      0.17275905940533234,
      -0.43371391308819457,
      -0.029443190168272522,
      -0.7660341389854979,
      -0.8973882385121142,
      0.3240931484910159,
      0.16437597105486781,
      -0.5149797389671709,
      -0.25544601086811886,
      -0.25994781021480706,
      1.1587585426703795,
      -0.3701341819461108,
      0.45439238018038325,
      0.044452332760492375,
      -0.7777387480748565,
      -0.4143141021611851,
      0.5329245822994173,
      -0.8913958153933621,
      0.020218730764687172,
      -0.5402181260980066,
      0.017214418832372312,
      0.0973898955803338,
      -0.041505954270461894,
      0.6084856385457402,
      0.1720046880021119,
      1.1208139188258146,
      0.11873600079333373,
      -0.058792554610477,
      -0.06616213297816334,
      0.2764812559000053,
      -0.18983094546472315,
      0.16210862302709475,
      0.5506140947609252,
      0.17577305177053823,
      -0.5076058650027642,
      0.45349009910101257,
      -0.979678133144062,
      0.33325821186981375,
      -0.11080583573551177,
      -0.2679675607911703,
      -0.2793529546854636,
      0.5722235164868099,
      -0.007760778087105447,
      0.6162474371629536,
      -0.0045343896134023565,
      0.015424967036990738,
      -0.37292005315378907,
      -0.22347240764715728,
      -0.8178705213232467,
      -0.14835469813751673,
      0.5852071422716121,
      -0.5900464906701859,
      -0.08807823235360117,
      -0.306391881393261,
      -0.5496708204470686,
      0.2909853981750078,
      -0.1278130042371299,
      -0.28344051224416095,
      0.5009978221522841,
      0.25129606058746784,
      0.49290405573199825,
      0.13957419643210828,
      -0.13814542081598533,
      -1.2043759037841102,
      0.11502700609336627,
      -0.8093176187043296,
      -0.15539767812361713,
      -0.19841617173037407,
      0.6674621185324459,
      0.2851257993444758,
      -0.22325254036572942,
      -0.09911238111344971,
      -0.3768708331268055,
      0.5343300723706327,
      -0.7750512849238445,
      0.6734039196476773,
      -0.2009625663602488,
      -0.28342367430098614,
      -0.39372370864805434,
      0.005464707449651572,
      -0.6088716501222066,
      0.10239136253740025,
      1.0737747082781566,
      0.49177591048510877,
      -0.04205527642130759
    ],
    [
      -0.06777992211132612,
      0.061301109767362874,
      -0.1745880414312665,
      0.00022827419229113494,
      0.14099074556084198,
      0.9247662407118583,
      -0.6140921260309936,
      -0.21021653774950777,
      0.38379395651020454,
      -0.012506341847798674,
      -0.36836819886775696,
      -0.3481689704851704,
      -0.17721537037038465,
      0.7992866405573675,
      0.26584872175874796,
      0.4043682538793087,
      0.2910327251331648,
      0.46247612974134517,
      -0.15199036530034613,
      0.17868916595056641,
      0.41802837778314206,
      0.4871544477104236,
      0.14724153657070843,
      -0.10496042856828416,
      -0.03789353341098141,
      0.2108330953443469,
      -0.3922402391590896,
      -0.7428705894337092,
      -0.7100088065323362,
      -0.15030209911236161,
      0.31486787902811947,
      0.06295542706948282,
      -0.4628570882363819,
      -0.07511058787453712,
      -0.02608999607894939,
      -0.18566111577597008,
      -0.5695599783651087,
      0.41570465059355577,
      0.2208149703612072,
      0.06531605210387789,
      0.7411426756752089,
      -0.08028124633038376,
      0.34657219951101254,
      0.5314070196371395,
      -0.6063611809290249,
      0.2572397274648834,
      -0.3440733101414825,
      0.32113623192862656,
      -0.1866340753052423,
      -0.6024536549172794,
      0.4275326024653418,
      -0.052083481325545154,
      0.2559647030395401,
      0.49198339741632247,
      -0.03578766194835746,
      -0.3515174491832857,
      0.07637363794846944,
      -0.7020860116014749,
      -0.9453998296295535,
      0.28242045875498334,
      -0.0466684091403614,
      -0.48924419290172155,
      -0.018437184746438892,
      -0.2977667756954072,
      1.1033655103629585,
      -0.4516354015175899,
      0.44334037105616425,
      -0.2383676597958244,
      -0.8196363378610804,
      -0.5496664502692132,
      0.6515005204276201,
      -0.6667423887962549,
      0.1026192587296344,
      -0.68341071503211,
      -0.16168283151574445,
      0.029079734053424858,
      -0.16635353831730282,
      0.3186422420415227,
      0.16147093791547779,
      0.9125824312434386,
      0.08809184596134853,
      -0.2434077966228509,
      0.10260818160863933,
      0.5419413741824004,
      -0.47792359613503527,
      -0.11710570425591434,
      0.514207784143475,
      0.29140914658934614,
      -0.30182265668462377,
      0.296013269957443,
      -0.7728274937756974,
      0.5620029518188313,
      0.09508350973845431,
      -0.09715599342603523,
      -0.36474479007625327,
      0.6728861109272043,
      -0.009456028937066669,
      0.8207502209207922,
      -0.007094137497159252,
      0.052182065121498686,
      -0.3939601716033173,
      -0.10075458989994746,
      -0.6707175540812013,
      -0.15716420713843468,
      0.766314944228591,
      -0.4848774962584652,
      -0.2680332527245508,
      -0.10984536110672127,
      -0.48625050799498937,
      0.41041135548283414,
      -0.22300619753825907,
      -0.19279590745471856,
      0.3247816222319402,
      0.35297858223016915,
      0.5868831874924838,
      0.2868764979959565,
      -0.1624973481961497,
      -1.1661928095650038,
      0.10641457846142502,
      -0.8103803487337325,
      0.011846320774502404,
      -0.4453331626803113,
      0.4383161221674396,
      0.5345521765631215,
      -0.344029107537946,
      -0.2830671538815376,
      -0.47037419887252013,
      0.31394426969222067,
      -0.7698465940265311,
      0.5766507528075727,
      -0.13121514118719277,
      -0.3621369977485573,
      -0.11990185732892168,
      0.13636163864553658,
      -0.3344070518517639,
      0.00045907209894680175,
      0.8107030673217113,
      0.42251707881797135,
      0.10075828274585719
    ],
    [
      0.16022639107765244,
      -0.1851686596354896,
      -0.4402146371961334,
      -0.1413616796532188,
      -0.006108803834905162,
      0.8600594961832362,
      -0.49121188829200846,
      -0.09203780957872382,
      0.3977057617909453,
      -0.08498751546716363,
      -0.4735216864962559,
      -0.31161195288969384,
      -0.4854510714987426,
      0.7715767750969094,
      0.2800075074088457,
      0.3277991925600376,
      0.5752590365179241,
      0.4632250309135169,
      0.08188313623597313,
      -0.04722110334734288,
      0.21532775663957499,
      0.3206909231860853,
      0.4248363300663249,
      -0.046722441920788976,
      0.07937002036415516,
      0.39564824883975863,
      -0.20871824218799323,
      -0.6137751680171445,
      -0.5028287799343033,
      -0.2856701185254469,
      0.3050702182300908,
      0.18471115345279035,
      -0.4959215145682451,
      -0.01043353639899517,
      0.20770187990300046,
      -0.09075949650200016,
      -0.5814154827139997,
      0.4772278125141285,
      0.47182020379285294,
      0.18777691152041304,
      0.7713426423059839,
      -0.02442596766946837,
      0.6226750635179203,
      0.5178415472739208,
      -0.45009432891390166,
      0.2534468261632425,
      -0.4003972817673585,
      0.41356922455102346,
      -0.3456915086226445,
      -0.3836061740183669,
      0.22081123364049837,
      -0.07133626243398498,
      0.08004088457521286,
      0.7060567532350372,
      -0.024195427516125773,
      -0.32338784605814924,
      -0.0681337975879366,
      -0.5209828930685351,
      -0.7415043656599126,
      0.2544906009760469,
      0.2218546339683591,
      -0.4174707453161811,
      -0.1945135436780016,
      -0.341246696971445,
      1.4354888306456355,
      -0.4405484281013046,
      0.21026117340016282,
      0.003553207818392856,
      -0.8715344919093282,
      -0.19721586746915398,
      0.34503590597653044,
      -0.9547118995021253,
      0.2291453881528375,
      -0.714680171962131,
      -0.03184395482525392,
      -0.02755365569739802,
      0.06066031878612942,
      0.6247239239090034,
      0.3417000811721377,
      0.9592898697733337,
      0.36143590428288463,
      -0.2614027649588111,
      0.1660833121039474,
      0.41040698667339826,
      -0.2528499812752751,
      0.04485471775236877,
      0.47152677062324355,
      0.37152086102109466,
      -0.48172605731417395,
      0.38906302746282273,
      -0.9244196217227454,
      0.5344366440039441,
      -0.0707960392128236,
      -0.37265405270069185,
      -0.47888834117165235,
      0.8014817953390679,
      0.021774438910615212,
      0.761363871087279,
      0.06889658008389662,
      0.03993450655594245,
      -0.28610107465089274,
      -0.2860933097508851,
      -0.9232900007532161,
      0.10699248212028106,
      0.5693253148463147,
      -0.3390721239430481,
      -0.15398809374336508,
      -0.16582009411978316,
      -0.29051008619370133,
      0.1843711342498141,
      -0.04416363443498845,
      -0.16753419139865006,
      0.24899834008432192,
      0.2641818641564315,
      0.5587946424730745,
      0.2853993085155269,
      0.14901163597113562,
      -1.2542653764694347,
      0.11921838367346085,
      -0.80437292793185,
      0.09356112453026706,
      -0.12343061359924345,
      0.5398631882133094,
      0.5007927464450596,
      -0.2530881164046842,
      -0.17307925667904467,
      -0.4494760708772046,
      0.4262527884085492,
      -0.5030848850330278,
      0.5742319192428781,
      -0.22616702488785828,
      -0.37107639711328255,
      -0.11350713246308837,
      -0.0004986940792575615,
      -0.5617794395036743,
      -0.05301084359988503,
      0.894497056068066,
      0.3129040821846391,
      -0.037269071862956624
    ],
    [
      -0.0504869470585555,
      -0.14661696904311528,
      0.15066245012195276,
      0.0979760229047558,
      -0.07652866319456268,
      0.14074812407613765,
      0.06820705191135892,
      0.015685813292314194,
      -0.06372397606420337,
      -0.044806874694088616,
      -0.013982232561236735,
      0.15388011796819837,
      0.009630953622299904,
      0.0664946897591005,
      0.11948510057976394,
      0.10117306640230608,
      0.13540328513986646,
      -0.050188726671350936,
      -0.00886751115269116,
      0.0661031840429159,
      -0.08622939965587928,
      -0.08903725732984395,
      -0.15401591478049112,
      0.006520600333907306,
      -0.07585154302080578,
      -0.11319733091322244,
      0.13491992269642603,
      -0.049084276338724864,
      -0.17746897949433205,
      -0.10851109341216218,
      0.06759035953627524,
      0.14563519539176437,
      -0.03041305226249444,
      0.006724050259327791,
      0.017851166969867466,
      0.09915679976964945,
      0.024901942610979527,
      0.0025254637042058103,
      0.11496467391745938,
      -0.08545807051623455,
      -0.13071753062954547,
      -0.05012580730889807,
      0.1644908725031701,
      -0.02930468642798334,
      -0.06560026603112212,
      -0.07592330929306157,
      0.1570811677045499,
      0.0513739299229212,
      0.017495169357733265,
      0.10914293177253256,
      -0.0034772214717289918,
      -0.03877061196048623,
      -0.02753501714169948,
      -0.03302024617819177,
      0.10367925475587822,
      0.06969675883218487,
      -0.14852949041408542,
      0.0819405907389347,
      0.15434941576400243,
      0.15999890478207393,
      -0.042407835211034,
      -0.16383601836587705,
      0.04871712708479897,
      0.06472375212052214,
      -0.004196664242766962,
      -0.12121328280691508,
      0.0986721988596995,
      0.10301283456286356,
      -0.08938150916354039,
      0.16789757552671422,
      -0.1009025052816033,
      0.026279925659726394,
      0.1089107331936349,
      0.00949166276080049,
      0.13544180002180325,
      0.06745036467638446,
      0.1685740080093924,
      -0.15815809253282154,
      -0.022128824964724653,
      0.12025580672370131,
      -0.057663321082816604,
      0.08573988537851865,
      0.009954061762944888,
      0.10954106221366813,
      0.12728025091175202,
      -0.03845794476385095,
      0.1516920308503841,
      0.14400174316072675,
      -0.003564358554896785,
      0.10380933438256365,
      0.015231425285905403,
      0.15576707834184453,
      0.054448478866402056,
      0.12172699304133974,
      0.026368614018237174,
      0.10742377366188396,
      0.17706133159083035,
      0.06939098854536485,
      -0.03363887391801876,
      -0.06807277423976585,
      -0.10670939575012574,
      -0.12517550250199982,
      0.08533955155426245,
      -0.026029855838250543,
      0.0541234257201641,
      -0.0221232239769108,
      -0.11150084253681242,
      0.16007472429634736,
      0.15150516067305245,
      0.057853953075821085,
      0.054423204432666655,
      -0.09829247044585519,
      -0.11645797554605324,
      0.16090522214975553,
      -0.12507943116583514,
      -0.024102209236515515,
      0.06047909882241151,
      0.08376648796023076,
      -0.057285026028479444,
      0.10881921071453918,
      -0.043086575446222825,
      -0.08298423868232478,
      -0.1397055457159745,
      0.08040064246145381,
      -0.10236014322005603,
      -0.13520572975491196,
      0.008471788179414769,
      0.035497167847439615,
      -0.01916427394972864,
      0.07827533190732819,
      0.17230671173617793,
      -0.14539630441110327,
      0.022560864574491968,
      0.11542774789204888,
      0.10243108548314292,
      0.12657694265427075,
      -0.14561576247270627,
      -0.10263558638328518,
      0.1429490931878786
    ],
    [
      0.04050430698537539,
      0.011235522598802138,
      -0.39235501053778493,
      -0.26323026936968563,
      0.22184237248446023,
      1.457923044701142,
      -0.7933976379728658,
      -0.007780483587265595,
      0.3005345447975024,
      -0.10393985502237414,
      -0.2997225183898927,
      -0.45761819941676407,
      -0.47953482897617644,
      1.0732597564265074,
      0.3681793232243507,
      0.4690422211264756,
      0.5577223278435544,
      0.6322127940912297,
      -0.2540102354821715,
      0.19815694735828107,
      0.49293478371228416,
      0.502792259779099,
      0.29926849434660147,
      0.05604316290972095,
      0.14345465025465384,
      0.37961595008480997,
      -0.4831701708248259,
      -0.8907361195056543,
      -0.9141167850837062,
      -0.21878361480486547,
      0.4174552168760353,
      0.12722059249883402,
      -0.4597074794013022,
      0.008764106746344605,
      -0.022719014629322267,
      -0.08598995143861467,
      -0.6689439306306386,
      0.2711021392236787,
      0.30551051416154495,
      -0.12314971455770456,
      0.9429125166964318,
      -0.340678761232565,
      0.5174873394066852,
      0.8940369622564912,
      -0.5892140445944003,
      -0.025077787720497416,
      -0.3641040348011555,
      0.1426649439633911,
      -0.33627098593685295,
      -0.5936386915780423,
      0.27917804303917615,
      0.15595389005629415,
      0.4013172615270233,
      0.6400789716262301,
      -0.08007167887517917,
      -0.39832415079593436,
      -0.030365522961112695,
      -0.7122973506726755,
      -1.1374441137475109,
      0.12575742955305536,
      0.0437219165161484,
      -0.6663161565611231,
      -0.01642218247534166,
      -0.5873710758192093,
      1.7795601656361135,
      -0.5164310076576173,
      0.5867006403731874,
      -0.15624835896620337,
      -1.0952567610059833,
      -0.6480227310249919,
      0.8510754964033331,
      -1.2968871218781461,
      0.2594561350092216,
      -0.8172436540611546,
      -0.2379628616063932,
      -0.08808002200258,
      -0.2567277838888026,
      0.5883558235583435,
      0.5962396418241519,
      1.4292839308508534,
      0.23007004140961196,
      -0.09558157618180209,
      0.09679466802032242,
      0.37523330327961424,
      -0.38553515899917024,
      0.20317890273271694,
      0.5280652181225982,
      0.20630966220937902,
      -0.7149634125451,
      0.48522790284081146,
      -1.1427627799380742,
      0.7717202596490097,
      0.02863259547389924,
      -0.23493279293968322,
      -0.5173875315108339,
      0.8601363424998077,
      -0.03397816514428571,
      1.1252721840921216,
      -0.19149492344680283,
      0.1614772415203139,
      -0.461483665427264,
      -0.23144455899515698,
      -1.0502057896260943,
      -0.131558934970652,
      0.8108329484530374,
      -0.7222464585494178,
      -0.20583875476740426,
      -0.3452576851346731,
      -0.6891087442042978,
      0.5701241137070757,
      -0.31410555592035866,
      -0.2600032918362461,
      0.6159268418003523,
      0.7175038238407934,
      0.8495766716470783,
      0.014338554431384962,
      -0.0157604495785759,
      -1.5947793572052948,
      0.36454343107622156,
      -1.0249113517787896,
      -0.06966759214136252,
      -0.37457006908729096,
      0.6295411669900356,
      0.5382362663727174,
      -0.6187437750616849,
      -0.35195763834703364,
      -0.6191276805673078,
      0.577547614261416,
      -0.6952527511434664,
      0.8777550382352494,
      -0.06470097806312057,
      -0.33990107058720687,
      -0.25306601645731797,
      0.09338227086131583,
      -0.8216632620442069,
      0.16402502215526565,
      1.1856574548361711,
      0.48947862880273596,
      -0.008311960539717438
    ],
    [
      0.046911349714389254,
      -0.025552749083185725,
      -0.45203004012778547,
      -0.22565542665274327,
      0.3633130768905527,
      1.3424679131771815,
      -0.8651516208982473,
      0.034202087341173,
      0.5319251991185393,
      0.197907183521775,
      -0.5975730339877189,
      -0.22930967700062116,
      -0.483308526375445,
      0.9013314220254667,
      0.6831582704782426,
      0.5860736303175265,
      0.4560058887098839,
      0.5494042596370005,
      -0.2887608591635777,
      0.17637024104526522,
      0.4671062260211006,
      0.7508557469753377,
      0.3662863608126586,
      0.027835640137656402,
      0.06245544865119211,
      0.3260870267329097,
      -0.31119180411331565,
      -0.8208528531208137,
      -0.8488254811560155,
      -0.28778137670028,
      0.5943042152397896,
      0.314604839374794,
      -0.5969654937081463,
      0.054254899482387105,
      0.22037728557125127,
      -0.011547977327317552,
      -0.8614811580456884,
      0.2808679952666795,
      0.5887877029439847,
      0.17454571574546918,
      0.8128167370919045,
      -0.2136392544679633,
      0.6579666406763813,
      0.6918054847744772,
      -0.5678832993829507,
      0.03962251032162813,
      -0.5920821357846574,
      0.36431400875334585,
      -0.33905575939822225,
      -0.5577983090093234,
      0.4889019640475193,
      -0.06840254799567475,
      0.4359288426932779,
      0.7560166735617643,
      0.08387148850672926,
      -0.6119146677924727,
      -0.1715528822491263,
      -0.8344858696537849,
      -1.1121183767853637,
      0.14545477195238668,
      0.22102920195421483,
      -0.7497530857866141,
      0.045622755825469694,
      -0.5159739986400586,
      1.8403821932051896,
      -0.6532718960255975,
      0.33487449765318605,
      -0.11363990871712171,
      -1.1165701263210897,
      -0.44221747953178864,
      0.6697598479759302,
      -1.2949669706552136,
      0.09215661112615099,
      -0.8776443558021458,
      -0.12626515886650008,
      0.19297233060209773,
      -0.00826157920597293,
      0.5895320247707942,
      0.327186010938886,
      1.1753195186327734,
      0.3235828379632032,
      -0.22286544798890862,
      0.18714246672202228,
      0.5980611713150855,
      -0.5912789930654638,
      -0.07550647832530824,
      0.39200205425372525,
      0.45816119046798365,
      -0.4724038604502269,
      0.33784256203107826,
      -1.3603848375756147,
      0.5915443824774339,
      0.10135971976074282,
      -0.3352132488816733,
      -0.43700293464348955,
      0.9407278872146061,
      0.035294215340644836,
      1.071374473181581,
      0.021780895211954615,
      0.09334432077948056,
      -0.19756054555058528,
      -0.21814490714462748,
      -0.92864953479218,
      0.09113445689172893,
      0.6939819326030958,
      -0.6120193190720117,
      -0.10264139373822423,
      -0.3636821814312647,
      -0.6477784516578977,
      0.44619179447824675,
      -0.11829120418776291,
      -0.4007062872209576,
      0.4794061415458267,
      0.4535291717253886,
      0.6372754560123497,
      0.1472855389390292,
      -0.11539624038444028,
      -1.4904899497509505,
      0.28671746255445124,
      -0.8139532169499507,
      -0.21852838853705156,
      -0.3949802893545371,
      0.717222937959094,
      0.6515363578141322,
      -0.527150801521178,
      -0.44997420364909296,
      -0.574728270524366,
      0.42286805835305663,
      -0.9563996046063518,
      0.848484724233539,
      -0.14218414378406755,
      -0.6229876574401864,
      -0.4016913053325375,
      -0.04951836168828201,
      -0.5673410872995625,
      -0.006567839497568489,
      1.3280701184359012,
      0.5214407975113754,
      0.12590757436530836
    ],
    [
      0.07725362576091184,
      -0.1930560012755337,
      -0.37086907068678127,
      -0.1780735171378955,
      0.3924186434838163,
      1.4531591046865526,
      -0.8594682642557803,
      -0.26206110300666685,
      0.3558160701748995,
      0.033438744224309314,
      -0.5026471205611092,
      -0.1666475921915384,
      -0.4302913154550408,
      0.944012620304739,
      0.5096813773781628,
      0.2418159657193678,
      0.6293062333229239,
      0.5120398840759095,
      -0.06132782952486715,
      -0.08866412204945867,
      0.2925868760318346,
      0.7265885798876061,
      0.3982502057315029,
      0.04285157654547255,
      -0.1872023766283624,
      0.21775242702648837,
      -0.4333732095549703,
      -0.6901298203063545,
      -0.9435689328885978,
      -0.289491321868926,
      0.3212715613244737,
      0.19934154722834535,
      -0.7106397510938626,
      -0.28713579702245445,
      -0.08438654349727367,
      -0.20096318203614835,
      -0.8456254192259641,
      0.5253176158915129,
      0.47926420025803806,
      -0.0678636118918125,
      0.8404582687538722,
      -0.16908045025811744,
      0.8123935869348938,
      0.9031070895781586,
      -0.7711233229746582,
      0.11578489304106135,
      -0.5497071810279792,
      0.22230363803841124,
      -0.28517285239430257,
      -0.48242744733411946,
      0.46847999334601076,
      0.09953211650161028,
      0.4475681881787683,
      0.6972230312205546,
      0.2107108035916646,
      -0.30960184100669386,
      -0.03076786770626705,
      -0.8576022304338644,
      -0.9074559297693254,
      0.40528474906133205,
      0.24778956971702776,
      -0.7465667480184517,
      -0.21940286587076763,
      -0.45950720364820097,
      1.606757242289448,
      -0.607450917712018,
      0.5384392506356156,
      -0.014189421224681965,
      -0.9428761053698977,
      -0.5555128007817458,
      0.6099402658855081,
      -1.0413293658376628,
      0.13478314468620026,
      -0.9250868488973708,
      -0.24128546140012722,
      -0.08306793565002311,
      -0.08264209757659415,
      0.5200304919328864,
      0.6390851640986164,
      1.2564865263703962,
      0.2245903710878049,
      -0.21002618191924832,
      0.08295937311098567,
      0.6032370287765229,
      -0.5539922191367437,
      -0.08902687132235164,
      0.5648834979888675,
      0.28528934481888546,
      -0.7261888045989688,
      0.5346739073164408,
      -1.0406216090196412,
      0.5683122083323054,
      0.08819031915688108,
      -0.2465750496217931,
      -0.7356951271081518,
      0.9499090124979471,
      -0.05284935734007494,
      1.1203136614330613,
      -0.038285007706464466,
      0.2225147536508384,
      -0.5144238247556128,
      -0.1601768932427673,
      -1.1629318685031176,
      0.05423478228195977,
      0.9889689995229644,
      -0.534437210886905,
      -0.265222038350579,
      -0.427681394832821,
      -0.6123351825170009,
      0.5957555972744949,
      -0.1154111294423412,
      -0.2900447317847077,
      0.5538366766772986,
      0.6227254762377549,
      0.7429933533352064,
      0.1266719960052264,
      -0.05632837295695104,
      -1.359150553729362,
      0.1011298156472132,
      -1.1057817155336556,
      0.06339768493261064,
      -0.2815486271716282,
      0.5745871768352661,
      0.43634748175091614,
      -0.5104423636101758,
      -0.32963428480685036,
      -0.3754954255460531,
      0.36080714530505087,
      -0.8668624388749718,
      0.8637629803829406,
      -0.01622337276972929,
      -0.5320502376471844,
      -0.13352382026541668,
      0.04824466585786684,
      -0.5635572851218891,
      0.22334513487826896,
      1.3189815281113084,
      0.6416817888060302,
      -0.029971138463598265
    ],
    [
      0.05633484283676584,
      0.023162323625220357,
      -0.2029955001388742,
      -0.17529794419910025,
      0.2256138170501608,
      1.4428812689660349,
      -0.659847292740654,
      0.07668893578989971,
      0.4584059985724969,
      0.1439934780350453,
      -0.40996916711678755,
      -0.1779403085409944,
      -0.5196438235508606,
      0.9329849054224599,
      0.4959877212641891,
      0.5192859349591845,
      0.40102660521689537,
      0.6307099489724086,
      -0.23469345731198488,
      -0.061004248323743106,
      0.30960899811180553,
      0.741296482106721,
      0.3539433348055,
      -0.11935706502506455,
      -0.15148754011329701,
      0.3342221600730787,
      -0.5012990782412686,
      -1.0023904314416718,
      -0.9249118443235783,
      -0.157910754456463,
      0.48182538863013186,
      -0.008689537048044982,
      -0.7661632271174367,
      -0.20485082140704225,
      0.07057445407398967,
      0.14332091112772996,
      -0.604365368643837,
      0.5957503958510508,
      0.5632531855546583,
      0.1232178398067422,
      0.971112063161877,
      -0.39283707764313613,
      0.7569292603727303,
      0.8070463366735858,
      -0.5592985849160677,
      0.20663445661534627,
      -0.5969721007349529,
      0.28484693136069,
      -0.16619308812250339,
      -0.592045891031117,
      0.47815158764776505,
      0.09200646097717753,
      0.1645131649388474,
      0.8527517505231154,
      0.2461633911002001,
      -0.40389078465486733,
      -0.029670904695123096,
      -0.8948725341188302,
      -1.0452276167216437,
      0.3117153690546041,
      0.1656165465648325,
      -0.5172866632184778,
      -0.03114364837949723,
      -0.5850366314939065,
      1.8654018450439107,
      -0.45652349750743587,
      0.576313366986026,
      -0.025094631431950065,
      -0.9132005861664951,
      -0.5583698392131294,
      0.7076095924043099,
      -1.0393066877763968,
      0.23148322558291679,
      -0.9439983443638672,
      0.02416821922887628,
      -0.01978084659405667,
      -0.04853228640908925,
      0.60331133434895,
      0.37726524050048066,
      1.4402434099166703,
      0.33981644832224855,
      -0.23421236436488632,
      0.10942846300044756,
      0.42522836846217504,
      -0.32203853640912145,
      0.05408915771356787,
      0.6847272871926783,
      0.360909375195091,
      -0.6339650259529445,
      0.41976908173190325,
      -1.3624761200814832,
      0.6365398662632086,
      0.18932551114170867,
      -0.24987883381326803,
      -0.522952047632954,
      1.013766901063753,
      0.11804768296260355,
      1.046858451496244,
      -0.22277490518440338,
      -0.08343697606090157,
      -0.4608427349663596,
      -0.4874883084960455,
      -1.18039327449056,
      0.09706663685673649,
      0.7174009865259512,
      -0.6019795110997386,
      -0.1523998593218009,
      -0.2872302724533039,
      -0.5084865891456288,
      0.4466183589075482,
      -0.09468709910790558,
      -0.12632567595370056,
      0.48542392513841304,
      0.45283778469290525,
      0.9281454083653559,
      0.17508190244130994,
      0.0038675222455720353,
      -1.4596552662407538,
      0.3634012154866891,
      -1.0614256056282945,
      -0.17056535784160204,
      -0.33496263951190086,
      0.691070182172024,
      0.5477109914558288,
      -0.4922047957087257,
      -0.4615792439977963,
      -0.6234598257645797,
      0.4537495693949128,
      -0.9032476543070204,
      0.9788022632068388,
      -0.03602619101230625,
      -0.6448145611345111,
      -0.16238591784463874,
      0.2770569620553151,
      -0.6402678670144127,
      0.2767634620157652,
      1.067745212776919,
      0.6124476553381465,
      0.26666341121123416
    ],
    [
      -0.037998584334890874,
      -0.16167300888028652,
      -0.3976530494550357,
      -0.18140507563835645,
      0.05918631139208866,
      1.387921519601078,
      -0.5316153164155405,
      -0.10657937681587151,
      0.25732399278810153,
      0.17697330798858468,
      -0.6361268572058637,
      -0.22938931814992974,
      -0.4041096772501732,
      1.1114090487324646,
      0.5254701434457885,
      0.4052916567200883,
      0.5913976933775754,
      0.6614287403333631,
      -0.07366101883683039,
      0.16328206870165282,
      0.49667461963191506,
      0.7030978086485493,
      0.39982056618180145,
      -0.09615959126841056,
      -0.19634155237960776,
      0.4670261394694397,
      -0.5414296503261808,
      -0.7051588106821022,
      -0.684788700064244,
      -0.30632051140622957,
      0.5946266033209643,
      0.05840224062971755,
      -0.6722817933722767,
      -0.01748844496951316,
      -0.11636280792785755,
      -0.20042742996171278,
      -0.7425998997636125,
      0.5929453030770306,
      0.5738125495395998,
      -0.07683973256118944,
      0.8887544619330268,
      -0.20140095079302198,
      0.7515424150870746,
      0.6874480423833687,
      -0.8599709948185453,
      0.0015816182483193893,
      -0.5303436593947605,
      0.39471864363222126,
      -0.4271380348294928,
      -0.6263769556023591,
      0.42831638740762523,
      0.2535337168442666,
      0.15693301868420798,
      0.7632090838059681,
      0.09658385037788628,
      -0.47894498494725174,
      0.07635791542580575,
      -0.8058609487122215,
      -0.972767597900522,
      0.3124447734761369,
      0.11836751916052549,
      -0.6937913449678623,
      0.010770491656966051,
      -0.6218706039990152,
      1.7439676129258688,
      -0.6574808692377797,
      0.47010805593994615,
      -0.2819616711452083,
      -1.0710527607677482,
      -0.31195635215480694,
      0.7839926481819947,
      -1.2738256597696855,
      0.2636050296218759,
      -0.6460143919204072,
      -0.14524506153064828,
      0.17358318685657323,
      -0.06993244509666047,
      0.6080144361621906,
      0.510713061375292,
      1.1233419542519307,
      0.20833153314043337,
      -0.29278587343359713,
      0.011795216850534088,
      0.5421649320486154,
      -0.37315026206807783,
      0.1675128497498344,
      0.5607114550857468,
      0.3016158901268303,
      -0.5737472238129765,
      0.45019237483940816,
      -1.135494758181196,
      0.5342238819652122,
      0.15391267788641472,
      -0.3020885526351282,
      -0.5882708908943026,
      1.085507328518578,
      0.046656587578278626,
      0.8333672795198117,
      0.002001561189022394,
      -0.05617521817705304,
      -0.19710732952718507,
      -0.17744332452407646,
      -1.2025618500901825,
      0.051041378815632504,
      0.8643404158107886,
      -0.5502368833607038,
      -0.1509854562326213,
      -0.381052659627326,
      -0.743715272450929,
      0.46784402423087323,
      -0.05699700763842462,
      -0.23794030992382964,
      0.5323039840195605,
      0.7102895796384517,
      0.6414378782782885,
      0.1975463830798113,
      0.008063747880596621,
      -1.613673071559481,
      0.26051907106318056,
      -0.8979541449133889,
      -0.1682055407571154,
      -0.5522459294684033,
      0.8124894611168456,
      0.5173007930652075,
      -0.6642859021765894,
      -0.24471205239210808,
      -0.6306561014461884,
      0.3942121225682397,
      -0.8775744660182639,
      0.6285543229065476,
      -0.14467467668566605,
      -0.5109160433438902,
      -0.4117049101473551,
      0.041287997900128444,
      -0.6861498451576133,
      0.044590324732658906,
      1.0569979085921046,
      0.4140069846739155,
      0.08028270436190627
    ],
    [
      -0.1856828090534873,
      -0.009334728452019443,
      -0.23946192465798863,
      -0.14275521302285463,
      0.09070898461726593,
      1.4588766142758525,
      -0.6645472965670574,
      -0.17631065068630192,
      0.25159919659634455,
      -0.00519213634969983,
      -0.48982642818445166,
      -0.41386522008487125,
      -0.34314724755394593,
      0.8799604952561328,
      0.543870237587588,
      0.47284669228344706,
      0.46278928153828136,
      0.40144130777473885,
      -0.17216595642975094,
      0.13828472886502166,
      0.3344771140368194,
      0.753327224845328,
      0.2664110617369258,
      -0.17256555219859576,
      0.14439311759454956,
      0.3146337758907318,
      -0.4258007259492621,
      -0.9293025414407226,
      -0.9401388556384588,
      -0.08892578650499698,
      0.37726197047521876,
      0.0598748796598364,
      -0.5825651185507996,
      0.02931503647654786,
      0.044709547622452564,
      -0.08539076616418799,
      -0.628165584365537,
      0.5864810091688688,
      0.3991519088854928,
      -0.13216853563176809,
      0.8038181691160791,
      -0.3332651900120396,
      0.579344245357064,
      0.8516885070909845,
      -0.8465046836263551,
      0.2215723950315076,
      -0.291238539003571,
      0.46786431566804265,
      -0.3451226389840339,
      -0.8105624363970045,
      0.2722436346317864,
      -0.0740641541987927,
      0.42623235381520774,
      0.5912520000983452,
      0.2554383208505937,
      -0.3292707004180402,
      -0.11176486914323212,
      -0.771238353725209,
      -1.0421290275659738,
      0.3466484999949389,
      0.16691666498434404,
      -0.7822866362469996,
      -0.024997306678875727,
      -0.5805278218045221,
      1.823073801061447,
      -0.5266027811972047,
      0.39105471276132586,
      -0.3275472572032911,
      -1.0890343273069276,
      -0.5793064404576527,
      0.7673333710210852,
      -1.1370431013567202,
      0.30478311962116883,
      -0.9117279705516961,
      -0.022198291279163403,
      -0.024428008827859317,
      -0.06847659372178685,
      0.6278520736736115,
      0.560076113361753,
      1.2259791907419682,
      0.3964633212733708,
      -0.23823892039493028,
      0.17162239934031331,
      0.41974233726365184,
      -0.5788776943671334,
      0.04112220692835923,
      0.5964144529266864,
      0.4144865302061328,
      -0.6107918029544684,
      0.3830691763870601,
      -1.3787210789988111,
      0.6469535341088705,
      0.22001874916533307,
      -0.2839841356111664,
      -0.6372696081073868,
      1.02895371052697,
      0.06671620757791508,
      0.9098771369919214,
      -0.18443301357522465,
      0.21267092468763088,
      -0.21555742155336555,
      -0.14855717399826074,
      -1.0674631318827845,
      0.04402745430630553,
      0.936987082340955,
      -0.5321518500318295,
      -0.3006795897243765,
      -0.2544124902028806,
      -0.7385732474618532,
      0.5911418950204864,
      -0.12721525469893258,
      -0.09359659720327845,
      0.6550431401770263,
      0.6557684230617102,
      0.6896252905124522,
      0.23435767085268455,
      0.011516636783757743,
      -1.5594620692006826,
      0.34723296161037553,
      -0.9240394022478816,
      -0.1229030027022625,
      -0.5456264962714255,
      0.6162345300447898,
      0.6675937262709841,
      -0.6860046323596456,
      -0.5183431764285923,
      -0.5441611801755383,
      0.34949830137334637,
      -1.0174286242518487,
      0.8372445681728772,
      -0.005360145058183727,
      -0.5055527688506186,
      -0.3331489415562081,
      0.012338215196170203,
      -0.8450598884659567,
      0.038039527682256526,
      1.1923927151665477,
      0.37611249046213213,
      -0.00011336119494565616
    ],
    [
      0.00402565005721583,
      0.1094423286023247,
      -0.36846675304360493,
      -0.2586130499166578,
      0.19516463753381938,
      1.4405138139108267,
      -0.6273354390889544,
      -0.2387988759748963,
      0.6026638637963406,
      -0.030822018504087563,
      -0.2976053196286604,
      -0.23708700601622623,
      -0.47967139266475206,
      1.091874853751722,
      0.6432878633033158,
      0.47918966589273543,
      0.4593387258865927,
      0.6132969894573052,
      -0.2653630509918102,
      0.04006243373979719,
      0.44411941826630336,
      0.5006483527333064,
      0.49085407190110975,
      -0.16305407729863491,
      -0.021947999994704852,
      0.3277353516611329,
      -0.23044663555703324,
      -0.9526154019383127,
      -0.9398870272003476,
      -0.26819278471012736,
      0.4705158971747668,
      0.2643371061162762,
      -0.7321715123112834,
      -0.23904623344213705,
      0.20307262774585674,
      0.10638676008310337,
      -0.7014877921638165,
      0.6131789532032949,
      0.6066437003458349,
      0.14848541992469522,
      0.9891854207077662,
      -0.27658801386157766,
      0.5194699789416214,
      0.8118932353021577,
      -0.8441973338404791,
      -0.019510286770655937,
      -0.40319274231693963,
      0.40264642926627625,
      -0.1538154655304863,
      -0.6486885517313744,
      0.5987098352613393,
      0.2054628747523356,
      0.33939565721530396,
      0.7054468333607187,
      -0.018912620663995464,
      -0.3322671654245523,
      0.06034124492766743,
      -0.7406038471937735,
      -1.2195083910629596,
      0.09512472510430253,
      0.019357521131743244,
      -0.48549053062892644,
      -0.21488281908056103,
      -0.6342894586287072,
      1.6869824477829887,
      -0.48269529484538726,
      0.4400068343754374,
      -0.27323380518279117,
      -1.0930740377638617,
      -0.5545376366207238,
      0.8274253608014058,
      -1.1843493678607293,
      0.17970839621498816,
      -0.6345187746079917,
      -0.20095628447470157,
      0.14016360222535873,
      -0.19096211385638437,
      0.7593871207233169,
      0.5272025807515083,
      1.4102598686467844,
      0.3203758215062809,
      -0.11139117422647041,
      0.24455134916207932,
      0.5973822689078181,
      -0.4490258961300664,
      0.14022003087895177,
      0.48639796396967894,
      0.5428331252965688,
      -0.6054575584645605,
      0.42226022105513533,
      -1.363107975355648,
      0.7452826206172128,
      -0.028886357990621187,
      -0.18533069765782972,
      -0.569931114755723,
      0.9517184433928503,
      0.018241490304097913,
      1.0167379452015648,
      -0.23865192038697544,
      -0.0974560326957195,
      -0.26733264206660207,
      -0.4326666281454388,
      -1.151852565572536,
      0.11230602839920455,
      0.7671290114094428,
      -0.5792350247910882,
      -0.21748205494226813,
      -0.2654733167484815,
      -0.7500446251467825,
      0.5886674461635638,
      -0.19931824536913845,
      -0.0724445862462324,
      0.6847260375673211,
      0.698680466667041,
      0.5936648432383287,
      -0.00028376959952144953,
      -0.020852706354559172,
      -1.447690976745787,
      0.2505007778751547,
      -0.9152884199411299,
      -0.20841659952879676,
      -0.218956771511679,
      0.8482588390844019,
      0.4526748762975829,
      -0.4007792424765198,
      -0.44909318123303654,
      -0.5805595986467174,
      0.6242864475565382,
      -1.0211448714625475,
      0.8133738907356427,
      -0.010920965998033496,
      -0.5389506913623872,
      -0.16603333116397362,
      0.04337134600123628,
      -0.7928126566584167,
      0.13769982076740908,
      1.3677140041284626,
      0.6468485785352961,
      0.09815583811629447
    ],
    [
      0.09546560142966744,
      -0.15117232054780638,
      -0.4302039063521756,
      -0.07696263757775795,
      0.3242649587485382,
      1.390833565241639,
      -0.5868739819089102,
      -0.004152703171953674,
      0.41490437263545,
      -0.057492706514894555,
      -0.4526349437354915,
      -0.395255682470129,
      -0.3080290775715843,
      0.8838148140746007,
      0.6630007462648004,
      0.2678727884885317,
      0.7066520784211502,
      0.487990323166538,
      -0.21644778234868187,
      0.11599022579855271,
      0.5151655965488084,
      0.527669609701441,
      0.41271815332090855,
      -0.10506664505418384,
      -0.08413486813599715,
      0.2440947877400342,
      -0.2766501655731684,
      -0.6626591088684427,
      -0.6967992088537374,
      -0.20289030745834408,
      0.49021113857727056,
      0.18660199905057248,
      -0.5752895684957312,
      -0.19667574325231935,
      0.19815303492677874,
      0.035134564995160746,
      -0.7571424476532207,
      0.5537469459616513,
      0.5899293474060616,
      0.19101358812862468,
      0.9302245112268468,
      -0.18795478285789216,
      0.5973637431916089,
      0.8210098599398599,
      -0.8853944349818272,
      -0.0017101719583765534,
      -0.43029352220969097,
      0.3170750509378166,
      -0.13613854200401693,
      -0.642779460301033,
      0.39683743302833957,
      -0.02972206657588357,
      0.27236821826527174,
      0.7888886100465992,
      0.06068342166734897,
      -0.5236026672846736,
      0.024358712330569278,
      -0.6709046874411346,
      -0.9667779589123203,
      0.24969523019875425,
      0.061079571422062925,
      -0.7827183406690124,
      -0.176466065094652,
      -0.4510298967590657,
      1.583777965122248,
      -0.7595596787922346,
      0.582927748510727,
      -0.08713101109412238,
      -1.0214417912386744,
      -0.3519380484956606,
      0.6192825462430577,
      -1.1246628522323117,
      -0.040577619130402656,
      -0.7525536233850574,
      -0.12140035419052649,
      -0.09716962248629897,
      -0.05335728467728379,
      0.6089808107935406,
      0.4446014438261358,
      1.4047960702727296,
      0.3894244165095022,
      -0.21493136053320758,
      0.17237172153505192,
      0.47526791476923186,
      -0.33523997558655383,
      -0.00006587289053890544,
      0.3900725836676877,
      0.3044447532219351,
      -0.477434119248844,
      0.6559121351337253,
      -1.1484095118884934,
      0.6484940941628015,
      0.025106577063150063,
      -0.45803796544212105,
      -0.5543537726505182,
      0.9435577458559278,
      0.09330029336075336,
      1.1093247625585927,
      -0.1953311039727074,
      0.07412792781402587,
      -0.2713046866835754,
      -0.4160506591646919,
      -1.1977007262259158,
      0.15567384109717483,
      0.8336002769220368,
      -0.6482792822313617,
      -0.22056856586281554,
      -0.31348558468479515,
      -0.7028552102356739,
      0.4454536716790905,
      -0.2520270407470764,
      -0.24730729106790822,
      0.5225428192962855,
      0.45265037308573264,
      0.7705903161693954,
      0.12105466086047481,
      0.04767864640620214,
      -1.2897293464804058,
      0.2601896613391964,
      -1.0343168361400867,
      0.013781419839401229,
      -0.42286239114541546,
      0.677786067917679,
      0.418065919985603,
      -0.6401671845447249,
      -0.4956431146344494,
      -0.3864958746819129,
      0.6653859627913138,
      -0.8227616501050582,
      0.95664684429371,
      -0.18013610222449616,
      -0.5916732050470063,
      -0.4463696359241489,
      0.01292215351769453,
      -0.7958021464834222,
      -0.028721817715743263,
      1.1216361147677854,
      0.4777498370116209,
      0.04473759580999916
    ],
    [
      -0.10473842532944747,
      0.04072615646173809,
      -0.5111360898905492,
      -0.14341173831125262,
      0.17330765540106136,
      1.4338114945482183,
      -0.5262445703152915,
      -0.25597584195847645,
      0.31468002816112595,
      0.12129696214202723,
      -0.5285745952072497,
      -0.26541211719827906,
      -0.549178824596336,
      0.8255475785528213,
      0.6860713398883385,
      0.4569482203507291,
      0.5490374950769401,
      0.4975828117315987,
      0.051251060290917014,
      0.1173238010017036,
      0.511396268222956,
      0.6759720989569686,
      0.2999478970742383,
      -0.24024532461104403,
      0.149203827967788,
      0.2747937572513276,
      -0.19759620025759994,
      -0.7757600461543054,
      -1.0154216099791886,
      -0.3914516587930141,
      0.6434740715269502,
      -0.00808895331497117,
      -0.4924491619847894,
      -0.23168803106642144,
      0.16107534818376912,
      0.076115388643524,
      -0.7874382520410259,
      0.27456532414081086,
      0.5904549035278538,
      0.11495209799478598,
      0.8706758067313849,
      -0.23193238864397644,
      0.7769079770185275,
      0.6529209952622372,
      -0.8333396013244125,
      0.012531595488463016,
      -0.3046091991573713,
      0.3661901339498449,
      -0.2986304662433908,
      -0.7171747628701904,
      0.483129894703922,
      -0.09028183679971058,
      0.42292301238122676,
      0.8981575553353348,
      0.07023629814753991,
      -0.401911018920692,
      -0.1284046829695679,
      -0.8662355966238378,
      -1.1515191956309585,
      0.17796361613387568,
      -0.002297607185511292,
      -0.6754573834755255,
      -0.07486904916014742,
      -0.4951243462720359,
      1.8315360308830895,
      -0.48396977153482984,
      0.4196286424178931,
      -0.24415514957854806,
      -0.7987115069720769,
      -0.4580920264615631,
      0.4982764944475578,
      -1.1744162811249323,
      0.2634938320263374,
      -0.6561620636003019,
      -0.11740441980471282,
      0.011578554154393548,
      -0.06743229698745959,
      0.8122903648443356,
      0.5811048523178585,
      1.4081781027848441,
      0.3539943055692558,
      -0.18083470423422793,
      0.053293909651703275,
      0.49854255415059806,
      -0.2821437164896634,
      -0.0026151191781917564,
      0.3992631591707897,
      0.41361091320439336,
      -0.5845534065645694,
      0.342059656728776,
      -1.2099105624361586,
      0.7066393112047382,
      0.11856090866386423,
      -0.14830825689428845,
      -0.6714254499334374,
      0.8775081307766686,
      0.09117434142963675,
      1.0417431991970891,
      -0.09629388366780967,
      0.013607386343258466,
      -0.266007511482025,
      -0.41168635486487976,
      -1.1542371126647972,
      0.09693716167502896,
      0.7914914577640642,
      -0.6789143910065898,
      -0.310634407496241,
      -0.35672427132943646,
      -0.6741576979416173,
      0.6528875080759647,
      -0.19452184943678896,
      -0.1379113446527044,
      0.3879434843843935,
      0.5146887749965515,
      0.6041780961528714,
      0.20368856457476053,
      0.11431911000404348,
      -1.5299698544773648,
      0.09792507429145673,
      -0.9797696436321098,
      -0.0025014517073089545,
      -0.2013299939698345,
      0.8330950511266179,
      0.3932285960642111,
      -0.4328232590819372,
      -0.3503482002929462,
      -0.6703089584383599,
      0.6475951353476762,
      -0.8491068530973033,
      0.7424135190241945,
      -0.19102661224051118,
      -0.6052812046781219,
      -0.4077840924238211,
      0.216239295342357,
      -0.5474783339762718,
      0.20087680218363654,
      1.2353317087054954,
      0.6135539834027911,
      0.09563093867821579
    ],
    [
      -0.13509906898010646,
      0.11084734254546072,
      -0.4142759030777199,
      -0.07853066961109828,
      0.2827143449061794,
      1.3336110282776392,
      -0.7435665290581761,
      -0.18519617676941696,
      0.4412440461191133,
      -0.032563884809673115,
      -0.30326896157732824,
      -0.26769588627395213,
      -0.5297039456420491,
      1.1231540631878896,
      0.372956036831673,
      0.4508243925396908,
      0.5737262838322603,
      0.51036784297348,
      -0.11214420785115503,
      0.2598643863803353,
      0.25834706309196964,
      0.5254310726798038,
      0.3898971610654798,
      0.05842888781223066,
      -0.17450260835538806,
      0.3520167369702455,
      -0.33314590097573415,
      -0.8509182718385774,
      -0.7854576816878222,
      -0.29275782901348546,
      0.5518994943070464,
      0.2395504874523215,
      -0.537053891509564,
      -0.14446592367220218,
      -0.11642413916761793,
      0.101095594965165,
      -0.8153956787704554,
      0.6041552292191394,
      0.4238687648056152,
      0.14689769618566118,
      1.0077864909640755,
      -0.21491041591689,
      0.6897950281695495,
      0.8421835354496707,
      -0.81042271341789,
      -0.005867848365324472,
      -0.2878449433395014,
      0.2621624659193552,
      -0.3628402750032227,
      -0.5539852128358124,
      0.4444378412009017,
      0.23622120031201532,
      0.426977348257486,
      0.9278911389157519,
      0.14635904659260165,
      -0.4025664567890432,
      -0.07598608177975974,
      -0.8970972614353874,
      -1.1352191603364332,
      0.340341666862925,
      0.03841238938404837,
      -0.7488655495873915,
      -0.0037300474516204704,
      -0.5361596789326208,
      1.6582116811718772,
      -0.4700811278758056,
      0.5622639256644655,
      -0.20311810352220655,
      -0.7946422391706629,
      -0.5217333904763345,
      0.8319021145539016,
      -1.0367327536784805,
      -0.04655995267504455,
      -0.9787776420709393,
      -0.14653332189484894,
      0.1271096122615846,
      -0.16833085061013411,
      0.6626392488090702,
      0.4795765573731951,
      1.3709257821021987,
      0.13356214434055505,
      -0.29165120717933457,
      0.07427310060373751,
      0.49394849824212583,
      -0.5659156012219207,
      0.2029380031235286,
      0.5575332186966542,
      0.276676488907469,
      -0.6414832154330151,
      0.6287674494219586,
      -1.374134103034315,
      0.44912113705917694,
      0.024022776606042604,
      -0.22664866761506708,
      -0.6410011744181806,
      0.933640399860417,
      0.16189059715956014,
      1.1346697977562012,
      -0.17718588166179455,
      -0.08235871667698903,
      -0.25506843247608885,
      -0.1702092464828528,
      -1.1633184471105376,
      -0.18024969471792054,
      0.9093385643138987,
      -0.7534862657779366,
      -0.06262297124245761,
      -0.47372798099561264,
      -0.5148234405705694,
      0.633376184339929,
      -0.25851638424773626,
      -0.10307351753137756,
      0.6926732764169666,
      0.4809051779362201,
      0.7746797986236836,
      0.34001711828972453,
      -0.08775150734630298,
      -1.5101086743316978,
      0.22005236768245767,
      -0.9635381535128614,
      0.09396499962046252,
      -0.5458934118652793,
      0.847694948911103,
      0.4066245996472722,
      -0.36303548111829637,
      -0.39904791260808004,
      -0.61906602483586,
      0.43408660904249863,
      -0.7627265277553997,
      0.7409919293046752,
      -0.22561113166674227,
      -0.3819679050488709,
      -0.40949376015618144,
      0.06745746011094217,
      -0.6498397194914621,
      -0.012154077554497163,
      1.3759957284833741,
      0.6509355919287908,
      0.1110091128006189
    ],
    [
      -0.1481523257268223,
      0.012071264762047916,
      -0.3253992884060635,
      -0.019652904180448936,
      0.2638380793275536,
      1.2997677532209653,
      -0.873053501776792,
      0.03859779150664025,
      0.5123500607203998,
      -0.1484661590852197,
      -0.5635229378764949,
      -0.421834134430459,
      -0.5402869443354645,
      0.8595609315037863,
      0.5026580541952338,
      0.29521893297112234,
      0.487440632159919,
      0.5484471665116679,
      -0.21790088377649405,
      0.055233846208667524,
      0.32386280812489304,
      0.47917492791579464,
      0.33578251089505246,
      -0.12172328580550115,
      0.1349162729698747,
      0.4855861597482082,
      -0.3079559125461607,
      -0.982625283143501,
      -0.8855160498879346,
      -0.19710698499200224,
      0.5073431641816322,
      0.05136657548744507,
      -0.7165381496646421,
      -0.10867040715183326,
      -0.117136584494169,
      0.03390744998752091,
      -0.6421894504561789,
      0.4767950721263245,
      0.39819930637186907,
      -0.0640132401813778,
      0.7012426952518904,
      -0.4299635284234329,
      0.6333718681448369,
      0.9031079595395175,
      -0.8010665397957133,
      0.1775751005504977,
      -0.47615294966618393,
      0.36449291826721997,
      -0.45121241414295366,
      -0.7406465191820262,
      0.3572251793217997,
      0.07024919853414056,
      0.4166479633725232,
      0.7537199855650581,
      0.03415022166155948,
      -0.6163703022947513,
      -0.13398191872751236,
      -0.9729399518433488,
      -0.8805544938071025,
      0.2389449276704574,
      0.055850242461781725,
      -0.5405989335106398,
      -0.09223493767518709,
      -0.5073032784442328,
      1.6841905939462587,
      -0.6635709163990661,
      0.41970026919048636,
      -0.3436968083214246,
      -1.0541845652192225,
      -0.4565042793290843,
      0.6865033489913361,
      -1.0141638153974277,
      -0.03298831366154957,
      -0.9730987308437821,
      -0.10710349624979772,
      0.11173834036144659,
      -0.08494028289969859,
      0.5755119421120329,
      0.3563360946375895,
      1.3495521362720928,
      0.42230476412199713,
      -0.05873272065019347,
